svm_type c_svc
kernel_type rbf
gamma 0.00012207
nr_class 2
total_sv 120
rho 18.1542
label 0 1
nr_sv 58 62
SV
2048 1:-0.840112 2:-1 3:-0.59169 4:-1 5:-0.133024 6:-0.945094 7:-0.730723 8:-0.968397 9:-0.895649 10:-1 11:-0.188219 12:-0.720453 13:0.184992 14:-0.553287 15:-0.535741 16:-0.754375 17:0.540046 18:-0.620549 19:0.717359 20:-0.308784 21:0.0714176 22:-0.0766322 23:-0.385373 24:-0.668226 25:1 26:0.378457 27:1 28:0.258851 29:1 30:0.945541 31:-0.5059 32:0.389343 33:1 34:-0.973752 35:1 36:-1 37:1 38:-0.868615 39:0.152201 40:-0.788119 41:1 42:-0.94871 43:1 44:-0.116659 45:1 46:0.0502661 47:0.0543586 48:0.0963919 49:-0.143426 50:-1 51:0.442971 52:-1 53:-0.606484 54:-0.968031 55:-0.876738 56:-0.685935 57:0.363882 58:-0.845889 59:1 60:-0.328978 61:-0.724966 62:-0.733309 63:-0.620463 64:-0.53737 65:-1 66:-0.901094 67:-0.771831 68:-0.891202 69:-0.616455 70:0.882026 71:-0.492114 72:0.866017 73:-1 74:-1 75:-1 76:-0.393569 77:-0.982249 78:-0.156013 79:-0.566042 80:0.438978 81:-0.887925 82:-0.778276 83:0.0638259 84:0.875658 85:0.207877 86:1 87:-0.0130142 88:1 89:-0.976904 90:-0.111175 91:-0.688528 92:1 93:-0.890566 94:1 95:-0.756125 96:1 97:-0.455048 98:-0.77257 99:0.38672 100:-0.172827 101:1 102:1 103:1 104:1 105:-0.964446 106:-1 107:-0.776355 108:-0.429339 109:0.518116 110:0.536565 111:-0.298364 112:0.673161 113:-0.877385 114:-1 115:-0.172561 116:0.0973367 117:-0.620336 118:-0.634376 119:-0.410471 120:0.104364 121:-1 122:-1 123:-0.807136 124:-0.392362 125:-0.993008 126:-0.583068 127:-1 128:-0.911132 129:-0.542907 130:-0.972865 131:0.239262 132:-0.958299 133:-0.885386 134:-0.970238 135:0.969338 136:-0.79555 137:-0.318287 138:1 139:0.104687 140:1 141:-0.812218 142:-0.432318 143:0.150672 144:1 145:-0.854825 146:-1 147:-0.841597 148:-0.886817 149:-0.786085 150:-0.984044 151:-0.38837 152:-0.714765 153:-0.593993 154:0.192337 155:-0.945187 156:0.234034 157:-0.0491077 158:0.602321 159:0.819196 160:1 161:-0.687731 162:-0.57095 163:1 164:0.306026 165:-1 166:-1 167:-0.422554 168:-0.765684 169:-0.786993 170:0.417754 171:0.233477 172:1 173:-1 174:-1 175:-0.434439 176:-0.353104 177:-0.731826 178:-0.86658 179:0.258435 180:-0.146941 181:-1 182:-1 183:-0.276875 184:-0.736078 185:-0.741798 186:-0.0998112 187:-0.37299 188:1 189:-0.948067 190:-0.974226 191:-0.609385 192:0.524712 193:0.0843905 194:-0.477688 195:-0.755281 196:-1 197:1 198:-0.237498 199:0.319989 200:-0.628275 201:-0.380779 202:-0.0727749 203:-0.701365 204:-1 205:-0.732116 206:0.144344 207:-1 208:-0.786473 209:-0.588121 210:-0.568621 211:-1 212:-1 213:1 214:-0.059296 215:0.0362087 216:-0.363671 217:-0.509847 218:-0.0146725 219:-0.865208 220:-0.744094 221:0.638607 222:1 223:-0.673258 224:-0.150732 225:1 226:1 227:1 228:-0.624577 229:-0.37253 230:-0.794077 231:0.0315495 232:-0.704729 233:-0.995462 234:-0.200281 235:-0.687158 236:-0.899578 237:-1 238:-1 239:-1 240:-0.966057 241:0.548773 242:0.701038 243:-0.482562 244:-0.59184 245:1 246:-0.219127 247:1 248:-0.348322 249:-0.875257 250:0.94925 251:-0.829928 252:0.0251031 253:-0.9578 254:-0.489377 255:-0.868916 256:-0.908184 
148.6201316823591 1:-0.00996355 2:-0.521469 3:0.371897 4:-0.527243 5:-0.363789 6:-0.512882 7:0.301184 8:-0.383761 9:-0.396302 10:-0.432586 11:0.472377 12:-0.449244 13:0.665148 14:-0.367459 15:0.0838661 16:-0.194432 17:-0.0210149 18:-0.462805 19:-0.0480923 20:-0.140043 21:-0.480381 22:-0.0578907 23:-0.147292 24:-0.445633 25:-0.252451 26:0.116871 27:-0.629006 28:-0.571836 29:0.0482302 30:0.150829 31:-0.202602 32:-0.117999 33:-0.24303 34:-0.639706 35:-0.13121 36:-0.626064 37:-0.231209 38:-0.699324 39:0.322961 40:-0.863643 41:-0.222276 42:-0.570327 43:-0.396868 44:-0.0948414 45:0.0943651 46:0.215303 47:0.334355 48:-0.310645 49:-0.164603 50:-0.385876 51:-0.201751 52:-0.262202 53:0.148996 54:-0.764516 55:-0.0710897 56:-0.639574 57:-0.114572 58:0.327263 59:-0.228902 60:-0.124154 61:0.240875 62:0.0299097 63:0.144006 64:-0.0726024 65:-0.401626 66:-0.361766 67:-0.0882541 68:-0.444506 69:-0.50354 70:-0.0501544 71:0.182517 72:-0.235085 73:-0.252892 74:-0.016533 75:0.0823817 76:0.161544 77:-0.709305 78:-0.112305 79:0.136575 80:-0.1435 81:-0.126167 82:-0.0264375 83:0.302951 84:0.235145 85:-0.246727 86:-0.427976 87:-0.19984 88:-0.685417 89:-0.618863 90:0.348885 91:-0.334211 92:-0.205615 93:-0.762586 94:-0.191543 95:-0.375678 96:-0.498059 97:-0.131119 98:-0.538784 99:-0.0821913 100:-0.494835 101:-0.653914 102:-0.639871 103:-0.141491 104:-0.60842 105:-0.380381 106:-0.175168 107:-0.0495665 108:-0.533095 109:0.516634 110:-0.031823 111:-0.0121616 112:-0.182778 113:-0.292044 114:-0.23524 115:-0.127515 116:-0.00821824 117:-0.531898 118:-0.67935 119:-0.0580677 120:-0.642797 121:-0.0993885 122:0.26118 123:0.358464 124:0.0263709 125:-0.239804 126:-0.0543173 127:-0.0500234 128:-0.905871 129:-0.351078 130:-0.636778 131:-0.126912 132:-0.642686 133:-0.182615 134:-0.471224 135:0.244182 136:-0.402911 137:-0.247004 138:-0.122846 139:-0.383991 140:-0.406922 141:-0.420236 142:-0.289203 143:-0.435919 144:-0.400667 145:-0.602344 146:-0.532214 147:-0.431084 148:-0.411147 149:-0.232856 150:0.0612699 151:-0.436899 152:0.00492596 153:-0.30384 154:0.0636901 155:-0.6078 156:0.0689248 157:-0.0824926 158:0.0929086 159:-0.0789637 160:-0.545722 161:-0.628878 162:0.118889 163:-0.616014 164:-0.176909 165:-0.118742 166:-0.379515 167:-0.504792 168:0.123368 169:-0.250927 170:-0.223691 171:-0.198667 172:-0.542786 173:-0.421164 174:-0.179479 175:-0.182091 176:-0.144508 177:-0.290345 178:0.00554353 179:-0.215639 180:0.214915 181:-0.0600877 182:-0.173619 183:-0.495012 184:-0.119162 185:-0.306576 186:-0.105724 187:-0.390975 188:-0.492004 189:-0.657387 190:-0.296512 191:-0.458836 192:-0.281433 193:-0.202978 194:-0.250676 195:-0.493843 196:-0.337404 197:-0.414285 198:0.0914179 199:0.0981063 200:0.0373211 201:-0.326849 202:-0.549251 203:-0.550072 204:-0.258113 205:-0.230675 206:-0.0688937 207:-0.485885 208:-0.596111 209:-0.503843 210:-0.0220861 211:-0.40328 212:-0.208762 213:-0.691942 214:-0.172486 215:-0.304925 216:0.0335802 217:-0.43326 218:-0.506155 219:-0.814689 220:-0.0265621 221:-0.443515 222:-0.401636 223:-0.457235 224:-0.278621 225:-0.516565 226:-0.172482 227:-0.438994 228:-0.400938 229:-0.141007 230:0.114609 231:0.0805365 232:-0.367222 233:-0.569229 234:-0.530783 235:-0.644833 236:-0.869185 237:-0.452843 238:-0.247042 239:-0.574691 240:-0.787427 241:-0.10803 242:-0.107058 243:-0.522129 244:-0.463693 245:-0.269504 246:-0.0727913 247:-0.317279 248:-0.556514 249:-0.200893 250:-0.0330895 251:-0.699981 252:-0.100897 253:-0.624557 254:-0.0448785 255:-0.657185 256:-0.926536 
22.91139691389413 1:-0.436332 2:-0.373715 3:-0.401604 4:-0.682214 5:-0.632873 6:-0.245283 7:-0.520163 8:-0.674448 9:-0.510084 10:-0.236628 11:-0.0692491 12:-0.32612 13:0.180374 14:-0.142832 15:-0.0309026 16:-0.0433132 17:-0.266355 18:-0.325213 19:-0.294115 20:-0.354812 21:-0.692163 22:-0.173092 23:-0.256498 24:-0.496933 25:-0.258269 26:-0.164513 27:-0.569471 28:-0.685977 29:0.214711 30:-0.0440895 31:0.25647 32:-0.24701 33:-0.295579 34:-0.693007 35:-0.229525 36:-0.511113 37:-0.678901 38:-0.516877 39:-0.432344 40:-0.332466 41:-0.381199 42:-0.289518 43:-0.679546 44:-0.445497 45:-0.0980502 46:-0.434633 47:0.172082 48:-0.305972 49:-0.202863 50:-0.442346 51:-0.0708273 52:-0.343743 53:-0.442706 54:-0.671062 55:-0.3802 56:-0.378341 57:-0.0607873 58:0.132908 59:-0.546926 60:-0.366902 61:0.0401763 62:-0.195476 63:-0.0934758 64:0.0545465 65:-0.501207 66:-0.39843 67:-0.477551 68:-0.650563 69:0.018246 70:-0.255819 71:-0.434031 72:-0.654252 73:0.31938 74:0.482873 75:0.120344 76:0.0536567 77:-0.627155 78:-0.123123 79:0.0181467 80:-0.335014 81:-0.289417 82:-0.401025 83:0.0428363 84:-0.0205062 85:-0.52906 86:-0.599226 87:-0.517889 88:-0.750149 89:-0.497884 90:-0.0798486 91:-0.115993 92:-0.634762 93:-0.72679 94:-0.441635 95:-0.0311764 96:-0.731899 97:0.157827 98:-0.661903 99:-0.0545676 100:-0.413163 101:-0.753359 102:-0.689477 103:-0.342265 104:-0.464294 105:0.515152 106:-0.00978105 107:0.249991 108:-0.497064 109:0.296179 110:-0.297061 111:0.104973 112:-0.507556 113:-0.196643 114:-0.507857 115:-0.102026 116:-0.0258514 117:-0.509055 118:-0.764183 119:-0.335434 120:-0.32578 121:0.332008 122:-0.0777479 123:0.245609 124:-0.516863 125:0.338713 126:-0.197228 127:-0.194687 128:-0.935643 129:-0.684778 130:-0.630675 131:-0.313899 132:-0.520981 133:-0.354679 134:-0.0135571 135:-0.115791 136:-0.285994 137:-0.263761 138:-0.433881 139:-0.460341 140:-0.632365 141:-0.597323 142:-0.324682 143:-0.504557 144:-0.655672 145:-0.696006 146:-0.587517 147:-0.546956 148:0.00267192 149:-0.301707 150:0.509901 151:-0.727224 152:0.519902 153:-0.250552 154:-0.262804 155:-0.425441 156:0.052359 157:-0.342601 158:0.160609 159:-0.267703 160:-0.549359 161:-0.790841 162:0.0401001 163:-0.746873 164:-0.0479418 165:-0.00217654 166:0.481515 167:-0.615013 168:0.219913 169:-0.357693 170:-0.373762 171:-0.375374 172:-0.722172 173:-0.480793 174:0.167001 175:-0.362618 176:-0.427824 177:-0.460464 178:0.019809 179:-0.450901 180:0.352315 181:-0.0265414 182:0.433643 183:-0.499479 184:0.0955907 185:-0.353741 186:-0.356465 187:-0.343683 188:-0.69298 189:-0.562588 190:-0.118849 191:-0.570982 192:-0.308501 193:-0.245259 194:0.0442927 195:-0.45825 196:-0.364413 197:-0.60949 198:0.0685277 199:-0.20271 200:0.0378631 201:-0.357064 202:-0.735163 203:-0.171261 204:-0.490114 205:-0.264123 206:-0.341525 207:-0.415568 208:-0.764552 209:-0.676357 210:0.00213398 211:-0.286169 212:-0.19428 213:-0.825302 214:-0.294839 215:-0.514144 216:-0.112034 217:-0.358397 218:-0.757748 219:-0.684384 220:-0.204538 221:-0.476726 222:-0.488594 223:-0.686276 224:-0.520155 225:-0.597495 226:-0.100972 227:-0.482264 228:-0.557511 229:-0.278466 230:0.581517 231:-0.220999 232:-0.386762 233:-0.586182 234:-0.692804 235:-0.0224857 236:-0.837772 237:-0.51884 238:-0.394977 239:-0.211865 240:-0.559982 241:-0.483559 242:-0.413672 243:-0.751531 244:-0.600913 245:-0.509041 246:-0.39144 247:-0.571479 248:-0.69798 249:-0.304052 250:-0.439858 251:-0.468192 252:-0.395413 253:-0.625849 254:-0.430111 255:-0.33749 256:-0.957668 
132.2904580856661 1:-0.252415 2:-0.532509 3:0.176293 4:-0.599574 5:-0.407288 6:-0.237929 7:0.0356918 8:-0.555918 9:-0.321406 10:-0.504722 11:0.317788 12:-0.392122 13:0.641531 14:-0.33572 15:0.517597 16:-0.258779 17:-0.0690926 18:-0.483257 19:-0.00858589 20:-0.0693003 21:-0.446867 22:-0.26414 23:-0.158086 24:-0.476337 25:-0.445961 26:0.0212908 27:-0.601912 28:-0.617765 29:0.284854 30:0.0147763 31:0.0844414 32:0.012252 33:-0.205223 34:-0.56097 35:-0.0369882 36:-0.668244 37:-0.242851 38:-0.620422 39:0.388673 40:-0.97374 41:-0.272652 42:-0.526852 43:-0.446349 44:-0.441589 45:-0.0358709 46:-0.0643967 47:0.271027 48:-0.330184 49:-0.193144 50:-0.493665 51:-0.261324 52:-0.466001 53:0.422576 54:-0.662636 55:-0.073976 56:-0.611771 57:0.0951087 58:0.0508533 59:-0.392665 60:-0.249141 61:0.304787 62:-0.125187 63:0.339451 64:0.0606688 65:-0.332429 66:-0.289648 67:-0.203543 68:-0.556942 69:-0.43395 70:0.26142 71:-0.115549 72:-0.379099 73:-0.273346 74:-0.21825 75:-0.0296038 76:0.117667 77:-0.613787 78:-0.199239 79:0.188636 80:-0.218494 81:-0.14042 82:-0.2158 83:0.126554 84:0.134444 85:-0.129331 86:-0.398056 87:-0.251971 88:-0.671239 89:-0.662555 90:0.103447 91:-0.421327 92:-0.0622787 93:-0.577566 94:0.0047296 95:-0.153619 96:-0.354796 97:-0.220642 98:-0.569867 99:-0.196908 100:-0.596454 101:-0.737178 102:-0.675749 103:-0.0299551 104:-0.728722 105:-0.379043 106:-0.303813 107:-0.0408216 108:-0.639479 109:0.269598 110:-0.282192 111:0.182509 112:-0.0188891 113:-0.503771 114:-0.245546 115:-0.278715 116:-0.0564287 117:-0.489008 118:-0.708234 119:0.0691515 120:-0.632232 121:-0.0474632 122:-0.147614 123:-0.0733527 124:-0.390888 125:-0.029586 126:0.274621 127:0.171868 128:-0.883635 129:-0.319043 130:-0.681284 131:-0.186977 132:-0.536855 133:-0.216387 134:-0.511995 135:0.250553 136:-0.304837 137:-0.214417 138:-0.172629 139:-0.362663 140:-0.405925 141:-0.416601 142:-0.291308 143:-0.40099 144:-0.39678 145:-0.655643 146:-0.594137 147:-0.35601 148:-0.197081 149:-0.249725 150:-0.0314813 151:-0.619351 152:0.232873 153:-0.4485 154:-0.160492 155:-0.595754 156:0.057491 157:-0.2061 158:-0.114639 159:-0.0531063 160:-0.487272 161:-0.600248 162:-0.286143 163:-0.613513 164:-0.149197 165:-0.127888 166:-0.371983 167:-0.563788 168:0.0523953 169:-0.268365 170:0.0131098 171:-0.312577 172:-0.545333 173:-0.511117 174:-0.143599 175:-0.295229 176:-0.00770384 177:-0.49504 178:0.148399 179:-0.263561 180:0.549063 181:-0.264604 182:-0.154152 183:-0.426749 184:-0.0393832 185:-0.330369 186:-0.27902 187:-0.616243 188:-0.454002 189:-0.740168 190:-0.288121 191:-0.582719 192:-0.277792 193:-0.384845 194:-0.0711 195:-0.4032 196:-0.227489 197:-0.605844 198:0.213297 199:-0.06705 200:-0.13758 201:-0.341547 202:-0.596292 203:-0.765677 204:-0.245983 205:-0.109445 206:-0.100385 207:-0.495343 208:-0.597658 209:-0.489663 210:0.22666 211:-0.165355 212:-0.110217 213:-0.739796 214:-0.298762 215:-0.401557 216:-0.0255072 217:-0.532826 218:-0.448065 219:-0.805802 220:0.160555 221:-0.328382 222:-0.342174 223:-0.528998 224:-0.347844 225:-0.562633 226:-0.0888804 227:-0.338452 228:-0.154962 229:-0.451656 230:0.199645 231:-0.0985866 232:-0.301166 233:-0.492586 234:-0.432503 235:-0.608593 236:-0.823407 237:-0.569181 238:-0.373054 239:-0.443981 240:-0.705657 241:-0.129176 242:-0.110393 243:-0.560196 244:-0.436095 245:-0.386655 246:-0.240987 247:-0.342685 248:-0.418458 249:-0.29516 250:-0.0142319 251:-0.722017 252:-0.224224 253:-0.653174 254:-0.295197 255:-0.331774 256:-0.902995 
1277.647059625793 1:-1 2:-0.202028 3:-0.444129 4:-0.321645 5:-0.797601 6:-0.174473 7:-0.60164 8:0.128978 9:-0.665329 10:-0.511183 11:0.545384 12:-0.330831 13:0.145642 14:-0.522074 15:-0.168423 16:0.199125 17:-0.537677 18:-0.551452 19:-0.453551 20:-0.138536 21:-0.446662 22:0.0926401 23:0.569584 24:0.11421 25:-0.255059 26:-0.535873 27:-0.573392 28:-0.750253 29:0.776033 30:0.233332 31:0.505032 32:0.639245 33:-0.689946 34:-0.0779865 35:-0.695697 36:-0.320857 37:-0.756929 38:-0.501915 39:-0.466155 40:-0.536 41:-0.829125 42:-0.927607 43:-0.776621 44:-0.932214 45:-0.66746 46:-0.759852 47:-0.535646 48:-0.643013 49:-0.496827 50:-0.321357 51:-0.387392 52:-0.369264 53:0.0991629 54:0.0292283 55:0.872294 56:0.113004 57:-0.638986 58:-0.84755 59:-0.630404 60:-0.953638 61:0.465644 62:-0.170515 63:0.205543 64:-0.327697 65:-0.69792 66:-0.108359 67:-0.528709 68:-0.192868 69:-0.620475 70:-0.551185 71:-0.748861 72:-0.157086 73:-0.342049 74:-0.0418609 75:0.615486 76:0.217458 77:-0.793466 78:-0.408327 79:0.312387 80:0.136777 81:-0.89744 82:-0.77442 83:-0.537987 84:-0.545332 85:-0.580668 86:-0.363599 87:-0.405902 88:-0.580548 89:-0.739341 90:-0.810126 91:-0.327993 92:-0.8565 93:-0.682714 94:-0.409986 95:-0.159396 96:-0.665509 97:-0.290248 98:0.280242 99:-0.206307 100:-0.0339102 101:-0.816717 102:-0.602787 103:-0.334193 104:-0.307988 105:-0.454193 106:-0.0856067 107:0.0667212 108:-0.554332 109:0.110112 110:-0.280646 111:0.203439 112:-0.317772 113:-0.477238 114:-0.361726 115:-0.311176 116:0.0858336 117:-0.375652 118:-0.235388 119:0.387052 120:-0.0581603 121:-0.225417 122:-0.593542 123:-0.0460538 124:-1 125:0.64108 126:-0.0636074 127:0.272085 128:-0.942894 129:-0.581127 130:-0.609799 131:-0.35187 132:-0.624477 133:-0.72968 134:-0.461432 135:-0.435844 136:-0.246824 137:-0.154993 138:-0.213988 139:-0.125677 140:-0.335798 141:0.00885817 142:-0.0291449 143:-0.135562 144:-0.306542 145:-0.941353 146:-0.70122 147:-0.581837 148:-0.463335 149:-0.937837 150:-0.319651 151:-0.746993 152:0.207699 153:-0.639992 154:-0.562377 155:-0.481841 156:-0.166673 157:0.191426 158:-0.107439 159:0.188552 160:-0.386964 161:-0.81863 162:-0.183369 163:-0.703133 164:-0.124896 165:-0.427855 166:-0.446949 167:-0.705619 168:0.103165 169:-0.396178 170:-0.582358 171:-0.304992 172:-0.726319 173:-0.00314076 174:-0.22473 175:-0.161987 176:-0.318646 177:-0.73359 178:-0.202608 179:-0.463822 180:0.382848 181:-0.4192 182:-0.199786 183:-0.544019 184:0.657311 185:-0.636402 186:-0.811534 187:-0.666363 188:-0.705269 189:-0.331587 190:-0.49907 191:-0.313897 192:-0.17827 193:0.0419765 194:0.0427482 195:0.0149441 196:-0.305904 197:-0.740149 198:-0.63211 199:-0.616445 200:-0.443296 201:0.333472 202:-0.624259 203:-0.0496318 204:-0.37025 205:-0.272101 206:-0.603604 207:-0.369471 208:-0.824775 209:-0.520789 210:0.491012 211:0.303365 212:-0.127935 213:-0.838579 214:-0.572163 215:-0.589357 216:-0.133398 217:-0.269026 218:-0.584224 219:-0.0175308 220:0.0387809 221:-0.231478 222:-0.677109 223:-0.324607 224:-0.495157 225:-0.307304 226:0.00894922 227:-0.0710864 228:-0.335708 229:-0.697094 230:-0.630085 231:-0.596508 232:-0.625103 233:-0.387705 234:-0.819137 235:-0.304532 236:-0.856806 237:-0.357219 238:-0.749317 239:-0.364251 240:-0.906426 241:0.0602947 242:0.106347 243:-0.0925091 244:0.28562 245:-0.464431 246:-0.333624 247:-0.340143 248:-0.350821 249:-0.133655 250:-0.440686 251:-0.096173 252:-0.279834 253:-0.485497 254:-0.784875 255:-0.40345 256:-0.959365 
1363.61333527467 1:-0.147513 2:-0.0673976 3:-0.386029 4:-0.656411 5:-0.512028 6:-0.0685667 7:-0.502426 8:-0.148409 9:-0.472876 10:-0.0290422 11:-0.640168 12:-0.74563 13:-0.175262 14:0.0105317 15:-0.597993 16:-0.462655 17:-0.662868 18:-0.839409 19:-0.537249 20:-0.556749 21:-0.696298 22:-0.224897 23:-0.283524 24:-0.127534 25:-0.52928 26:-0.54281 27:-0.828228 28:-0.86436 29:-0.226331 30:-0.400541 31:0.534093 32:-0.107959 33:-0.154702 34:-0.169053 35:-0.417857 36:-0.193911 37:-0.660432 38:-0.551649 39:-0.944558 40:-0.101622 41:-0.723907 42:-0.0182771 43:-0.820784 44:-0.591463 45:-0.793614 46:-0.427657 47:-0.849726 48:-0.526422 49:-0.308566 50:-0.0850646 51:-0.238876 52:0.0056615 53:-0.343067 54:-0.490879 55:-0.0809739 56:0.02849 57:-0.462156 58:-0.0703797 59:-0.717479 60:-0.507138 61:-0.52065 62:-0.516567 63:0.250395 64:-0.483203 65:-0.0868084 66:0.364043 67:-0.517318 68:-0.776964 69:-0.176408 70:0.026539 71:-0.818963 72:-0.358078 73:0.427686 74:0.45796 75:0.0449989 76:-0.483867 77:-0.616428 78:-0.530107 79:-0.310723 80:-0.992412 81:-0.468153 82:-0.715957 83:-0.449338 84:-0.691118 85:-0.671771 86:-0.59285 87:-0.469041 88:-0.679862 89:-0.498853 90:-0.681308 91:-0.421359 92:-0.714236 93:-0.529448 94:-0.792863 95:0.284078 96:-0.664699 97:0.438117 98:0.243321 99:-0.116614 100:-0.284153 101:-0.963008 102:-0.703808 103:-0.848508 104:-0.597261 105:0.06411 106:0.572116 107:-0.117106 108:-0.571008 109:-0.65751 110:-0.620864 111:-0.764194 112:-0.68074 113:-0.31967 114:0.127402 115:-0.115129 116:0.00543405 117:-0.997274 118:-0.576779 119:-0.433423 120:-0.192045 121:0.179217 122:-0.262656 123:-0.152172 124:-0.553926 125:-0.96301 126:-0.849822 127:0.419473 128:-0.949836 129:-0.648645 130:-0.572083 131:-0.602031 132:-0.218882 133:-0.649142 134:-0.0499088 135:-0.439578 136:-0.52226 137:-0.340069 138:-0.724176 139:-0.33824 140:-0.871839 141:-0.264004 142:-0.426908 143:-0.528426 144:-0.681235 145:-0.835822 146:-0.640195 147:-0.676182 148:0.160112 149:-0.362522 150:0.559582 151:-0.652738 152:-0.558722 153:-0.778798 154:-1 155:-0.408828 156:-0.855658 157:-0.231703 158:-0.586425 159:-0.196921 160:-0.796442 161:-0.799728 162:-0.157066 163:-0.727815 164:0.0139839 165:0.00230845 166:0.393192 167:-0.832087 168:-0.289564 169:-0.415712 170:-0.738178 171:-0.229056 172:-0.708235 173:0.105772 174:0.304362 175:-0.234058 176:-0.365793 177:-0.739827 178:-0.483989 179:-0.623388 180:-0.14072 181:-0.201239 182:0.655425 183:-0.736364 184:-0.154254 185:-0.74559 186:-0.992555 187:-0.251295 188:-0.888704 189:-0.212606 190:-0.223054 191:-0.470291 192:-0.529868 193:-0.227666 194:-0.483248 195:-0.378176 196:-0.0142956 197:-0.725966 198:-0.130963 199:-0.815393 200:-0.499187 201:0.0313656 202:-0.665954 203:0.0795366 204:-0.684337 205:0.119982 206:-0.0342195 207:-0.356323 208:-0.841321 209:-0.711401 210:-0.493133 211:-0.0723787 212:0.0715023 213:-0.7493 214:-0.423443 215:-0.67883 216:-0.744262 217:-0.392249 218:-0.815911 219:-0.201899 220:-0.527601 221:-0.0116192 222:-0.59386 223:-0.328226 224:-0.507727 225:-0.773505 226:-0.390831 227:-0.474639 228:-0.325559 229:-0.673509 230:-0.090345 231:-0.919682 232:-0.843844 233:-0.177825 234:-0.651148 235:0.00461003 236:-0.842475 237:0.0600208 238:-0.474182 239:-0.24573 240:-0.573555 241:-0.410195 242:-0.647543 243:-0.719364 244:-0.702286 245:-0.596676 246:-0.52768 247:-0.601632 248:-0.802996 249:-0.417318 250:-0.662011 251:-0.140616 252:-0.62415 253:-0.260883 254:-0.294965 255:-0.280149 256:-0.941528 
685.0597546720172 1:-0.523939 2:-0.134274 3:-0.0732504 4:-0.563691 5:-0.329091 6:-0.0446409 7:-0.14546 8:-0.297939 9:-0.910748 10:-0.452413 11:-0.191912 12:-0.511618 13:-0.19189 14:-0.141856 15:-0.0635908 16:0.163953 17:-0.0734654 18:-0.191711 19:-0.261636 20:-0.106136 21:-0.274287 22:0.410309 23:0.168863 24:0.106612 25:-0.461858 26:-0.217882 27:-0.593935 28:-0.60664 29:-0.358197 30:0.0448558 31:-0.0349445 32:0.478802 33:-0.267947 34:-0.766586 35:-0.131785 36:-0.423656 37:-0.354617 38:-0.39891 39:0.450358 40:-0.232759 41:-0.553376 42:-0.67872 43:-0.574174 44:-0.191555 45:-0.156288 46:-0.10855 47:0.248177 48:0.0988977 49:-0.222485 50:-0.497594 51:-0.253662 52:-0.363647 53:0.162211 54:-0.436279 55:0.358148 56:-0.119738 57:-0.269402 58:-0.0615098 59:-0.529735 60:-0.0190211 61:-0.216563 62:-0.114918 63:0.0236398 64:0.106887 65:-0.691823 66:-0.268545 67:-0.471278 68:-0.325501 69:-0.164973 70:-0.163266 71:0.21731 72:-0.111713 73:-0.578651 74:-0.227404 75:-0.300575 76:0.236579 77:-0.699333 78:-0.167328 79:0.163188 80:-0.014942 81:-0.560477 82:-0.0425101 83:0.132117 84:0.0396284 85:-0.281155 86:-0.293062 87:0.164631 88:-0.423465 89:-0.614718 90:-0.174881 91:-0.50186 92:-0.316799 93:-0.81947 94:-0.354552 95:-0.323242 96:-0.45297 97:-0.612575 98:-0.727535 99:-0.0575494 100:-0.358202 101:-0.689781 102:-0.591651 103:0.0769413 104:-0.176814 105:-0.539838 106:-0.524943 107:-0.364883 108:-0.339802 109:0.218116 110:-0.0558951 111:0.0669952 112:-0.0544922 113:-0.611695 114:-0.267024 115:-0.192407 116:-0.352432 117:-0.21585 118:-0.351544 119:0.833987 120:0.0675132 121:-0.41786 122:-0.378755 123:-0.104964 124:-0.31812 125:-0.297477 126:0.141225 127:-0.400911 128:-0.880039 129:-0.35402 130:-0.738133 131:-0.0200449 132:-0.672442 133:-0.402554 134:-0.55138 135:-0.155021 136:-0.340889 137:-0.273983 138:-0.372528 139:-0.164237 140:-0.476981 141:-0.576649 142:-0.465503 143:-0.448808 144:-0.489158 145:-0.461777 146:-0.661955 147:-0.304538 148:-0.402022 149:-0.593182 150:-0.327864 151:-0.443501 152:-0.153911 153:-0.093305 154:-0.000844198 155:-0.303982 156:0.0232136 157:0.118943 158:-0.170472 159:0.0733383 160:-0.506339 161:-0.677331 162:-0.141127 163:-0.644345 164:-0.273156 165:-0.295636 166:-0.565649 167:-0.598522 168:-0.239298 169:-0.414906 170:-0.239255 171:-0.192209 172:-0.515094 173:-0.300251 174:-0.234236 175:-0.162059 176:-0.283822 177:-0.302099 178:-0.168621 179:0.0100845 180:0.0962559 181:-0.460355 182:-0.492107 183:-0.571525 184:-0.444331 185:-0.222512 186:-0.201101 187:-0.279343 188:-0.449384 189:-0.46393 190:-0.507545 191:-0.428214 192:-0.290115 193:-0.0739297 194:-0.274902 195:-0.202717 196:-0.535049 197:-0.518623 198:-0.154223 199:0.321549 200:-0.156632 201:-0.00579757 202:-0.521353 203:-0.035358 204:-0.29984 205:-0.54713 206:-0.304315 207:-0.158102 208:-0.547412 209:-0.430959 210:-0.0302816 211:0.149502 212:-0.0170109 213:-0.783137 214:-0.255293 215:-0.264742 216:-0.0646484 217:-0.175231 218:-0.513794 219:-0.212138 220:0.0110819 221:-0.3915 222:-0.538349 223:-0.0811766 224:-0.222715 225:-0.49829 226:-0.163046 227:-0.143579 228:-0.581222 229:-0.212724 230:-0.316408 231:0.0951516 232:-0.441297 233:-0.521199 234:-0.570811 235:0.0118857 236:-0.787292 237:-0.676047 238:-0.701893 239:-0.104336 240:-0.567832 241:-0.281867 242:-0.255134 243:-0.510479 244:-0.507752 245:-0.57033 246:-0.292147 247:-0.267801 248:-0.597414 249:-0.306148 250:-0.0854652 251:-0.270089 252:-0.0162512 253:-0.508549 254:-0.380714 255:-0.400724 256:-0.929801 
2048 1:0.00134418 2:-0.474359 3:0.0885711 4:-0.518569 5:-0.140045 6:-0.157585 7:0.410686 8:-0.231056 9:-0.680667 10:-0.453911 11:0.238357 12:-0.415603 13:0.277519 14:-0.122595 15:0.11209 16:0.441216 17:-0.192734 18:-0.196242 19:-0.0929209 20:-0.202713 21:-0.486743 22:-0.0296755 23:-0.0780588 24:-0.296002 25:-0.658166 26:-0.0816949 27:-0.781716 28:-0.678524 29:-0.574428 30:0.0189194 31:-0.533607 32:-0.222482 33:-0.299613 34:-0.702734 35:-0.241562 36:-0.62651 37:-0.459128 38:-0.643691 39:0.612692 40:-0.548282 41:-0.456331 42:-0.868931 43:-0.58457 44:-0.235407 45:-0.0609898 46:0.363332 47:0.720363 48:0.628046 49:-0.103427 50:-0.456168 51:0.018655 52:-0.149866 53:-0.162827 54:-0.515666 55:0.359186 56:-0.282958 57:-0.193809 58:-0.128207 59:-0.437747 60:-0.306721 61:-0.00398116 62:0.317397 63:0.110095 64:0.545047 65:-0.421362 66:-0.335654 67:-0.255604 68:-0.616016 69:-0.354445 70:-0.254486 71:0.405478 72:-0.240535 73:-0.390635 74:0.244843 75:-0.0572606 76:0.122974 77:-0.636858 78:-0.117396 79:0.237371 80:0.336349 81:-0.218643 82:0.214067 83:0.203867 84:0.156907 85:-0.207655 86:-0.362973 87:0.0725527 88:-0.543532 89:-0.735062 90:0.407035 91:-0.507015 92:-0.209786 93:-0.720897 94:-0.0958189 95:-0.507588 96:-0.415386 97:-0.240738 98:-0.593041 99:-0.188321 100:-0.602851 101:-0.704904 102:-0.822147 103:0.0452464 104:-0.534263 105:-0.547937 106:-0.227547 107:-0.30352 108:-0.627259 109:0.313735 110:-0.151949 111:0.111502 112:0.00469365 113:-0.124048 114:-0.480281 115:0.0992081 116:0.363202 117:-0.481439 118:-0.563194 119:0.189872 120:-0.163005 121:-0.00118885 122:0.287051 123:0.162383 124:-0.213238 125:0.0413529 126:0.377786 127:-0.0555579 128:-0.878416 129:-0.531754 130:-0.701197 131:0.140651 132:-0.634086 133:-0.513034 134:-0.540201 135:0.0303953 136:-0.430227 137:-0.348464 138:-0.437872 139:-0.160642 140:-0.525192 141:-0.699376 142:-0.508064 143:-0.538014 144:-0.6445 145:-0.574009 146:-0.523707 147:0.0692961 148:-0.278395 149:-0.499451 150:-0.0437012 151:-0.371554 152:0.244078 153:-0.253051 154:0.164642 155:-0.0609012 156:0.637629 157:-0.512644 158:-0.211268 159:-0.301969 160:-0.658228 161:-0.799335 162:-0.361993 163:-0.727169 164:-0.596651 165:-0.0457953 166:-0.431383 167:-0.617893 168:-0.424879 169:-0.516047 170:-0.558873 171:-0.119056 172:-0.701749 173:-0.527404 174:-0.305326 175:-0.235238 176:-0.48203 177:-0.41494 178:0.129503 179:-0.18652 180:0.190871 181:0.262548 182:-0.083535 183:-0.413332 184:-0.254339 185:0.304358 186:0.380849 187:-0.19371 188:-0.366487 189:-0.447699 190:-0.298486 191:-0.372182 192:-0.383361 193:-0.292561 194:0.128223 195:0.026569 196:-0.199139 197:-0.557404 198:0.283379 199:0.307784 200:0.383731 201:-0.274694 202:-0.631611 203:0.0125902 204:-0.0821334 205:-0.483091 206:-0.024528 207:-0.103166 208:-0.564957 209:-0.71076 210:-0.16615 211:-0.260388 212:-0.365481 213:-0.813776 214:-0.313197 215:-0.593409 216:-0.274761 217:-0.452704 218:-0.695483 219:-0.493065 220:0.245788 221:-0.571773 222:-0.653334 223:-0.600139 224:-0.5313 225:-0.567011 226:-0.314384 227:-0.225036 228:-0.627299 229:0.0677175 230:0.264211 231:0.292806 232:-0.365157 233:-0.221969 234:-0.546536 235:0.199548 236:-0.771076 237:-0.350716 238:-0.0778938 239:-0.132471 240:-0.753192 241:-0.397327 242:-0.428586 243:-0.623264 244:-0.642197 245:-0.401079 246:-0.283571 247:-0.484986 248:-0.695178 249:-0.133087 250:0.147595 251:-0.395332 252:0.261762 253:-0.571198 254:-0.264498 255:-0.558324 256:-0.941332 
1045.150002090582 1:-0.303105 2:-0.0273811 3:0.0390018 4:-0.537277 5:-0.723997 6:-0.294542 7:-0.326952 8:-0.0109192 9:-0.677671 10:0.0935747 11:0.185103 12:-0.221405 13:0.0588416 14:-0.361927 15:-0.463049 16:-0.0174412 17:-0.348119 18:-0.396776 19:-0.352886 20:-0.36958 21:-0.648842 22:-0.146318 23:-0.32413 24:-0.0398784 25:-0.45902 26:-0.249849 27:-0.790204 28:-0.774141 29:-0.482803 30:-0.13713 31:-0.183515 32:-0.361435 33:-0.416026 34:0.492344 35:-0.364063 36:-0.366016 37:-0.588159 38:-0.31658 39:-0.0837939 40:-0.0990361 41:-0.490811 42:-0.333494 43:-0.779814 44:-0.481642 45:-0.467138 46:-0.344528 47:-0.0430773 48:-0.304008 49:-0.20714 50:-0.17692 51:-0.328174 52:-0.317953 53:-0.228842 54:-0.50536 55:0.143809 56:0.64464 57:-0.0498726 58:0.0389118 59:-0.527702 60:-0.537179 61:-0.126698 62:-0.110011 63:-0.147537 64:-0.183309 65:-0.240112 66:0.22613 67:-0.336796 68:-0.628548 69:-0.397593 70:-0.711692 71:-0.380289 72:-0.270446 73:-0.333572 74:0.333509 75:0.174662 76:0.095072 77:-0.774033 78:-0.371402 79:-0.187023 80:-0.206283 81:-0.225789 82:-0.42392 83:-0.178367 84:-0.347269 85:-0.49121 86:-0.657443 87:-0.294493 88:-0.724057 89:-0.511924 90:-0.171401 91:-0.551779 92:-0.615284 93:-0.827506 94:-0.460847 95:-0.479786 96:-0.695748 97:-0.105652 98:0.372211 99:-0.204423 100:-0.519786 101:-0.840162 102:-0.767752 103:-0.455103 104:-0.458127 105:-0.45687 106:0.0546718 107:-0.134615 108:-0.508961 109:0.116337 110:-0.372439 111:-0.0620879 112:-0.367479 113:-0.0663239 114:-0.0493087 115:-0.203237 116:-0.0426787 117:-0.570002 118:-0.6144 119:-0.0383521 120:-0.186537 121:0.0863485 122:-0.0707145 123:0.12464 124:-0.623782 125:0.0696397 126:-0.0745833 127:-0.335689 128:-0.918695 129:-0.527008 130:-0.706336 131:-0.267672 132:-0.757543 133:-0.59128 134:-0.396311 135:-0.215529 136:-0.400638 137:-0.334525 138:-0.597783 139:-0.347849 140:-0.602357 141:-0.307546 142:-0.422726 143:-0.383645 144:-0.689364 145:-0.617141 146:-0.548497 147:-0.312286 148:-0.352459 149:-0.401852 150:-0.00814327 151:-0.585927 152:-0.014572 153:-0.375198 154:-0.364975 155:-0.557325 156:-0.319847 157:0.120752 158:-0.220735 159:-0.315115 160:-0.662508 161:-0.82144 162:-0.211821 163:-0.745551 164:-0.369668 165:0.160756 166:-0.323127 167:-0.666307 168:-0.224361 169:-0.293363 170:-0.48012 171:-0.294811 172:-0.736169 173:0.322936 174:0.113048 175:-0.0949731 176:-0.393558 177:-0.453782 178:0.200355 179:-0.504139 180:-0.210431 181:0.0256674 182:-0.097485 183:-0.573169 184:-0.202689 185:-0.146985 186:-0.415893 187:-0.59164 188:-0.672097 189:-0.0225844 190:-0.220128 191:-0.458073 192:-0.566804 193:-0.465793 194:-0.322449 195:-0.365694 196:-0.386061 197:-0.643369 198:0.0675193 199:-0.428226 200:-0.228604 201:-0.278399 202:-0.710041 203:0.0843616 204:-0.368675 205:-0.125305 206:-0.125248 207:-0.0320535 208:-0.679803 209:-0.747277 210:-0.214537 211:-0.112147 212:-0.203503 213:-0.805577 214:-0.281276 215:-0.627832 216:-0.200988 217:-0.284501 218:-0.73019 219:0.269105 220:0.0733242 221:-0.0851209 222:-0.571735 223:-0.29132 224:-0.667913 225:-0.653881 226:-0.358518 227:-0.474669 228:-0.648548 229:-0.291654 230:0.102838 231:-0.356102 232:-0.486213 233:-0.366849 234:-0.788824 235:0.155518 236:-0.871498 237:-0.089015 238:-0.278776 239:-0.116321 240:-0.611678 241:-0.511296 242:-0.479355 243:-0.607105 244:-0.614002 245:-0.452816 246:-0.248234 247:-0.625331 248:-0.700094 249:-0.104452 250:-0.498116 251:0.248319 252:-0.336742 253:-0.0828723 254:-0.296356 255:-0.414883 256:-0.968456 
571.1202726777083 1:0.246456 2:-0.113663 3:-0.0767305 4:-0.449879 5:-0.340563 6:-0.347601 7:-0.171786 8:-0.354752 9:-0.481863 10:-0.246313 11:-0.095105 12:-0.394216 13:-0.207501 14:-0.440574 15:-0.0143425 16:0.433538 17:-0.145027 18:0.00200513 19:-0.31015 20:-0.284456 21:-0.565469 22:-0.0549512 23:-0.247639 24:-0.318607 25:-0.509481 26:-0.15375 27:-0.790653 28:-0.69753 29:-0.591112 30:-0.112391 31:-0.20802 32:-0.2852 33:-0.110282 34:-0.401835 35:-0.174381 36:-0.333863 37:-0.52281 38:-0.472732 39:0.00269533 40:-0.334648 41:-0.321192 42:-0.290323 43:-0.633032 44:-0.309571 45:-0.377227 46:-0.121315 47:0.185303 48:0.13249 49:0.0267229 50:-0.223374 51:-0.312047 52:-0.334431 53:0.176937 54:-0.530795 55:-0.138867 56:-0.296388 57:-0.340134 58:0.155757 59:-0.606957 60:-0.514524 61:-0.413919 62:-0.149406 63:-0.0328054 64:-0.0255483 65:-0.160267 66:0.100188 67:-0.546975 68:-0.116226 69:-0.352927 70:-0.420039 71:0.0134138 72:-0.389238 73:-0.165336 74:0.217345 75:-0.211356 76:0.0935401 77:-0.780022 78:-0.222785 79:0.0236357 80:-0.0931494 81:-0.330926 82:0.0181846 83:-0.112 84:0.00144768 85:-0.50979 86:-0.567369 87:-0.196574 88:-0.605166 89:-0.589646 90:0.0926538 91:-0.494706 92:-0.360811 93:-0.685052 94:-0.366759 95:-0.280435 96:-0.584689 97:-0.0151075 98:-0.17851 99:-0.165062 100:-0.250688 101:-0.752268 102:-0.640352 103:0.0526079 104:-0.519325 105:-0.311711 106:0.0641825 107:-0.377051 108:-0.564721 109:0.107181 110:-0.319073 111:-0.269453 112:-0.272255 113:-0.320297 114:-0.0328201 115:-0.263629 116:0.101049 117:-0.390788 118:-0.468003 119:-0.115669 120:-0.524394 121:0.00659463 122:0.280657 123:-0.220804 124:-0.256957 125:-0.216503 126:-0.134932 127:-0.144365 128:-0.922021 129:-0.546545 130:-0.669951 131:-0.14372 132:-0.572769 133:-0.1029 134:-0.317845 135:-0.158849 136:-0.518594 137:-0.353519 138:-0.423743 139:-0.358094 140:-0.615653 141:-0.371609 142:-0.2636 143:-0.478619 144:-0.594835 145:-0.641185 146:-0.572557 147:-0.325411 148:-0.27427 149:-0.275255 150:0.0732895 151:-0.55854 152:-0.157057 153:-0.0373567 154:0.0521996 155:-0.414229 156:0.0324752 157:0.242473 158:-0.149843 159:-0.18869 160:-0.659907 161:-0.756311 162:-0.380468 163:-0.732328 164:-0.351602 165:0.268946 166:-0.174099 167:-0.575877 168:-0.308109 169:-0.436255 170:-0.400618 171:-0.32904 172:-0.702669 173:0.0494122 174:0.178381 175:-0.189579 176:-0.41212 177:-0.420303 178:-0.0812759 179:-0.293878 180:0.0697874 181:0.239027 182:-0.0410542 183:-0.60225 184:-0.588445 185:-0.0764028 186:-0.0421967 187:-0.444908 188:-0.496378 189:-0.224157 190:-0.239787 191:-0.465819 192:-0.590362 193:-0.320064 194:-0.615255 195:-0.376967 196:-0.412065 197:-0.565152 198:-0.105031 199:0.169452 200:0.0188513 201:-0.224932 202:-0.733528 203:-0.355012 204:-0.355405 205:-0.139752 206:-0.0595372 207:-0.183758 208:-0.630516 209:-0.700618 210:-0.44396 211:-0.208963 212:-0.256093 213:-0.809238 214:-0.474141 215:-0.488631 216:-0.330542 217:-0.289271 218:-0.708815 219:-0.492879 220:0.0317757 221:-0.397039 222:-0.508925 223:-0.387974 224:-0.440622 225:-0.557709 226:-0.411757 227:-0.354199 228:-0.537305 229:-0.0768172 230:0.205603 231:0.188072 232:-0.395425 233:-0.458271 234:-0.636139 235:-0.163985 236:-0.879558 237:-0.274843 238:-0.121307 239:-0.214262 240:-0.619425 241:-0.226864 242:-0.48589 243:-0.613172 244:-0.599878 245:-0.386961 246:-0.323631 247:-0.391665 248:-0.731353 249:-0.0745441 250:-0.0924703 251:-0.397928 252:-0.0202607 253:-0.419916 254:-0.109126 255:-0.51866 256:-0.943796 
1300.361122234841 1:-0.0742347 2:-0.440702 3:-0.00606884 4:-0.606935 5:-0.177332 6:-0.447157 7:-0.363833 8:-0.202923 9:-0.230153 10:0.0521947 11:-0.573071 12:-0.593286 13:-0.503587 14:-0.582636 15:-0.71747 16:-0.516079 17:0.0788192 18:-0.510006 19:-0.086689 20:-0.107255 21:-0.4006 22:-0.313456 23:-0.0229889 24:-0.583144 25:-0.579721 26:0.0106516 27:-0.711897 28:-0.433434 29:-0.00292704 30:0.181603 31:-0.15433 32:-0.0864936 33:0.509609 34:-0.0290125 35:-0.13163 36:0.0785787 37:-0.105229 38:-0.27892 39:-0.0833504 40:-0.148809 41:-0.23495 42:0.330615 43:-0.626835 44:-0.0617894 45:-0.352575 46:0.0467065 47:-0.537754 48:-0.598754 49:-0.0524282 50:-0.19986 51:-0.309981 52:-0.124002 53:-0.236877 54:-0.71101 55:-0.442309 56:-0.334116 57:-0.421802 58:-0.133065 59:-0.517836 60:-0.235243 61:-0.385261 62:-0.350259 63:-0.0869754 64:-0.408628 65:-0.00897301 66:-0.281764 67:-0.241855 68:-0.531912 69:-0.307904 70:0.810831 71:-0.481964 72:0.231229 73:-0.41303 74:-0.115769 75:-0.300811 76:-0.103579 77:-0.799476 78:-0.0375694 79:-0.63645 80:0.259921 81:-0.214303 82:-0.521569 83:0.187388 84:-0.255317 85:-0.0280488 86:-0.192858 87:-0.149425 88:-0.701784 89:-0.878539 90:-0.331609 91:-0.464219 92:-0.245084 93:-0.749534 94:0.0431956 95:0.0277583 96:-0.355168 97:0.480715 98:0.0920454 99:-0.0846006 100:-0.167634 101:-0.574231 102:-0.439998 103:-0.474939 104:-0.27295 105:-0.639568 106:0.359877 107:-0.572564 108:-0.311109 109:-0.431719 110:0.16141 111:-0.595575 112:-0.0536908 113:-0.471989 114:-0.120687 115:-0.406088 116:-0.120465 117:-0.741135 118:-0.599299 119:-0.608043 120:-0.229296 121:-0.660491 122:-0.25304 123:-0.303377 124:-0.335778 125:-0.828399 126:-0.234239 127:0.0845076 128:-0.941384 129:-0.116994 130:-0.68367 131:-0.210794 132:-0.761843 133:0.112618 134:-0.631232 135:0.117172 136:-0.662725 137:-0.184556 138:-0.334113 139:-0.338091 140:-0.591422 141:-0.152182 142:-0.14644 143:-0.221319 144:-0.277116 145:-0.489214 146:-0.733301 147:-0.432751 148:-0.533524 149:0.0626622 150:-0.334375 151:-0.402252 152:-0.55037 153:-0.421822 154:-0.626747 155:-0.402445 156:-0.807607 157:-0.0778806 158:-0.266837 159:0.150614 160:-0.547944 161:-0.447268 162:-0.382534 163:-0.531635 164:-0.204089 165:-0.0098494 166:-0.608681 167:-0.518023 168:-0.365298 169:-0.386562 170:-0.12076 171:-0.245765 172:-0.508074 173:-0.11975 174:0.0989905 175:-0.347696 176:0.264092 177:-0.259351 178:-0.3106 179:0.219211 180:0.136884 181:-0.0299346 182:-0.26394 183:-0.350126 184:-0.407872 185:-0.716918 186:-0.80301 187:-0.18272 188:-0.837714 189:-0.428145 190:-0.530803 191:-0.700287 192:-0.387858 193:-0.295605 194:-0.530575 195:-0.812533 196:-0.236671 197:-0.604277 198:-0.57996 199:-0.719425 200:-0.656421 201:-0.178042 202:-0.568394 203:-0.328274 204:-0.23539 205:0.565958 206:0.126684 207:-0.395393 208:-0.475557 209:-0.407901 210:0.105089 211:-0.427553 212:-0.435061 213:-0.623577 214:-0.388204 215:-0.256384 216:-0.451079 217:-0.282178 218:-0.637161 219:-0.476558 220:-0.512558 221:0.0397733 222:-0.168052 223:0.0904208 224:-0.0388491 225:-0.530576 226:-0.266683 227:-0.639537 228:-0.091669 229:-0.77284 230:-0.476112 231:-0.568853 232:-0.564104 233:-0.531661 234:-0.549372 235:-0.471158 236:-0.570053 237:-0.27406 238:-0.0739289 239:-0.484189 240:-0.462962 241:0.27613 242:-0.0738941 243:-0.436195 244:-0.486074 245:-0.452529 246:-0.382909 247:-0.296638 248:-0.55437 249:-0.4787 250:0.0211779 251:-0.193815 252:-0.220544 253:-0.465524 254:0.102546 255:-0.491836 256:-0.864323 
226.5949958617038 1:0.185732 2:-0.449582 3:0.600475 4:-0.64435 5:-0.234487 6:-0.666165 7:-0.556243 8:-1 9:-0.206066 10:0.0558757 11:0.713304 12:-0.126851 13:0.6092 14:-0.253005 15:-0.234088 16:-0.268774 17:0.501038 18:-0.298805 19:0.254085 20:-0.278062 21:-0.381629 22:-0.278407 23:-0.668313 24:-0.809367 25:-0.111629 26:0.567939 27:-0.562762 28:-0.493137 29:-0.307444 30:0.14453 31:-0.417977 32:-0.593106 33:0.456726 34:-0.630463 35:0.143311 36:-0.633308 37:-0.197587 38:-0.698969 39:-0.164278 40:-0.820366 41:0.222382 42:-0.0776329 43:-0.238332 44:0.172587 45:-0.0610132 46:0.0175823 47:0.00568855 48:0.108684 49:0.124627 50:-0.526995 51:0.151013 52:-0.414631 53:-0.2705 54:-0.833332 55:-0.83473 56:-0.722289 57:0.487097 58:0.137641 59:-0.226165 60:-0.213839 61:-0.0168971 62:-0.222547 63:-0.455277 64:-0.482581 65:-0.103091 66:-0.343369 67:0.165582 68:-0.540233 69:-0.422605 70:-0.158178 71:-0.270477 72:-0.724647 73:-0.0476683 74:0.695952 75:0.167326 76:0.668404 77:-0.699009 78:-0.0390439 79:-0.221503 80:-0.00678507 81:0.0897753 82:0.0155202 83:0.295885 84:-0.10059 85:-0.402952 86:-0.418629 87:-0.38047 88:-0.864988 89:-0.607832 90:0.708707 91:-0.245985 92:0.110951 93:-0.808561 94:-0.194794 95:-0.475453 96:-0.648714 97:0.612695 98:-0.452898 99:0.385146 100:-0.445992 101:-0.568665 102:-0.673703 103:-0.420473 104:-0.709556 105:-0.0187875 106:0.378698 107:0.141145 108:-0.0328201 109:0.944433 110:0.0751903 111:-0.211952 112:-0.152464 113:-0.0266227 114:-0.366607 115:-0.0398646 116:-0.146939 117:-0.549165 118:-0.744695 119:-0.425969 120:-0.793034 121:0.0273861 122:0.441071 123:0.216981 124:-0.325145 125:-0.116179 126:0.371305 127:-0.587466 128:-0.954686 129:-0.240657 130:-0.720652 131:-0.342031 132:-0.832689 133:-0.22419 134:-0.426164 135:0.189417 136:-0.42293 137:-0.0770321 138:-0.0105009 139:-0.382031 140:-0.537651 141:-0.233465 142:0.264126 143:-0.255187 144:-0.323988 145:-0.527273 146:-0.626597 147:-0.540516 148:-0.6304 149:0.0296965 150:0.17155 151:-0.466956 152:0.159528 153:-0.131668 154:-0.11399 155:-0.734316 156:-0.332331 157:0.367365 158:0.508928 159:0.0880237 160:-0.346975 161:-0.491734 162:0.220672 163:-0.583057 164:-0.275394 165:0.313862 166:-0.165713 167:-0.448133 168:0.391606 169:-0.113338 170:0.154996 171:-0.368329 172:-0.438477 173:-0.448972 174:0.332075 175:-0.123548 176:0.311918 177:-0.182781 178:0.148574 179:-0.167843 180:0.0947101 181:0.29432 182:0.153932 183:-0.330062 184:0.112225 185:-0.378732 186:-0.256471 187:-0.654217 188:-0.638104 189:-0.657983 190:-0.293924 191:-0.479281 192:-0.196079 193:-0.171539 194:-0.21469 195:-0.731802 196:-0.775989 197:-0.354686 198:0.36405 199:-0.372163 200:-0.188031 201:-0.221906 202:-0.497069 203:-0.718905 204:-0.652767 205:-0.247164 206:0.312546 207:-0.597525 208:-0.591039 209:-0.511489 210:0.220978 211:-0.728614 212:-0.543963 213:-0.618605 214:-0.0615894 215:-0.33178 216:-0.027912 217:-0.418197 218:-0.499703 219:-1 220:-0.44563 221:-0.204053 222:-0.116322 223:-0.564194 224:-0.109586 225:-0.42283 226:0.238767 227:-0.594297 228:-0.481393 229:-0.24645 230:0.669542 231:-0.299917 232:-0.295016 233:-0.653647 234:-0.388164 235:-0.690344 236:-0.873753 237:-0.666533 238:-0.19087 239:-0.592771 240:-0.671158 241:-0.120565 242:0.0177075 243:-0.763031 244:-0.608656 245:-0.108736 246:0.158048 247:-0.297758 248:-0.490445 249:-0.627749 250:0.103702 251:-0.967413 252:-0.391559 253:-0.746015 254:0.022335 255:-0.64489 256:-0.908056 
1045.050072294372 1:-0.568089 2:0.400959 3:-0.085473 4:0.988135 5:-0.407288 6:0.418041 7:-0.481196 8:0.394105 9:-0.670841 10:-0.134142 11:0.179193 12:-0.343717 13:-0.446901 14:-0.747952 15:0.415356 16:-0.352271 17:-0.534067 18:0.184472 19:-0.589447 20:-0.0815716 21:-0.660013 22:-0.395143 23:-0.533582 24:-0.443623 25:-0.626742 26:-0.408919 27:-0.840047 28:-0.78299 29:-0.191453 30:-0.467142 31:-0.259186 32:-0.659617 33:-0.563515 34:0.361292 35:-0.742631 36:0.586732 37:-0.511647 38:-0.0512167 39:-0.12593 40:-0.753456 41:-1 42:-0.434626 43:-0.928834 44:-0.466202 45:-0.587415 46:-0.904897 47:-0.0883702 48:-0.688221 49:-0.617806 50:1 51:-0.758348 52:0.22944 53:0.47045 54:-0.045144 55:-0.3156 56:-0.522659 57:-0.84048 58:0.0800959 59:-0.764698 60:-0.294669 61:0.268956 62:-0.646732 63:0.38452 64:-0.375256 65:-0.16469 66:0.453425 67:-0.0474828 68:0.0162211 69:0.173772 70:-0.279865 71:-0.29141 72:-0.148232 73:-0.598684 74:-0.667491 75:-0.200688 76:-0.319711 77:-0.80098 78:-0.769012 79:0.401707 80:-0.545191 81:-0.497266 82:-0.147025 83:-0.669909 84:-0.436135 85:-0.420777 86:-0.727472 87:-0.779011 88:-0.90406 89:-0.91962 90:-0.244943 91:-0.73107 92:-0.657922 93:-0.712423 94:-0.559466 95:0.0279188 96:-0.721509 97:-0.557374 98:0.711805 99:-0.507878 100:0.0650456 101:-0.836017 102:-0.245351 103:-0.459056 104:-0.284928 105:-0.955516 106:-0.596224 107:-0.527183 108:-0.799792 109:-0.445718 110:-0.659056 111:0.38902 112:-0.591171 113:-0.537668 114:1 115:-0.690838 116:-0.0140064 117:-0.590838 118:0.0015483 119:-0.659441 120:-0.632613 121:-0.35764 122:0.240843 123:-0.580539 124:-0.279253 125:0.250705 126:-0.0952238 127:0.336285 128:-0.82643 129:-0.504149 130:-0.640403 131:-0.378082 132:-0.221855 133:-0.557759 134:-0.733311 135:-0.495253 136:-0.506821 137:-0.68932 138:-0.677194 139:-0.653022 140:-0.837096 141:-0.356154 142:-0.80468 143:-0.602024 144:-0.847522 145:-0.752603 146:-0.447475 147:-0.63156 148:0.143924 149:-0.706628 150:-0.418743 151:-0.75241 152:-0.508668 153:-0.363051 154:-0.0921349 155:-0.70921 156:0.0423335 157:0.0101937 158:-0.678915 159:-0.263104 160:-0.826115 161:-0.812185 162:-0.383424 163:-0.798669 164:-0.390569 165:-0.0230625 166:-0.640515 167:-0.699493 168:-0.201221 169:0.00721716 170:-0.617361 171:-0.600141 172:-0.814652 173:0.839362 174:-0.279353 175:-0.091685 176:-0.576376 177:-0.689746 178:-0.307547 179:-0.773982 180:-0.0201328 181:-0.169004 182:-0.430711 183:-0.806066 184:-0.813629 185:0.421862 186:0.0137347 187:-0.585836 188:-0.774933 189:0.127349 190:-0.281259 191:-0.0586551 192:-0.616557 193:-0.894745 194:-0.66203 195:-0.48823 196:-0.149745 197:-0.648627 198:-0.628161 199:0.024067 200:0.126458 201:-0.028046 202:-0.806777 203:-0.497359 204:-0.372168 205:0.623747 206:-0.616957 207:-0.0457765 208:-0.827154 209:-0.689114 210:-0.145543 211:0.0310194 212:-0.272032 213:-0.839469 214:-0.803945 215:-0.538951 216:-0.491787 217:0.188779 218:-0.72107 219:0.120295 220:0.0310867 221:0.228408 222:-0.732018 223:0.450012 224:-0.672898 225:-0.749443 226:-0.748903 227:-0.425954 228:-0.464232 229:-0.259146 230:-0.476174 231:0.324662 232:-0.34828 233:0.470548 234:-0.734124 235:-0.60843 236:-0.87899 237:1 238:-0.413444 239:0.862172 240:-0.369398 241:-0.554412 242:-0.769565 243:-0.708889 244:-0.810744 245:-0.621589 246:-0.780925 247:-0.453962 248:-0.842773 249:0.622775 250:-0.627784 251:-0.193147 252:-0.651152 253:0.105026 254:-0.178703 255:-0.0267753 256:-0.964784 
808.5359200002899 1:-0.0472403 2:-0.165739 3:-0.257947 4:-0.337185 5:-0.285249 6:-0.377402 7:-0.302737 8:-0.236419 9:-0.436566 10:-0.406768 11:0.309726 12:-0.546921 13:0.109339 14:-0.58206 15:-0.137319 16:-0.270947 17:-0.411791 18:-0.124118 19:-0.327572 20:-0.0766631 21:-0.499161 22:-0.127708 23:-0.281622 24:-0.184297 25:-0.337185 26:-0.2439 27:-0.703479 28:-0.647281 29:-0.0644563 30:-0.0715346 31:-0.125269 32:-0.23996 33:-0.0772183 34:-0.270163 35:-0.214146 36:-0.393642 37:-0.533166 38:-0.226206 39:0.285909 40:-0.585288 41:-0.275353 42:-0.281685 43:-0.740554 44:-0.522998 45:-0.18999 46:-0.199123 47:0.422977 48:-0.205262 49:-0.369536 50:-0.216588 51:-0.30235 52:-0.210846 53:-0.220359 54:-0.520978 55:-0.180169 56:-0.320749 57:-0.340027 58:-0.212173 59:-0.595788 60:-0.492465 61:-0.122048 62:-0.0184137 63:0.191133 64:-0.0628067 65:-0.23115 66:0.0020882 67:-0.514458 68:-0.224165 69:-0.672108 70:-0.222109 71:-0.0969736 72:-0.0657602 73:-0.19081 74:-0.0415212 75:0.0226307 76:-0.122947 77:-0.741001 78:-0.388336 79:0.0487517 80:-0.0907024 81:-0.320767 82:-0.25349 83:-0.0813273 84:0.0593869 85:-0.340031 86:-0.258116 87:-0.354162 88:-0.619307 89:-0.681476 90:-0.00132522 91:-0.449594 92:-0.298089 93:-0.768187 94:-0.414537 95:-0.25512 96:-0.513886 97:0.195596 98:0.00676693 99:-0.324269 100:-0.230496 101:-0.685978 102:-0.53689 103:-0.225782 104:-0.348869 105:-0.349251 106:-0.0476639 107:-0.245358 108:-0.69112 109:0.312714 110:-0.255497 111:0.0297851 112:-0.243658 113:-0.436677 114:-0.131318 115:-0.488094 116:0.287492 117:-0.658716 118:-0.379176 119:-0.0813144 120:-0.279866 121:-0.193963 122:-0.189396 123:-0.0775722 124:-0.406081 125:-0.383267 126:-0.278591 127:-0.149219 128:-0.907961 129:-0.547447 130:-0.724001 131:-0.189808 132:-0.670531 133:-0.324164 134:-0.396354 135:-0.0944811 136:-0.428594 137:-0.269715 138:-0.351547 139:-0.293908 140:-0.624468 141:-0.35935 142:-0.252133 143:-0.358834 144:-0.547071 145:-0.711997 146:-0.604212 147:-0.572357 148:-0.343333 149:-0.303055 150:-0.039895 151:-0.658249 152:-0.0247769 153:-0.308976 154:-0.238134 155:-0.572743 156:0.0687338 157:0.102094 158:-0.130534 159:-0.0592253 160:-0.613478 161:-0.735311 162:-0.0211376 163:-0.651944 164:-0.150263 165:0.0762009 166:-0.242688 167:-0.594705 168:0.0724933 169:-0.149363 170:-0.304766 171:-0.24479 172:-0.670469 173:0.0665436 174:-0.0437251 175:-0.0183449 176:-0.311744 177:-0.47191 178:-0.0341246 179:-0.353397 180:0.401931 181:0.0773106 182:-0.171649 183:-0.559067 184:-0.262897 185:-0.160534 186:-0.250062 187:-0.450941 188:-0.628245 189:-0.331436 190:-0.301532 191:-0.43778 192:-0.379654 193:-0.445004 194:-0.210321 195:-0.364685 196:-0.390819 197:-0.604766 198:-0.412872 199:-0.101099 200:-0.104716 201:-0.217752 202:-0.596773 203:-0.390898 204:-0.363986 205:-0.246535 206:-0.167293 207:0.0248716 208:-0.649696 209:-0.564882 210:-0.0557323 211:-0.213077 212:-0.196141 213:-0.723787 214:-0.3874 215:-0.318734 216:-0.261965 217:-0.223257 218:-0.685102 219:-0.449874 220:0.0750238 221:-0.083004 222:-0.513212 223:-0.228024 224:-0.301784 225:-0.573255 226:-0.254342 227:-0.257341 228:-0.483699 229:-0.299476 230:-0.26551 231:-0.103903 232:-0.37578 233:-0.289161 234:-0.57199 235:-0.306539 236:-0.888228 237:-0.296039 238:-0.35053 239:-0.205887 240:-0.768356 241:-0.176765 242:-0.342266 243:-0.533379 244:-0.547221 245:-0.404709 246:-0.294125 247:-0.271374 248:-0.587136 249:-0.109916 250:-0.251193 251:-0.49379 252:-0.111085 253:-0.473374 254:-0.19652 255:-0.519891 256:-0.938085 
1854.662232664811 1:0.0679988 2:0.16404 3:0.0989263 4:-0.543394 5:-0.430129 6:-0.299362 7:-0.171519 8:-0.435319 9:-0.483361 10:-0.34254 11:0.0614441 12:-0.518874 13:0.218185 14:-0.439385 15:0.0251138 16:-0.156449 17:-0.167122 18:-0.350277 19:-0.248354 20:-0.201593 21:-0.592473 22:0.0788976 23:-0.26589 24:-0.136074 25:-0.375811 26:-0.143259 27:-0.68907 28:-0.703906 29:-0.453919 30:0.000335281 31:-0.514828 32:-0.273507 33:-0.210085 34:-0.0970802 35:-0.213858 36:-0.55303 37:-0.451576 38:-0.417701 39:-0.0629137 40:-0.650606 41:-0.154996 42:-0.481714 43:-0.522782 44:-0.365635 45:-0.17483 46:0.223824 47:0.0344307 48:-0.1161 49:-0.103953 50:-0.326404 51:-0.304601 52:-0.431302 53:-0.183376 54:-0.436821 55:-0.0303691 56:-0.116053 57:0.0492757 58:0.0295404 59:-0.518149 60:-0.377465 61:-0.00972497 62:-0.0853361 63:-0.200624 64:-0.169898 65:-0.208423 66:0.169274 67:-0.353506 68:-0.411912 69:-0.5717 70:-0.14002 71:-0.143268 72:-0.27155 73:-0.269719 74:0.0626781 75:-0.092633 76:0.146663 77:-0.701058 78:-0.281471 79:-0.030422 80:-0.244497 81:-0.377041 82:-0.150166 83:-0.320453 84:0.0992857 85:-0.352633 86:-0.425375 87:-0.360599 88:-0.567986 89:-0.638319 90:0.140617 91:-0.412285 92:-0.237512 93:-0.71403 94:-0.373114 95:-0.491742 96:-0.64269 97:0.0142459 98:0.0351728 99:-0.0529693 100:-0.362337 101:-0.711264 102:-0.723998 103:-0.10376 104:-0.55849 105:-0.21853 106:0.0851462 107:-0.165426 108:-0.478336 109:0.391337 110:-0.237021 111:-0.140669 112:-0.342568 113:-0.300213 114:-0.0328201 115:-0.247993 116:0.275354 117:-0.613487 118:-0.506598 119:0.0271211 120:-0.194248 121:-0.0733725 122:0.236441 123:-0.118765 124:-0.261885 125:0.136776 126:-0.137629 127:-0.378858 128:-0.913879 129:-0.512612 130:-0.69615 131:-0.207804 132:-0.725716 133:-0.246991 134:-0.363469 135:-0.0679932 136:-0.389264 137:-0.367521 138:-0.307528 139:-0.376246 140:-0.534086 141:-0.288446 142:-0.294977 143:-0.397913 144:-0.568796 145:-0.652705 146:-0.665484 147:-0.502301 148:-0.325646 149:-0.175359 150:0.0218055 151:-0.54874 152:0.156763 153:-0.210361 154:-0.0777601 155:-0.422576 156:-0.0370583 157:0.168287 158:0.0319896 159:-0.0278016 160:-0.644338 161:-0.708787 162:-0.14976 163:-0.705956 164:-0.424975 165:0.189227 166:-0.2931 167:-0.605205 168:-0.163249 169:-0.324329 170:-0.342017 171:-0.321994 172:-0.610791 173:0.183153 174:0.0888157 175:0.020148 176:-0.257364 177:-0.511557 178:-0.0899854 179:-0.377432 180:0.0966757 181:0.294757 182:-0.146034 183:-0.49138 184:-0.153798 185:-0.135033 186:-0.00547014 187:-0.510461 188:-0.646974 189:-0.1735 190:-0.217769 191:-0.414635 192:-0.451829 193:-0.250204 194:-0.284301 195:-0.387843 196:-0.549793 197:-0.599309 198:-0.212339 199:-0.117065 200:-0.0640622 201:-0.152026 202:-0.657736 203:-0.161712 204:-0.352728 205:0.0890461 206:-0.0495106 207:-0.424562 208:-0.69535 209:-0.560924 210:-0.0935941 211:-0.205809 212:-0.412569 213:-0.724467 214:-0.26343 215:-0.469753 216:-0.341943 217:-0.357942 218:-0.664632 219:-0.451612 220:-0.0796863 221:-0.098998 222:-0.455376 223:-0.473702 224:-0.410515 225:-0.612762 226:-0.31903 227:-0.484761 228:-0.522542 229:-0.296371 230:-0.0444149 231:-0.0320527 232:-0.355477 233:-0.401918 234:-0.611274 235:-0.0729137 236:-0.86112 237:-0.355051 238:-0.330274 239:-0.214145 240:-0.675611 241:-0.151539 242:-0.400383 243:-0.623789 244:-0.646855 245:-0.241916 246:-0.210285 247:-0.432805 248:-0.542584 249:-0.312964 250:-0.162226 251:-0.346065 252:-0.255796 253:-0.395025 254:-0.1044 255:-0.568965 256:-0.94916 
2048 1:-0.102116 2:-0.332931 3:-0.0562322 4:-0.482882 5:-0.424019 6:-0.132603 7:-0.458752 8:-0.358036 9:-0.549629 10:0.055241 11:-0.196891 12:-0.481568 13:-0.162238 14:-0.308999 15:-0.606172 16:-0.0304207 17:-0.176099 18:-0.211501 19:-0.140433 20:0.157266 21:-0.527616 22:-0.116755 23:-0.333372 24:-0.215693 25:-0.407566 26:0.197862 27:-0.70707 28:-0.666816 29:-0.583623 30:-0.000335281 31:-0.166337 32:-0.386182 33:0.0963285 34:-0.205629 35:0.0178009 36:-0.209685 37:-0.402437 38:-0.076771 39:-0.196622 40:-0.51677 41:-0.321962 42:-0.0300088 43:-0.631323 44:-0.266506 45:-0.324097 46:0.160255 47:-0.348032 48:-0.316131 49:0.117789 50:-0.235609 51:0.138001 52:-0.333343 53:-0.0296201 54:-0.44515 55:-0.11777 56:-0.103185 57:-0.452051 58:-0.0482832 59:-0.555554 60:-0.521175 61:-0.176782 62:-0.0797735 63:-0.262811 64:-0.527011 65:-0.307866 66:-0.0614555 67:-0.281221 68:-0.341958 69:-0.508989 70:-0.187271 71:-0.451973 72:-0.10983 73:-0.211476 74:0.399264 75:-0.110401 76:0.0243869 77:-0.754024 78:-0.195607 79:-0.674922 80:-0.188734 81:-0.288829 82:-0.263173 83:0.480612 84:0.10654 85:-0.133643 86:-0.264491 87:-0.474359 88:-0.603305 89:-0.494441 90:0.106449 91:-0.516564 92:-0.473113 93:-0.807343 94:-0.395535 95:-0.403841 96:-0.714592 97:0.260013 98:0.0169249 99:0.235147 100:-0.277266 101:-0.663856 102:-0.514697 103:-0.233262 104:-0.422377 105:-0.302977 106:0.286594 107:-0.189651 108:-0.343107 109:-0.135935 110:-0.0857277 111:-0.343809 112:-0.0609259 113:-0.156225 114:-0.155726 115:-0.0950696 116:0.0594815 117:-0.631017 118:-0.467239 119:-0.268612 120:-0.383489 121:-0.182021 122:-0.0427533 123:-0.43761 124:-0.482167 125:-0.404434 126:-0.157707 127:-0.392652 128:-0.950481 129:-0.3961 130:-0.758468 131:-0.378736 132:-0.821567 133:-0.244557 134:-0.292759 135:-0.0507948 136:-0.627061 137:-0.0660703 138:-0.359387 139:-0.256415 140:-0.634841 141:-0.285908 142:-0.165973 143:-0.0852769 144:-0.483121 145:-0.66766 146:-0.750169 147:-0.48249 148:-0.574712 149:-0.0928329 150:0.0428398 151:-0.452379 152:-0.268634 153:-0.311499 154:-0.204929 155:-0.505573 156:-0.421342 157:0.233589 158:-0.103675 159:0.254518 160:-0.606306 161:-0.656531 162:0.0173585 163:-0.617793 164:-0.356654 165:0.0808179 166:-0.221348 167:-0.474703 168:-0.223627 169:-0.0245545 170:-0.271449 171:-0.0765144 172:-0.573799 173:0.0900476 174:-0.00650655 175:-0.0864668 176:-0.122285 177:-0.379611 178:-0.00374157 179:-0.311063 180:-0.0943094 181:0.21931 182:-0.0821951 183:-0.381112 184:-0.235806 185:-0.319371 186:-0.467702 187:-0.410758 188:-0.732791 189:-0.407082 190:-0.291179 191:-0.441371 192:-0.351351 193:-0.101737 194:-0.424427 195:-0.634749 196:-0.538802 197:-0.576878 198:-0.161198 199:-0.372868 200:-0.345386 201:-0.0487351 202:-0.630567 203:-0.241625 204:-0.437605 205:-0.206806 206:0.167173 207:-0.189791 208:-0.605961 209:-0.522021 210:-0.155597 211:-0.288637 212:-0.420174 213:-0.677361 214:-0.23861 215:-0.409153 216:-0.251873 217:-0.281011 218:-0.539577 219:-0.279096 220:-0.394573 221:-0.028554 222:-0.27351 223:-0.248208 224:-0.211391 225:-0.469266 226:-0.24277 227:-0.418104 228:-0.549114 229:-0.467851 230:-0.132874 231:-0.236577 232:-0.488966 233:-0.367654 234:-0.552966 235:-0.275931 236:-0.844827 237:-0.509206 238:-0.277604 239:-0.224055 240:-0.584352 241:-0.0562048 242:-0.359686 243:-0.561271 244:-0.594471 245:-0.28559 246:-0.187908 247:-0.279393 248:-0.633661 249:-0.295337 250:-0.0855834 251:-0.359643 252:-0.30023 253:-0.593605 254:-0.0770603 255:-0.486735 256:-0.911959 
2048 1:-0.00336738 2:-0.120789 3:-0.294148 4:-0.354798 5:-0.494386 6:-0.509874 7:-0.335541 8:-0.222627 9:-0.550528 10:-0.349077 11:0.160982 12:-0.379885 13:0.0694645 14:-0.598255 15:-0.116727 16:-0.321445 17:-0.486476 18:-0.177434 19:-0.331734 20:-0.113434 21:-0.532674 22:0.0668402 23:-0.26941 24:-0.220779 25:-0.377526 26:-0.0690068 27:-0.689912 28:-0.670916 29:-0.00820097 30:-0.081138 31:-0.00108057 32:-0.519521 33:-0.214926 34:-0.161428 35:-0.381943 36:-0.374848 37:-0.398974 38:-0.262167 39:0.17042 40:-0.517901 41:-0.257277 42:-0.468587 43:-0.690068 44:-0.341049 45:-0.169559 46:-0.381634 47:0.14128 48:-0.244137 49:-0.364825 50:-0.172237 51:-0.411767 52:-0.174017 53:-0.325261 54:-0.436916 55:-0.242631 56:-0.302697 57:-0.145994 58:0.0922255 59:-0.594628 60:-0.555267 61:0.138915 62:-0.233359 63:0.175424 64:-0.231218 65:-0.143314 66:-0.0314791 67:-0.326634 68:-0.259471 69:-0.666034 70:-0.303583 71:-0.34541 72:-0.0996361 73:-0.180941 74:-0.0561668 75:0.121177 76:-0.0737625 77:-0.793751 78:-0.447037 79:0.210259 80:-0.340403 81:-0.308561 82:-0.187835 83:-0.148897 84:-0.0647004 85:-0.298602 86:-0.331762 87:-0.488875 88:-0.62627 89:-0.686122 90:-0.175871 91:-0.360511 92:-0.323346 93:-0.783187 94:-0.254989 95:-0.241159 96:-0.53745 97:0.111844 98:0.126595 99:-0.169833 100:-0.285133 101:-0.720986 102:-0.594143 103:-0.202964 104:-0.367687 105:-0.256141 106:-0.074314 107:-0.287091 108:-0.657342 109:0.392062 110:-0.265098 111:-0.0111161 112:-0.15615 113:-0.323754 114:-0.0288064 115:-0.399498 116:-0.0347901 117:-0.647786 118:-0.424005 119:-0.306596 120:-0.346007 121:-0.157605 122:-0.0457536 123:-0.106783 124:-0.390111 125:-0.205624 126:-0.210152 127:-0.149304 128:-0.915674 129:-0.41385 130:-0.727809 131:-0.171614 132:-0.714037 133:-0.411878 134:-0.403503 135:-0.103426 136:-0.335134 137:-0.247382 138:-0.248897 139:-0.336699 140:-0.589679 141:-0.28214 142:-0.277184 143:-0.319409 144:-0.563353 145:-0.695393 146:-0.656571 147:-0.547185 148:-0.399209 149:-0.395962 150:-0.095686 151:-0.55017 152:0.117767 153:-0.340121 154:-0.294907 155:-0.571875 156:-0.0415697 157:0.158434 158:-0.0743489 159:-0.105236 160:-0.61488 161:-0.718026 162:-0.00529909 163:-0.674771 164:-0.130652 165:0.0561064 166:-0.238671 167:-0.666809 168:0.176633 169:-0.20958 170:-0.328458 171:-0.237534 172:-0.6164 173:0.178519 174:-0.0800064 175:0.0186469 176:-0.249015 177:-0.422205 178:0.129003 179:-0.501198 180:0.355941 181:-0.102168 182:-0.174171 183:-0.518186 184:-0.281759 185:-0.116539 186:-0.35776 187:-0.514307 188:-0.648439 189:-0.240917 190:-0.33028 191:-0.485619 192:-0.370939 193:-0.289594 194:-0.207321 195:-0.477737 196:-0.363073 197:-0.635222 198:-0.352806 199:-0.218805 200:-0.297063 201:-0.218262 202:-0.630443 203:-0.436102 204:-0.364954 205:-0.142579 206:-0.169423 207:-0.28552 208:-0.589346 209:-0.610638 210:0.0293652 211:-0.272867 212:-0.158923 213:-0.733724 214:-0.295456 215:-0.324226 216:-0.199485 217:-0.231239 218:-0.648521 219:-0.389618 220:-0.158213 221:-0.0393734 222:-0.486342 223:-0.251827 224:-0.392604 225:-0.468162 226:-0.218587 227:-0.197377 228:-0.484991 229:-0.179489 230:-0.191832 231:-0.223756 232:-0.420246 233:-0.270822 234:-0.58332 235:-0.329846 236:-0.90897 237:-0.285501 238:-0.371928 239:-0.318547 240:-0.698559 241:-0.0795871 242:-0.315857 243:-0.549813 244:-0.515812 245:-0.49563 246:-0.423308 247:-0.282717 248:-0.584425 249:-0.146248 250:-0.0790808 251:-0.442817 252:-0.363899 253:-0.435914 254:-0.194782 255:-0.50538 256:-0.942872 
404.0087681440065 1:-0.11384 2:0.0279841 3:-0.330264 4:-0.674024 5:-0.46422 6:-0.543141 7:0.561047 8:-0.234887 9:-0.617994 10:-0.496129 11:-0.128348 12:-0.592275 13:0.159036 14:-0.384742 15:0.300876 16:-0.0242786 17:-0.446264 18:-0.369787 19:-0.394803 20:-0.331539 21:-0.629535 22:-0.343937 23:0.0415735 24:0.0427543 25:-0.643161 26:-0.166463 27:-0.818338 28:-0.670872 29:-0.379574 30:-0.0878197 31:-0.153653 32:0.265485 33:-0.0959546 34:-0.42378 35:-0.41841 36:-0.5161 37:-0.483219 38:-0.863474 39:0.520607 40:-0.355575 41:-0.458735 42:-0.531019 43:-0.796522 44:-0.688177 45:-0.282046 46:-0.389364 47:0.523096 48:0.47539 49:-0.254137 50:-0.356226 51:-0.341772 52:-0.4875 53:-0.394104 54:-0.602469 55:0.733583 56:0.10857 57:-0.546787 58:-0.197098 59:-0.62652 60:-0.36984 61:-0.230755 62:-0.156709 63:0.246712 64:0.605395 65:-0.3895 66:-0.0365532 67:-0.294795 68:-0.553439 69:-0.201956 70:-0.442075 71:0.330918 72:-0.269504 73:-0.335006 74:0.0117392 75:-0.191976 76:-0.103114 77:-0.76653 78:-0.471126 79:0.342825 80:0.0386217 81:-0.325221 82:-0.228818 83:-0.0650288 84:-0.0448146 85:-0.0911031 86:-0.49472 87:0.00784581 88:-0.28861 89:-0.713601 90:0.0359726 91:-0.463203 92:-0.46335 93:-0.73239 94:-0.397737 95:-0.126218 96:-0.380026 97:-0.236731 98:-0.366646 99:-0.43703 100:-0.711691 101:-0.772406 102:-0.809001 103:-0.22706 104:-0.574711 105:-0.515609 106:-0.0461822 107:-0.394801 108:-0.455473 109:-0.0385375 110:-0.460555 111:0.0876699 112:-0.204346 113:-0.352814 114:-0.0919406 115:-0.290476 116:-0.127645 117:-0.643192 118:-0.636564 119:0.467141 120:0.16655 121:0.0540418 122:0.242982 123:0.293959 124:-0.487115 125:-0.0472891 126:-0.105038 127:0.0994082 128:-0.889269 129:-0.645149 130:-0.718174 131:0.121131 132:-0.516708 133:-0.229147 134:-0.357663 135:0.0221727 136:-0.45076 137:-0.333753 138:-0.739736 139:-0.292124 140:-0.582011 141:-0.590683 142:-0.438982 143:-0.565026 144:-0.707928 145:-0.652367 146:-0.58016 147:-0.0800677 148:0.199737 149:-0.485326 150:-0.0292777 151:-0.649221 152:-0.0303351 153:-0.334591 154:0.20174 155:-0.211476 156:0.604736 157:-0.106418 158:-0.372999 159:-0.542147 160:-0.681638 161:-0.801137 162:-0.514818 163:-0.692688 164:-0.634585 165:0.0489172 166:-0.355865 167:-0.761355 168:-0.521404 169:-0.698915 170:-0.579979 171:-0.410494 172:-0.731867 173:-0.290734 174:-0.172517 175:-0.37779 176:-0.515181 177:-0.383106 178:-0.0258406 179:-0.18734 180:0.291248 181:0.0924772 182:-0.123651 183:-0.578651 184:-0.433519 185:-0.0275964 186:0.0654367 187:-0.494468 188:-0.427114 189:-0.140357 190:-0.170133 191:-0.593916 192:-0.674563 193:-0.464823 194:-0.464075 195:0.151842 196:0.120819 197:-0.488412 198:-0.0382932 199:0.0949216 200:0.288169 201:-0.42032 202:-0.796002 203:0.128188 204:0.111596 205:-0.320608 206:-0.0574792 207:-0.223513 208:-0.666957 209:-0.802714 210:-0.410471 211:0.278133 212:-0.098485 213:-0.87649 214:-0.543164 215:-0.539996 216:-0.471605 217:-0.535961 218:-0.741661 219:-0.270098 220:0.467357 221:-0.661339 222:-0.6823 223:-0.676509 224:-0.614251 225:-0.667346 226:-0.436873 227:-0.0571293 228:-0.539242 229:0.0902212 230:0.189853 231:0.00354439 232:-0.404177 233:-0.539949 234:-0.693647 235:0.126541 236:-0.780458 237:-0.227814 238:-0.308444 239:-0.279771 240:-0.701844 241:-0.342246 242:-0.535711 243:-0.458829 244:-0.560847 245:-0.454726 246:-0.614663 247:-0.637136 248:-0.813801 249:-0.236775 250:-0.192315 251:-0.045868 252:0.446007 253:-0.479336 254:-0.338129 255:-0.532907 256:-0.941023 
448.8820414681644 1:-0.697574 2:-0.384788 3:-0.503416 4:-0.615597 5:-0.310721 6:-0.329357 7:-0.0650264 8:-0.0169399 9:-0.562631 10:-0.576477 11:0.215199 12:-0.568398 13:0.248022 14:-0.513927 15:0.459997 16:0.193591 17:-0.198287 18:-0.555502 19:-0.353159 20:-0.367147 21:-0.42973 22:-0.137462 23:0.116312 24:-0.285014 25:-0.390103 26:-0.288431 27:-0.536841 28:-0.824346 29:0.151599 30:0.134017 31:0.46458 32:0.199533 33:-0.39111 34:-0.465253 35:-0.516017 36:-0.33318 37:-0.647224 38:-0.365604 39:-0.0452405 40:-0.374805 41:-0.567673 42:-0.864692 43:-0.589699 44:-0.307536 45:-0.473412 46:-0.397311 47:-0.0320834 48:-0.0817291 49:-0.476565 50:-0.454887 51:-0.379853 52:-0.332077 53:-0.259498 54:-0.534047 55:0.212812 56:-0.162839 57:-0.154201 58:-0.508141 59:-0.524183 60:-0.455237 61:0.349005 62:0.281796 63:0.636844 64:0.142027 65:-0.563198 66:-0.342471 67:-0.536588 68:-0.604326 69:-0.190701 70:-0.681901 71:-0.207476 72:-0.154913 73:-0.157281 74:0.0150609 75:0.104822 76:0.118925 77:-0.52533 78:-0.320508 79:0.351641 80:-0.1391 81:-0.59359 82:-0.63059 83:-0.165196 84:-0.326906 85:-0.258751 86:-0.684058 87:-0.157168 88:-0.576959 89:-0.686189 90:-0.226006 91:-0.119308 92:-0.417614 93:-0.788593 94:-0.290875 95:-0.0935613 96:-0.56807 97:-0.401551 98:-0.556181 99:-0.316039 100:-0.401774 101:-0.725009 102:-0.710026 103:-0.423858 104:-0.543521 105:-0.232335 106:-0.410053 107:-0.0808246 108:-0.524249 109:0.573123 110:-0.233837 111:-0.0949242 112:-0.464397 113:-0.679578 114:-0.4896 115:-0.399147 116:0.0156183 117:-0.543728 118:-0.587453 119:0.357896 120:-0.0844966 121:0.179857 122:-0.497362 123:0.32634 124:-0.337331 125:0.364106 126:-0.206668 127:0.29286 128:-0.923686 129:-0.451517 130:-0.635998 131:-0.128179 132:-0.61524 133:-0.660561 134:-0.417672 135:-0.105873 136:-0.364118 137:-0.275054 138:-0.512144 139:-0.376178 140:-0.563304 141:-0.600366 142:-0.422619 143:-0.535202 144:-0.675946 145:-0.696883 146:-0.628677 147:-0.320867 148:-0.0835794 149:-0.399456 150:0.19619 151:-0.575375 152:0.678592 153:-0.291715 154:-0.367156 155:-0.431627 156:0.0245981 157:-0.35725 158:-0.229762 159:-0.213481 160:-0.595863 161:-0.750458 162:0.16491 163:-0.722003 164:0.000127902 165:-0.290008 166:-0.142465 167:-0.538766 168:0.0560247 169:-0.555741 170:-0.436651 171:-0.361553 172:-0.649521 173:-0.490228 174:-0.0184218 175:-0.158252 176:-0.394098 177:-0.477187 178:0.0768461 179:-0.336989 180:0.30766 181:-0.312314 182:-0.0235575 183:-0.507318 184:0.153343 185:-0.391438 186:-0.469968 187:-0.568698 188:-0.703793 189:-0.585281 190:-0.445451 191:-0.59469 192:-0.485634 193:-0.320939 194:-0.0480435 195:0.00714318 196:0.174637 197:-0.827448 198:-0.103535 199:-0.194032 200:0.10309 201:-0.173456 202:-0.690829 203:-0.222326 204:-0.40632 205:-0.542953 206:-0.262246 207:-0.339506 208:-0.635215 209:-0.638718 210:0.0151212 211:0.366446 212:0.400797 213:-0.853846 214:-0.453303 215:-0.473678 216:-0.0208052 217:-0.273373 218:-0.701972 219:-0.410345 220:0.234856 221:-0.361511 222:-0.651744 223:-0.292451 224:-0.295018 225:-0.634032 226:-0.0169548 227:-0.366607 228:-0.339675 229:-0.599414 230:-0.0111011 231:-0.153765 232:-0.46588 233:-0.550137 234:-0.787153 235:-0.276018 236:-0.798598 237:-0.519081 238:-0.589488 239:-0.144705 240:-0.386906 241:-0.109502 242:-0.245992 243:-0.618722 244:-0.320409 245:-0.611883 246:-0.62411 247:-0.511263 248:-0.708268 249:0.0841804 250:-0.564531 251:-0.259182 252:-0.15889 253:-0.405459 254:-0.728018 255:-0.387444 256:-0.952705 
539.6913984831876 1:-0.00200934 2:-0.0451418 3:-0.495438 4:-0.528372 5:-0.896959 6:-0.0620574 7:-0.585287 8:-0.0253688 9:-0.16718 10:0.0730116 11:-0.254095 12:-0.493408 13:-0.422699 14:-0.296296 15:-0.277533 16:-0.247537 17:-0.350548 18:-0.433831 19:-0.617308 20:-0.489989 21:-0.822904 22:-0.344873 23:-0.614277 24:-0.104679 25:-0.642379 26:-0.33911 27:-0.822944 28:-0.847222 29:-0.810279 30:-0.371204 31:-0.204819 32:-0.773556 33:0.0531288 34:0.049222 35:-0.254928 36:-0.152951 37:-0.708483 38:-0.395528 39:-0.419106 40:0.254705 41:-0.120054 42:-0.127332 43:-0.768299 44:-0.425117 45:-0.627064 46:-0.408601 47:-0.281542 48:-0.249048 49:-0.0431203 50:-0.173479 51:-0.138802 52:-0.114303 53:-0.547608 54:-0.482241 55:-0.112163 56:0.646014 57:-0.268208 58:0.143314 59:-0.597182 60:-0.739978 61:-0.36885 62:-0.466788 63:-0.191198 64:-0.363031 65:-0.153696 66:0.231725 67:-0.512426 68:-0.520643 69:-0.341046 70:-0.396301 71:-0.365969 72:-0.425142 73:0.241272 74:0.526658 75:0.0611909 76:-0.22974 77:-0.786323 78:-0.282698 79:-0.224397 80:-0.606071 81:-0.37833 82:-0.19429 83:-0.277181 84:-0.366391 85:-0.622208 86:-0.792045 87:-0.59713 88:-0.627647 89:-0.720955 90:0.100669 91:-0.624951 92:-0.710112 93:-0.837247 94:-0.569366 95:-0.259052 96:-0.844038 97:0.317157 98:0.130366 99:-0.368209 100:-0.363395 101:-0.853135 102:-0.654411 103:-0.677985 104:-0.413452 105:0.0545314 106:0.469 107:-0.0754289 108:-0.439186 109:-0.29697 110:-0.355462 111:-0.450255 112:-0.556324 113:0.00109286 114:-0.109297 115:-0.204 116:0.0891551 117:-0.83815 118:-0.67143 119:-0.172756 120:0.0582003 121:0.294476 122:0.0940278 123:0.0244431 124:-0.693309 125:-0.271387 126:-0.352725 127:-0.236153 128:-0.962597 129:-0.699727 130:-0.783791 131:-0.456619 132:-0.629706 133:-0.401534 134:-0.313859 135:-0.291697 136:-0.529249 137:-0.140189 138:-0.720044 139:-0.304045 140:-0.774729 141:-0.372668 142:-0.2234 143:-0.439778 144:-0.736058 145:-0.791972 146:-0.615943 147:-0.49926 148:-0.217957 149:-0.158315 150:0.333013 151:-0.845329 152:-0.0723602 153:-0.608038 154:-0.352265 155:-0.392494 156:-0.347011 157:0.155551 158:0.0324079 159:-0.223133 160:-0.770304 161:-0.820087 162:-0.375295 163:-0.788562 164:-0.670376 165:0.330483 166:0.173366 167:-0.716772 168:-0.432285 169:-0.473712 170:-0.533983 171:-0.31866 172:-0.833656 173:0.272286 174:0.580421 175:-0.173281 176:-0.556977 177:-0.610965 178:-0.0288689 179:-0.610572 180:-0.173581 181:0.497089 182:0.455553 183:-0.555463 184:-0.584444 185:-0.387292 186:-0.15749 187:-0.271902 188:-0.741761 189:0.0433985 190:0.107714 191:-0.422933 192:-0.673311 193:-0.548148 194:-0.607731 195:-0.543632 196:-0.275409 197:-0.687374 198:0.103939 199:-0.388172 200:-0.276947 201:-0.133205 202:-0.773148 203:0.218657 204:-0.669416 205:0.0643918 206:-0.175333 207:-0.443036 208:-0.715275 209:-0.78206 210:-0.595669 211:-0.290694 212:-0.202452 213:-0.820993 214:-0.383326 215:-0.740461 216:-0.519828 217:-0.421487 218:-0.816964 219:0.166465 220:-0.427026 221:-0.190458 222:-0.592776 223:-0.208942 224:-0.668857 225:-0.679745 226:-0.637323 227:-0.643974 228:-0.676993 229:-0.283596 230:0.278745 231:-0.398744 232:-0.604845 233:-0.348288 234:-0.78304 235:0.520808 236:-0.867401 237:-0.0969034 238:-0.0435212 239:-0.204879 240:-0.829296 241:-0.517417 242:-0.626196 243:-0.704889 244:-0.786283 245:-0.354234 246:-0.175436 247:-0.624922 248:-0.715592 249:-0.101338 250:-0.442341 251:0.442194 252:-0.430705 253:-0.365464 254:-0.0345914 255:-0.23345 256:-0.942429 
300.0542717789962 1:-0.299364 2:-0.327998 3:0.0834783 4:-0.683712 5:-0.543549 6:-0.356591 7:-0.338987 8:-0.310966 9:-0.387434 10:0.0766926 11:-0.0849554 12:-0.501277 13:0.396712 14:-0.00235915 15:-0.568876 16:0.057075 17:-0.268391 18:-0.397718 19:-0.144368 20:-0.398967 21:-0.613042 22:-0.242235 23:-0.342815 24:-0.446449 25:-0.450705 26:-0.04995 27:-0.654416 28:-0.720297 29:-0.274025 30:0.0381502 31:-0.0529848 32:-0.502334 33:0.0761555 34:-0.258075 35:-0.255702 36:-0.39813 37:-0.546654 38:-0.56553 39:-0.200546 40:-0.37028 41:-0.273031 42:-0.292702 43:-0.632328 44:-0.246371 45:-0.2945 46:0.0596505 47:-0.282571 48:-0.208107 49:0.00193247 50:-0.288753 51:-0.038898 52:-0.238498 53:-0.200901 54:-0.601747 55:0.0776515 56:-0.14666 57:-0.0260182 58:-0.17077 59:-0.527037 60:-0.525901 61:-0.170764 62:-0.236725 63:-0.0830751 64:-0.292071 65:-0.187359 66:-0.163797 67:-0.458031 68:-0.628902 69:-0.432789 70:-0.373875 71:-0.620329 72:-0.306495 73:0.133811 74:0.305464 75:0.146063 76:0.221288 77:-0.653083 78:0.00901013 79:-0.411337 80:-0.0633644 81:-0.261896 82:-0.265382 83:-0.0171556 84:-0.326811 85:-0.453537 86:-0.571065 87:-0.362111 88:-0.64321 89:-0.590282 90:0.0816369 91:-0.366158 92:-0.3798 93:-0.764096 94:-0.165578 95:-0.141263 96:-0.678757 97:0.383899 98:-0.0625751 99:-0.139037 100:-0.471801 101:-0.647311 102:-0.731171 103:-0.508977 104:-0.602717 105:-0.138732 106:0.140989 107:-0.171213 108:-0.442186 109:-0.137055 110:-0.129189 111:-0.444452 112:-0.385223 113:0.0578856 114:-0.242725 115:0.133683 116:-0.0626565 117:-0.669687 118:-0.69283 119:-0.333644 120:-0.345537 121:-0.0674017 122:-0.0869699 123:0.358767 124:-0.600536 125:-0.20387 126:-0.11017 127:-0.257865 128:-0.942956 129:-0.440744 130:-0.720147 131:-0.226909 132:-0.674752 133:-0.250159 134:-0.274735 135:-0.261757 136:-0.510897 137:-0.279243 138:-0.434224 139:-0.297273 140:-0.666695 141:-0.28983 142:-0.243149 143:-0.480502 144:-0.478201 145:-0.611507 146:-0.629315 147:-0.264427 148:-0.296958 149:-0.168122 150:0.393311 151:-0.475722 152:0.0352464 153:-0.441535 154:-0.415674 155:-0.168268 156:-0.369258 157:0.114227 158:0.0181414 159:-0.0924254 160:-0.664756 161:-0.681238 162:-0.286495 163:-0.702119 164:-0.325595 165:0.0872815 166:0.00420271 167:-0.634153 168:-0.24299 169:-0.459499 170:-0.356419 171:-0.297911 172:-0.673497 173:0.151539 174:0.103007 175:-0.321105 176:-0.280911 177:-0.280511 178:-0.0557732 179:-0.33369 180:0.226556 181:0.131884 182:0.326219 183:-0.528108 184:-0.0510552 185:-0.357866 186:-0.405621 187:-0.265376 188:-0.715339 189:-0.320036 190:-0.138231 191:-0.507696 192:-0.586425 193:-0.456949 194:-0.110153 195:-0.426098 196:-0.343436 197:-0.641958 198:0.129787 199:-0.486299 200:-0.251711 201:-0.318064 202:-0.730161 203:0.0242505 204:-0.276869 205:-0.0745833 206:0.311206 207:-0.34892 208:-0.645829 209:-0.679343 210:-0.300473 211:-0.253531 212:-0.272599 213:-0.757556 214:-0.141962 215:-0.628001 216:-0.333398 217:-0.423166 218:-0.787191 219:-0.476062 220:-0.172958 221:-0.352855 222:-0.420473 223:-0.648169 224:-0.461988 225:-0.635936 226:-0.160827 227:-0.647283 228:-0.594693 229:-0.288843 230:0.361658 231:-0.619328 232:-0.538788 233:-0.57262 234:-0.684788 235:-0.0988804 236:-0.807802 237:-0.369383 238:-0.123683 239:-0.309807 240:-0.669379 241:-0.237888 242:-0.361937 243:-0.599022 244:-0.580453 245:-0.365296 246:-0.100718 247:-0.489608 248:-0.661713 249:-0.443289 250:-0.402882 251:-0.334788 252:-0.192767 253:-0.548494 254:-0.0663099 255:-0.614961 256:-0.936494 
1428.769349028318 1:0.0323296 2:-0.301466 3:-0.0416331 4:-0.607845 5:-0.486252 6:-0.412271 7:-0.297084 8:-0.347527 9:-0.539204 10:-0.159402 11:-0.429498 12:-0.431431 13:0.157989 14:-0.139716 15:-0.278195 16:0.014544 17:0.0551274 18:-0.301953 19:-0.13311 20:-0.319311 21:-0.539345 22:-0.233828 23:-0.428214 24:-0.390502 25:-0.639751 26:-0.0784858 27:-0.831047 28:-0.663078 29:-0.524361 30:-0.14089 31:-0.244655 32:-0.254206 33:0.281861 34:-0.00471143 35:-0.190911 36:-0.192204 37:-0.469796 38:-0.494704 39:-0.0498806 40:-0.337395 41:-0.308791 42:0.0158628 43:-0.76811 44:-0.277116 45:-0.38588 46:0.0640371 47:-0.108921 48:-0.0528437 49:0.0686426 50:-0.348149 51:0.130169 52:-0.159535 53:-0.360984 54:-0.579531 55:0.0831127 56:-0.231674 57:-0.448406 58:0.295513 59:-0.447391 60:-0.28222 61:-0.504331 62:-0.0867339 63:0.0356655 64:0.0763535 65:-0.27963 66:-0.098913 67:-0.425439 68:-0.526084 69:-0.504522 70:-0.308241 71:-0.331436 72:-0.283337 73:0.0169016 74:0.308786 75:-0.575513 76:-0.0982178 77:-0.762956 78:-0.0945481 79:-0.133448 80:-0.246722 81:-0.172604 82:-0.243114 83:-0.126434 84:-0.24714 85:-0.300202 86:-0.398076 87:-0.116847 88:-0.609537 89:-0.534856 90:0.0125657 91:-0.608978 92:-0.312535 93:-0.801158 94:-0.361054 95:-0.196426 96:-0.529704 97:0.252299 98:0.0979456 99:-0.070264 100:-0.418189 101:-0.733265 102:-0.63603 103:-0.35126 104:-0.520577 105:-0.201064 106:0.205642 107:-0.566665 108:-0.487929 109:-0.21917 110:-0.18019 111:-0.455632 112:-0.301287 113:0.0128814 114:-0.342634 115:-0.0562476 116:-0.0689575 117:-0.688006 118:-0.642019 119:-0.209956 120:-0.316647 121:-0.133295 122:-0.0293506 123:-0.0180788 124:-0.38493 125:-0.372662 126:-0.144521 127:-0.213334 128:-0.905485 129:-0.512074 130:-0.680321 131:-0.035289 132:-0.506435 133:-0.288101 134:-0.254284 135:-0.0818962 136:-0.645081 137:-0.319437 138:-0.628822 139:-0.28096 140:-0.634085 141:-0.428565 142:-0.451703 143:-0.479799 144:-0.644845 145:-0.548411 146:-0.54431 147:-0.140725 148:-0.0780168 149:-0.115342 150:0.223134 151:-0.543568 152:0.0335995 153:-0.299906 154:-0.472517 155:-0.40454 156:-0.0874479 157:-0.146275 158:-0.314986 159:-0.250037 160:-0.78504 161:-0.750634 162:-0.637411 163:-0.75321 164:-0.68696 165:0.0738925 166:-0.0538419 167:-0.602828 168:-0.586817 169:-0.394242 170:-0.514074 171:-0.268897 172:-0.735644 173:0.0119217 174:0.0458404 175:-0.214294 176:-0.322899 177:-0.386464 178:-0.219476 179:-0.129081 180:0.0801114 181:0.52444 182:0.197831 183:-0.491914 184:-0.475574 185:-0.0669564 186:-0.354502 187:-0.264003 188:-0.559436 189:-0.115746 190:-0.119451 191:-0.457427 192:-0.480264 193:-0.520113 194:-0.204541 195:-0.477094 196:-0.270115 197:-0.571432 198:0.341865 199:-0.432116 200:-0.142037 201:-0.356323 202:-0.709368 203:-0.0455105 204:-0.214033 205:-0.142108 206:0.176984 207:-0.173924 208:-0.659252 209:-0.639569 210:-0.475485 211:-0.42385 212:-0.445337 213:-0.815941 214:-0.30655 215:-0.596939 216:-0.505207 217:-0.418419 218:-0.749019 219:-0.45788 220:-0.182283 221:-0.433954 222:-0.566724 223:-0.447849 224:-0.55425 225:-0.650898 226:-0.466365 227:-0.523053 228:-0.622769 229:-0.265062 230:0.390169 231:-0.370542 232:-0.577719 233:-0.488973 234:-0.625721 235:-0.0371625 236:-0.805826 237:-0.077333 238:-0.00674185 239:-0.155901 240:-0.654601 241:-0.282966 242:-0.5145 243:-0.64828 244:-0.68699 245:-0.45486 246:-0.262212 247:-0.52689 248:-0.722926 249:-0.178722 250:-0.214247 251:-0.237887 252:-0.0562884 253:-0.441478 254:-0.0120711 255:-0.47671 256:-0.934923 
316.6425755692549 1:-0.567202 2:0.196601 3:-0.794721 4:-0.551906 5:-0.80365 6:-0.26182 7:-0.34908 8:0.179661 9:-0.525363 10:-0.57239 11:-0.0597096 12:-0.657718 13:-0.253256 14:-0.74038 15:0.142187 16:-0.608529 17:-0.540893 18:-0.435996 19:-0.62445 20:-0.385597 21:-0.663532 22:0.0441857 23:-0.297221 24:0.271313 25:-0.57593 26:-0.336592 27:-0.747164 28:-0.757234 29:-0.497148 30:-0.396853 31:0.244402 32:-0.338074 33:-0.514726 34:0.793503 35:-0.669541 36:-0.0564651 37:-0.729227 38:-0.307547 39:-0.482122 40:-0.0949153 41:-0.427785 42:-0.667257 43:-0.796031 44:-0.567095 45:-0.516 46:-0.747016 47:-0.266715 48:-0.437023 49:-0.617349 50:-0.0398536 51:-0.487728 52:-0.485667 53:-0.479577 54:-0.371362 55:-0.0188652 56:0.616656 57:-0.37437 58:-0.396969 59:-0.785395 60:-0.544882 61:-0.0334904 62:-0.526579 63:0.363394 64:-0.0140812 65:-0.631298 66:0.0265481 67:-0.785781 68:-0.63313 69:-0.281729 70:-0.419013 71:-0.519028 72:0.191215 73:-0.101273 74:-0.106256 75:-0.328648 76:-0.134928 77:-0.806424 78:-0.784595 79:-0.00996324 80:-0.535921 81:-0.865541 82:-0.405552 83:-0.387542 84:-0.378291 85:-0.548508 86:-0.482713 87:-0.438759 88:-0.532385 89:-0.496881 90:-0.226932 91:-0.616148 92:-0.361486 93:-0.835201 94:-0.614396 95:-0.119518 96:-0.701167 97:-0.189445 98:0.65846 99:-0.511981 100:-0.116028 101:-0.783528 102:-0.614778 103:-0.496242 104:-0.318823 105:-0.352279 106:-0.172084 107:-0.422022 108:-0.603871 109:-0.156225 110:-0.633181 111:-0.125989 112:-0.506777 113:-0.757117 114:0.0450672 115:-0.387569 116:-0.581199 117:-0.711015 118:-0.373207 119:0.198087 120:0.083335 121:-0.205905 122:-0.284838 123:-0.34408 124:-0.779175 125:-0.0734 126:-0.484585 127:0.245604 128:-0.938959 129:-0.604113 130:-0.68991 131:-0.480613 132:-0.591562 133:-0.596775 134:-0.262733 135:-0.250082 136:-0.470208 137:-0.389004 138:-0.55713 139:-0.543896 140:-0.711387 141:-0.234486 142:-0.461915 143:-0.481072 144:-0.710827 145:-0.817506 146:-0.616388 147:-0.640631 148:-0.177518 149:-0.705231 150:-0.126737 151:-0.732359 152:-0.348949 153:-0.410877 154:-0.322343 155:-0.525344 156:-0.167389 157:-0.00862137 158:-0.272231 159:-0.373205 160:-0.73808 161:-0.737352 162:-0.371516 163:-0.687814 164:-0.324316 165:-0.184434 166:-0.185095 167:-0.710781 168:-0.429201 169:-0.45704 170:-0.390636 171:-0.354907 172:-0.695271 173:0.330964 174:-0.0224382 175:-0.199604 176:-0.429097 177:-0.683372 178:-0.211518 179:-0.558511 180:-0.0204191 181:-0.147436 182:-0.237853 183:-0.678722 184:-0.671591 185:-0.225505 186:-0.499595 187:-0.524084 188:-0.656899 189:-0.0408543 190:-0.43635 191:-0.599221 192:-0.621285 193:-0.385225 194:-0.641753 195:-0.286615 196:-0.0685826 197:-0.814354 198:-0.443106 199:-0.286047 200:-0.262573 201:-0.16061 202:-0.876631 203:0.158445 204:-0.524893 205:0.228178 206:-0.515423 207:-0.183117 208:-0.795246 209:-0.688082 210:-0.486195 211:0.135926 212:0.192702 213:-0.810647 214:-0.568729 215:-0.5045 216:-0.397552 217:-0.189928 218:-0.719699 219:0.467002 220:-0.0206364 221:0.197714 222:-0.522872 223:0.174665 224:-0.555033 225:-0.586492 226:-0.512594 227:-0.417803 228:-0.453898 229:-0.592064 230:-0.133348 231:-0.290946 232:-0.61451 233:-0.409349 234:-0.763987 235:0.127293 236:-0.842913 237:0.0361148 238:-0.604159 239:0.00655524 240:-0.662385 241:-0.239556 242:-0.564829 243:-0.494346 244:-0.511192 245:-0.639433 246:-0.610604 247:-0.49112 248:-0.668865 249:-0.0137102 250:-0.562255 251:0.159284 252:-0.473125 253:0.0293597 254:-0.737912 255:-0.196776 256:-0.966346 
1683.428166324436 1:-0.200172 2:0.259422 3:-0.487077 4:-0.309377 5:-0.772978 6:0.54154 7:-0.862158 8:-0.032703 9:-0.443277 10:0.232185 11:-0.575255 12:-0.569246 13:-0.595899 14:-0.573963 15:-0.90339 16:-0.976098 17:-0.640981 18:-0.496912 19:-0.522306 20:-0.0513671 21:-0.87744 22:-0.358802 23:-0.470038 24:-0.191644 25:-0.52913 26:-0.361375 27:-0.896803 28:-0.773382 29:-0.799643 30:-0.590095 31:-0.281721 32:-0.537874 33:0.228959 34:0.47759 35:-0.255414 36:0.330949 37:-0.591869 38:0.298067 39:-0.621597 40:0.0160226 41:-0.443124 42:0.505696 43:-0.885903 44:-0.517734 45:-0.909553 46:-0.623256 47:-0.859235 48:-0.752392 49:-0.157673 50:-9.08044e-005 51:-0.398461 52:0.202771 53:-0.51222 54:-0.391315 55:-0.767014 56:0.0577859 57:-0.342244 58:-0.184999 59:-0.616745 60:-0.342083 61:-0.707005 62:-0.817518 63:-0.261403 64:-0.260002 65:-0.086231 66:0.379135 67:-0.493709 68:-0.379807 69:-0.151752 70:-0.191005 71:-0.672633 72:-0.584509 73:0.131196 74:0.479853 75:-0.221988 76:-0.398247 77:0.508285 78:-0.576547 79:-0.621131 80:-0.889635 81:-0.469385 82:-0.453076 83:-0.509149 84:-0.673205 85:-0.52946 86:-0.748807 87:-0.622375 88:-0.878168 89:-0.45349 90:-0.544698 91:-0.615069 92:-0.880149 93:-0.806028 94:-0.678346 95:-0.454551 96:-0.784426 97:0.893406 98:0.943796 99:-0.317136 100:0.264963 101:-0.834309 102:-0.363029 103:-0.62707 104:-0.410245 105:-0.400102 106:0.43376 107:-0.54071 108:-0.391138 109:-0.674242 110:-0.569816 111:-0.656084 112:-0.579082 113:-0.213842 114:-0.0202366 115:-0.572832 116:0.45342 117:-0.848832 118:-0.528393 119:-0.641638 120:-0.0780878 121:-0.0112114 122:-0.356893 123:-0.498106 124:-0.667695 125:-0.678683 126:-0.8938 127:-0.384563 128:-0.932363 129:-0.644137 130:-0.681422 131:-0.53862 132:-0.685422 133:-0.467593 134:-0.236736 135:-0.607513 136:-0.584693 137:-0.597845 138:-0.718432 139:-0.654698 140:-0.783532 141:-0.13749 142:-0.400873 143:-0.514184 144:-0.716841 145:-0.728886 146:-0.645911 147:-0.692577 148:-0.478336 149:-0.210646 150:0.199796 151:-0.913627 152:-0.582072 153:-0.281905 154:-0.896867 155:-0.586016 156:-0.862198 157:0.688425 158:-0.296713 159:-0.047323 160:-0.833678 161:-0.751371 162:-0.359104 163:-0.812073 164:-0.428364 165:0.192107 166:-0.110682 167:-0.786431 168:-0.374445 169:-0.137953 170:-0.606761 171:-0.499687 172:-0.834568 173:0.661427 174:0.359252 175:-0.236292 176:-0.444714 177:-0.663891 178:-0.60915 179:-0.852767 180:-0.535189 181:-0.100369 182:0.135253 183:-0.640897 184:-0.57295 185:-0.481401 186:-0.922059 187:-0.276481 188:-0.899462 189:0.244443 190:-0.127156 191:-0.105556 192:-0.594349 193:-0.601613 194:-0.638135 195:-0.760267 196:-0.533775 197:-0.710094 198:-0.0665445 199:-0.701706 200:-0.722049 201:-0.0484881 202:-0.818939 203:0.194632 204:-0.73903 205:0.388824 206:-0.213023 207:-0.141683 208:-0.788245 209:-0.712774 210:-0.759475 211:-0.160281 212:-0.4866 213:-0.790835 214:-0.576133 215:-0.705459 216:-0.698744 217:-0.11064 218:-0.666958 219:0.0106426 220:-0.493609 221:0.325548 222:-0.578612 223:0.172827 224:-0.664975 225:-0.693819 226:-0.553846 227:-0.637567 228:-0.731761 229:-0.253977 230:-0.109208 231:-0.52236 232:-0.626449 233:0.255651 234:-0.616792 235:0.259008 236:0.559925 237:0.153115 238:-0.162375 239:0.407032 240:-0.612252 241:-0.485031 242:-0.874846 243:-0.709856 244:-0.765785 245:-0.567674 246:-0.505982 247:-0.616673 248:-0.839334 249:0.174726 250:-0.784113 251:0.0229859 252:-0.755322 253:-0.125251 254:-0.0245824 255:0.164244 256:-0.946156 
1617.930610119847 1:-0.704669 2:-0.326134 3:-0.0242753 4:-0.355477 5:-0.530965 6:-0.318837 7:-0.118576 8:-0.289839 9:-0.703016 10:-0.35946 11:-0.00828676 12:-0.266634 13:0.468239 14:-0.113546 15:0.40686 16:0.257475 17:-0.434303 18:-0.331128 19:-0.392096 20:-0.282906 21:-0.410818 22:-0.349441 23:-0.169998 24:-0.242504 25:-0.332541 26:-0.36182 27:-0.70244 28:-0.71247 29:-0.277998 30:0.0952198 31:1 32:0.000680669 33:-0.478297 34:-0.777621 35:-0.440051 36:-0.743496 37:-0.646598 38:-0.56675 39:-0.12187 40:-0.646752 41:-0.719643 42:-0.750523 43:-0.810639 44:-0.619902 45:-0.443162 46:-0.228606 47:0.209087 48:-0.256396 49:-0.380399 50:-0.380055 51:-0.224569 52:-0.29489 53:-0.372715 54:-0.472955 55:-0.0175362 56:-0.367972 57:-0.248915 58:-0.358104 59:-0.26593 60:-0.464231 61:0.00616928 62:-0.176763 63:0.676605 64:0.105701 65:-0.509117 66:-0.34787 67:-0.227855 68:-0.500042 69:-0.218483 70:-0.551924 71:0.155977 72:-0.439101 73:0.00374303 74:-0.0696801 75:0.155155 76:-0.0872759 77:-0.675669 78:-0.308836 79:0.285607 80:-0.0437383 81:-0.500109 82:-0.257887 83:-0.273542 84:-0.331933 85:-0.39824 86:-0.708953 87:-0.2129 88:-0.645094 89:-0.460176 90:-0.560984 91:-0.0659476 92:-0.623579 93:-0.763024 94:-0.532347 95:0.293065 96:-0.372858 97:-0.657517 98:-0.687432 99:-0.353395 100:-0.478799 101:-0.784487 102:-0.776354 103:-0.24621 104:-0.541458 105:-0.479689 106:-0.76984 107:-0.0166338 108:-0.772912 109:0.161858 110:-0.419342 111:-0.175041 112:-0.272552 113:-0.107207 114:-0.186859 115:-0.293603 116:-0.314162 117:-0.390304 118:-0.477121 119:0.247646 120:-0.551241 121:0.243937 122:-0.154155 123:0.257754 124:-0.740521 125:0.365458 126:-0.0981832 127:0.56933 128:-0.923535 129:-0.543872 130:-0.633979 131:-0.10462 132:-0.399143 133:-0.475127 134:-0.227334 135:-0.304251 136:-0.319078 137:-0.415983 138:-0.514441 139:-0.364663 140:-0.541308 141:-0.633414 142:-0.600267 143:-0.541183 144:-0.661709 145:-0.729879 146:-0.524106 147:-0.329203 148:0.347115 149:-0.418097 150:0.300159 151:-0.680595 152:0.226962 153:-0.430175 154:-0.317489 155:-0.645673 156:0.132897 157:-0.553549 158:-0.494001 159:-0.215751 160:-0.758978 161:-0.809615 162:-0.167245 163:-0.642378 164:0.0135576 165:-0.293613 166:-0.243943 167:-0.791348 168:0.156116 169:-0.354629 170:-0.487836 171:-0.433556 172:-0.663036 173:-0.452779 174:-0.219643 175:-0.485388 176:-0.475546 177:-0.517348 178:0.0652585 179:-0.182571 180:0.734552 181:-0.372569 182:0.10554 183:-0.63251 184:-0.239097 185:-0.391838 186:-0.407499 187:-0.469087 188:-0.560746 189:-0.53205 190:-0.379794 191:-0.470244 192:-0.53944 193:-0.197862 194:-0.29584 195:-0.358444 196:0.527703 197:-0.66909 198:0.164223 199:0.0615996 200:0.00421594 201:-0.271945 202:-0.646385 203:-0.316312 204:-0.0467286 205:-0.465708 206:-0.439111 207:-0.32607 208:-0.725144 209:-0.610218 210:-0.129021 211:-0.0540029 212:0.732519 213:-0.873132 214:-0.395386 215:-0.54378 216:-0.0754267 217:-0.40629 218:-0.634455 219:-0.465202 220:0.204125 221:-0.696103 222:-0.582394 223:-0.460839 224:-0.598458 225:-0.611429 226:-0.267927 227:-0.314463 228:-0.330725 229:-0.272747 230:0.0823258 231:-0.129786 232:-0.445876 233:-0.338699 234:-0.52855 235:-0.413353 236:-0.783348 237:-0.45188 238:-0.357796 239:-0.301855 240:-0.652549 241:-0.344854 242:-0.491866 243:-0.578938 244:-0.421577 245:-0.76136 246:-0.451087 247:-0.565861 248:-0.687327 249:-0.323012 250:-0.374182 251:-0.603303 252:-0.235439 253:-0.571049 254:-0.642942 255:-0.55164 256:-0.920587 
841.0181414620921 1:-0.341214 2:-0.133617 3:-0.237194 4:-0.220355 5:-0.358407 6:0.565114 7:-0.202116 8:-0.131879 9:-0.825067 10:0.170877 11:-0.0797842 12:0.0226955 13:-0.368784 14:-0.194683 15:-0.550616 16:-0.438985 17:-0.438837 18:-0.515901 19:-0.219947 20:0.0499247 21:-0.165009 22:1 23:0.0879517 24:-0.150767 25:-0.870161 26:-0.279002 27:-0.784897 28:-0.681096 29:-0.0574244 30:0.26765 31:-0.0314966 32:0.0209306 33:-0.266293 34:-0.00458744 35:-0.427814 36:-0.362289 37:-0.53122 38:-0.334569 39:-0.463801 40:-0.894815 41:-0.777032 42:-0.593219 43:-0.804919 44:-0.609427 45:-0.626178 46:-0.470804 47:-0.490306 48:-0.595774 49:-0.450425 50:-0.240866 51:0.190805 52:0.138856 53:0.294549 54:-0.059381 55:-0.165737 56:-0.314815 57:-0.898187 58:-0.0378148 59:-0.642981 60:-0.300407 61:-0.141802 62:0.168119 63:-0.127278 64:-0.363167 65:-0.223401 66:-0.00155476 67:-0.204421 68:-0.208533 69:0.0801528 70:0.123729 71:-0.429717 72:-0.252177 73:-0.537741 74:0.168123 75:-0.402364 76:0.48581 77:-0.754353 78:-0.604532 79:-0.552852 80:-0.516023 81:-0.697382 82:-0.493215 83:-0.502864 84:-0.290539 85:-0.416665 86:-0.197434 87:-0.658311 88:-0.782906 89:-0.956014 90:-0.604509 91:-1 92:-0.65664 93:-0.787034 94:-0.564919 95:0.263056 96:-0.720047 97:0.653169 98:0.572452 99:0.345356 100:0.0933506 101:-0.728448 102:-0.420899 103:-0.565787 104:-0.565484 105:-0.394608 106:0.968164 107:-0.273044 108:-0.302228 109:-0.0170619 110:-0.29308 111:-0.449103 112:-0.258884 113:-0.452944 114:-0.106911 115:0.292876 116:0.545493 117:-0.58161 118:-0.128483 119:-0.328789 120:-0.537792 121:-0.429525 122:-0.207569 123:-0.106713 124:-0.296969 125:-0.480781 126:-0.149541 127:-0.092852 128:-0.925079 129:-0.566652 130:-0.653204 131:-0.569365 132:-0.0730217 133:-0.739971 134:-0.755668 135:-0.360365 136:-0.639577 137:-0.44208 138:-0.640673 139:-0.498902 140:-0.745247 141:-0.328907 142:-0.628798 143:-0.562308 144:-0.677182 145:-0.767209 146:-0.760664 147:-0.491954 148:-0.0710167 149:-0.621731 150:-0.197051 151:-0.622963 152:-0.0735954 153:-0.501024 154:-0.615843 155:-0.254079 156:-0.311277 157:0.133173 158:-0.204597 159:0.231167 160:-0.55648 161:-0.736031 162:-0.626158 163:-0.763903 164:-0.35562 165:-0.0774321 166:-0.616313 167:-0.545829 168:-0.104654 169:-0.0848319 170:-0.4704 171:-0.294001 172:-0.769376 173:0.27328 174:0.426594 175:0.106194 176:-0.0413253 177:-0.620886 178:-0.836497 179:-0.666099 180:-0.0799206 181:0.147385 182:-0.230365 183:-0.459818 184:-0.0756903 185:-0.382236 186:-0.754157 187:-0.31323 188:-0.734567 189:-0.0154124 190:0.196677 191:0.242032 192:0.0687809 193:1 194:-0.0595166 195:-0.0288022 196:-0.696435 197:-0.4846 198:-0.4303 199:-0.499979 200:-0.614262 201:0.605055 202:-0.561757 203:-0.150554 204:-0.66224 205:0.217814 206:-0.295413 207:-0.640506 208:-0.74074 209:-0.518203 210:-0.321551 211:0.555141 212:-0.41888 213:-0.786983 214:-0.408518 215:-0.503032 216:-0.318454 217:0.0903921 218:-0.71725 219:-0.25142 220:0.273855 221:-0.12186 222:-0.587886 223:-0.299801 224:-0.554802 225:-0.484926 226:-0.400081 227:-0.329082 228:-0.70004 229:-0.461149 230:-0.279734 231:-0.510918 232:-0.563371 233:0.244521 234:-0.71027 235:-0.131245 236:-0.865265 237:-0.219625 238:-0.426943 239:0.293466 240:-0.490985 241:-0.507197 242:-0.616208 243:-0.698722 244:-0.738353 245:-0.646979 246:-0.494173 247:-0.388643 248:-0.725445 249:-0.0284976 250:-0.575793 251:-0.551589 252:-0.374378 253:-0.325917 254:-0.418063 255:-0.203284 256:-0.932316 
607.8679270642103 1:-0.210011 2:-0.178347 3:-0.837924 4:-0.913374 5:-0.230967 6:-0.573805 7:-0.585529 8:-0.475055 9:0.465602 10:-0.639461 11:-0.205017 12:-0.896061 13:0.181421 14:-0.768853 15:-0.729206 16:-0.573763 17:-0.414961 18:-1 19:-0.755046 20:-0.723574 21:-0.813477 22:-0.636423 23:-0.149211 24:0.118417 25:0.0242777 26:-0.429481 27:-0.718211 28:-0.872297 29:-0.135654 30:-0.219034 31:0.539819 32:0.0109393 33:-0.177886 34:-0.00805902 35:-0.769029 36:-0.618767 37:-0.926326 38:-0.811485 39:-0.754452 40:0.620888 41:0.507607 42:0.0296332 43:-0.89327 44:-0.608423 45:-0.609478 46:-0.85517 47:-1 48:-0.833765 49:-0.515763 50:-0.406856 51:-0.729718 52:-0.312455 53:-0.870405 54:-0.91615 55:-0.469553 56:0.23937 57:-0.0631109 58:0.0614157 59:-0.747012 60:-0.989814 61:-0.375293 62:-0.421004 63:0.227102 64:-0.256795 65:0.278117 66:-0.272175 67:-0.686651 68:-0.893459 69:0.263372 70:-0.925133 71:-0.877507 72:-0.481089 73:0.885242 74:-0.116863 75:0.552638 76:-0.652839 77:-0.597831 78:-0.719514 79:-0.131385 80:-0.727436 81:-0.611596 82:-0.885672 83:-0.552903 84:-0.830032 85:-0.68744 86:-0.950113 87:-0.578995 88:-0.768087 89:-0.363734 90:-0.40266 91:-0.43573 92:-0.837185 93:-0.739988 94:-0.552461 95:0.0679975 96:-0.56983 97:0.187922 98:0.289366 99:-0.613459 100:-0.659884 101:-0.953705 102:-0.831208 103:-0.844105 104:-0.465476 105:0.572905 106:0.667624 107:0.196405 108:-0.427915 109:-0.271937 110:-0.72687 111:-0.821865 112:-0.541602 113:-0.860186 114:-0.368831 115:-0.687787 116:-0.606184 117:-0.783735 118:-0.934115 119:-0.108632 120:-0.408233 121:0.532565 122:0.111488 123:0.14716 124:-0.832771 125:-0.332101 126:-0.634688 127:0.358253 128:-0.946556 129:-0.588974 130:-0.560337 131:-0.584768 132:-0.422555 133:-0.183939 134:0.323356 135:-0.446232 136:-0.275259 137:-0.3507 138:-0.547959 139:-0.645264 140:-0.797344 141:-0.318326 142:-0.107292 143:-0.531078 144:-0.519214 145:-0.920331 146:-0.522777 147:-0.844556 148:-0.150518 149:-0.346426 150:1 151:-0.831147 152:-0.109003 153:-0.751171 154:-0.923741 155:-0.766576 156:-0.64923 157:0.243599 158:0.246494 159:-0.442684 160:-0.713369 161:-0.79739 162:0.60429 163:-0.718053 164:0.00588348 165:0.399209 166:0.658862 167:-0.829411 168:0.0754094 169:-0.863842 170:-0.545088 171:-0.542358 172:-0.714903 173:0.368537 174:0.698235 175:-0.546933 176:-0.364834 177:-0.747777 178:-0.0573999 179:-0.428968 180:0.0919049 181:-0.270054 182:0.450666 183:-0.655287 184:-0.244667 185:-0.794374 186:-0.725695 187:-0.664429 188:-0.883709 189:-0.28025 190:-0.0601017 191:-0.821494 192:-0.707858 193:-0.282557 194:-0.461758 195:-0.276519 196:-0.221457 197:-0.729078 198:-0.556885 199:-0.882059 200:-0.403345 201:-0.418745 202:-1 203:-0.332697 204:-0.700512 205:-0.300665 206:-0.266506 207:-0.915077 208:-0.707941 209:-0.698454 210:-0.402747 211:0.246592 212:0.066486 213:-0.835499 214:-0.311696 215:-0.575308 216:-0.435792 217:-0.525077 218:-0.878372 219:-0.0390642 220:-0.0563282 221:-0.145686 222:-0.541372 223:-0.511951 224:-0.568903 225:-0.877203 226:-0.255649 227:-0.586957 228:-0.409058 229:-0.690549 230:-0.390931 231:-0.998928 232:-0.801128 233:-0.784932 234:-0.935458 235:-0.235864 236:-0.85042 237:-0.420025 238:-0.631682 239:-0.405395 240:-0.457126 241:-0.606042 242:-0.376124 243:-0.608972 244:-0.479874 245:-0.407403 246:-0.314022 247:-0.708393 248:-0.634106 249:-0.594492 250:-0.710042 251:0.528484 252:-0.575087 253:-0.369389 254:-0.450824 255:-0.289735 256:-0.962897 
739.5186900978048 1:0.291049 2:0.291544 3:-0.634384 4:-0.275429 5:-0.092318 6:0.136913 7:-0.165866 8:0.178019 9:-0.431353 10:-0.340903 11:-0.604644 12:-0.630104 13:-0.62204 14:-0.632197 15:0.0287138 16:-0.253882 17:-0.436316 18:0.0204524 19:-0.621925 20:-0.152271 21:-0.684613 22:-0.178765 23:-0.529745 24:-0.487828 25:-0.682148 26:-0.178805 27:-0.84359 28:-0.759014 29:-0.660798 30:-0.475764 31:-0.624362 32:-0.512738 33:0.0532272 34:0.247598 35:-0.365015 36:0.538699 37:-0.416618 38:0.491539 39:-0.0270556 40:0.287428 41:-0.536947 42:-0.0398448 43:-0.809809 44:-0.248541 45:-0.463849 46:-0.392385 47:0.35687 48:0.0109209 49:-0.206362 50:0.249573 51:-0.262141 52:0.289631 53:-0.421988 54:-0.393961 55:-0.383585 56:-0.247166 57:-0.316684 58:0.832474 59:-0.578271 60:-0.0208875 61:-0.228658 62:-0.415441 63:-0.131503 64:-0.0849052 65:-0.149758 66:0.427404 67:-0.487963 68:-0.376017 69:0.0827434 70:0.239529 71:0.122507 72:-0.159439 73:-0.515346 74:-0.170879 75:-0.373367 76:-0.362521 77:-0.626724 78:-0.395444 79:-0.077843 80:-0.513823 81:-0.296695 82:0.593441 83:-0.545716 84:0.032215 85:-0.742004 86:-0.397509 87:-0.50828 88:-0.653218 89:-0.708754 90:0.0611997 91:-0.580013 92:-0.432549 93:-0.79809 94:-0.613516 95:-0.563233 96:-0.478135 97:0.0408944 98:0.0647344 99:-0.420021 100:0.00932726 101:-0.640378 102:-0.485647 103:-0.381061 104:-0.232996 105:-0.674713 106:-0.324497 107:-0.527165 108:-0.81052 109:-0.395059 110:-0.513195 111:-0.397021 112:-0.266393 113:-0.369583 114:0.363559 115:-0.325012 116:0.330671 117:-0.631487 118:-0.398599 119:-0.540387 120:-0.36976 121:-0.382781 122:0.256114 123:-0.255143 124:0.00603485 125:-0.632651 126:-0.341824 127:-0.442888 128:-0.911405 129:-0.482412 130:-0.621453 131:-0.33823 132:-0.57975 133:0.0145952 134:-0.613208 135:0.0206977 136:-0.329287 137:-0.608036 138:-0.675159 139:-0.426025 140:-0.816005 141:-0.404151 142:-0.430078 143:-0.529898 144:-0.68013 145:-0.58778 146:-0.481171 147:-0.407808 148:-0.28602 149:-0.226018 150:0.0266134 151:-0.728898 152:-0.556546 153:-0.222949 154:0.217217 155:-0.362625 156:0.188299 157:0.0567333 158:-0.254684 159:-0.236141 160:-0.773398 161:-0.819046 162:-0.625486 163:-0.818944 164:-0.596012 165:-0.0885347 166:-0.684801 167:-0.691424 168:-0.645055 169:-0.541791 170:-0.616331 171:-0.456711 172:-0.776138 173:-0.0760528 174:-0.0555065 175:-0.443911 176:-0.607296 177:-0.369382 178:-0.371016 179:-0.52206 180:-0.358803 181:0.289488 182:-0.258581 183:-0.729525 184:-0.794665 185:0.43918 186:0.318768 187:-0.308651 188:-0.647729 189:-0.131751 190:-0.160622 191:-0.434717 192:-0.70089 193:-0.754132 194:-0.813518 195:-0.364119 196:-0.536657 197:-0.480899 198:-0.0362596 199:0.592036 200:-0.210797 201:-0.255981 202:-0.888848 203:-0.174679 204:-0.665069 205:0.273718 206:-0.167341 207:0.122015 208:-0.664098 209:-0.77725 210:-0.90854 211:-0.323469 212:-0.44922 213:-0.843525 214:-0.621267 215:-0.535464 216:-0.554375 217:-0.328881 218:-0.739556 219:-0.25415 220:-0.0192813 221:-0.0284364 222:-0.583972 223:-0.204673 224:-0.577591 225:-0.725927 226:-0.667043 227:-0.597215 228:-0.611743 229:0.161801 230:0.0410753 231:0.399969 232:-0.68296 233:-0.185959 234:-0.827139 235:0.0738545 236:-0.752556 237:0.224833 238:-0.142844 239:0.835132 240:-0.477741 241:-0.403938 242:-0.610587 243:-0.639564 244:-0.78062 245:-0.28431 246:-0.454955 247:-0.482177 248:-0.864928 249:0.513093 250:-0.261066 251:0.140809 252:0.0234373 253:0.539595 254:-0.0544705 255:0.581287 256:-0.959212 
986.4302504909856 1:0.100924 2:0.0187748 3:0.0727836 4:-0.688941 5:-0.393307 6:-0.510085 7:-0.329815 8:-0.195041 9:-0.521528 10:-0.376723 11:0.229717 12:-0.460939 13:-0.0294054 14:-0.468796 15:-0.0319106 16:0.0491077 17:0.104917 18:-0.150646 19:-0.331302 20:-0.32226 21:-0.540107 22:-0.100803 23:-0.470471 24:-0.204139 25:-0.348017 26:0.305513 27:-0.642865 28:-0.634672 29:-0.593766 30:-0.0502682 31:-0.223351 32:-0.167226 33:-0.159583 34:-0.31052 35:-0.202595 36:-0.405991 37:-0.427781 38:-0.633268 39:0.0285227 40:-0.142749 41:-0.446606 42:-0.49856 43:-0.473264 44:-0.20591 45:-0.015883 46:-0.0358478 47:0.503551 48:0.196424 49:-0.176289 50:-0.30701 51:-0.206947 52:-0.367387 53:-0.311207 54:-0.596403 55:-0.463718 56:0.0913293 57:-0.109434 58:0.205153 59:-0.386826 60:-0.293656 61:-0.190609 62:0.130037 63:-0.262811 64:-0.0775002 65:-0.455349 66:0.16381 67:-0.406119 68:-0.41993 69:-0.228756 70:-0.307174 71:0.050018 72:-0.187395 73:-0.350231 74:0.117354 75:-0.23434 76:0.274821 77:-0.697769 78:-0.321625 79:0.00118095 80:-0.122564 81:-0.361669 82:-0.197929 83:-0.181975 84:-0.0631413 85:-0.272842 86:-0.417064 87:-0.375768 88:-0.48542 89:-0.593123 90:0.330683 91:-0.567847 92:-0.186673 93:-0.926533 94:-0.380517 95:-0.415315 96:-0.611762 97:-0.118496 98:-0.321878 99:-0.164872 100:-0.364866 101:-0.609415 102:-0.779398 103:-0.0142379 104:-0.355399 105:-0.576391 106:-0.0727122 107:-0.392941 108:-0.397561 109:0.457181 110:-0.0379113 111:0.0256033 112:-0.25909 113:-0.311876 114:-0.114829 115:-0.276763 116:0.22624 117:-0.367171 118:-0.55509 119:-0.1013 120:-0.114138 121:0.0314378 122:0.0447207 123:-0.108718 124:-0.210133 125:-0.147465 126:0.10103 127:-0.475159 128:-0.92401 129:-0.317319 130:-0.70239 131:-0.133148 132:-0.767099 133:-0.267644 134:-0.365809 135:0.133899 136:-0.396413 137:-0.226104 138:-0.315429 139:-0.343673 140:-0.602483 141:-0.386521 142:-0.308858 143:-0.362772 144:-0.502303 145:-0.654872 146:-0.687024 147:-0.436413 148:-0.366459 149:-0.302481 150:-0.0333844 151:-0.595971 152:0.186819 153:-0.185256 154:-0.105361 155:-0.582628 156:0.0497094 157:0.33453 158:-0.0500209 159:-0.202053 160:-0.553248 161:-0.673248 162:-0.258967 163:-0.628869 164:-0.292447 165:0.0301198 166:-0.370426 167:-0.479213 168:-0.39148 169:-0.464539 170:-0.198633 171:-0.280228 172:-0.594231 173:-0.116274 174:-0.202238 175:-0.216599 176:-0.334385 177:-0.391365 178:-0.15408 179:-0.30121 180:0.202702 181:0.21003 182:-0.129641 183:-0.49064 184:-0.410024 185:0.00562128 186:-0.0761396 187:-0.585 188:-0.549511 189:-0.292329 190:-0.497493 191:-0.598693 192:-0.542784 193:-0.241893 194:-0.393604 195:-0.47454 196:-0.660981 197:-0.606422 198:0.0725612 199:0.169046 200:-0.0149766 201:-0.235276 202:-0.691475 203:-0.103913 204:-0.434093 205:-0.209318 206:0.0932303 207:-0.30837 208:-0.645427 209:-0.612833 210:-0.261249 211:-0.264228 212:-0.357956 213:-0.741627 214:-0.412662 215:-0.255466 216:-0.138315 217:-0.385746 218:-0.54451 219:-0.157281 220:-0.11841 221:-0.198361 222:-0.466385 223:-0.357697 224:-0.257433 225:-0.505968 226:-0.0952475 227:-0.45814 228:-0.604657 229:-0.265062 230:0.104054 231:0.00417888 232:-0.42264 233:-0.627243 234:-0.620204 235:-0.0233638 236:-0.866545 237:-0.408704 238:-0.41784 239:-0.114728 240:-0.53516 241:-0.0515558 242:-0.290227 243:-0.663156 244:-0.595295 245:-0.332741 246:-0.358864 247:-0.326631 248:-0.64661 249:-0.196055 250:0.228523 251:-0.0789595 252:-0.0880547 253:-0.341567 254:-0.379417 255:-0.471521 256:-0.94178 
