svm_type c_svc
kernel_type rbf
gamma 0.125
nr_class 2
total_sv 302
rho 0.0673414
label 0 1
nr_sv 153 149
SV
0.9042635342698251 1:-0.0479609 2:-0.426668 3:-0.349361 4:-0.665753 5:-0.344184 6:-0.356168 7:0.0756539 8:-0.358036 9:-0.64951 10:-0.571285 11:0.118488 12:-0.481623 13:-0.182067 14:-0.0600927 15:0.241259 16:0.526191 17:0.018965 18:-0.220124 19:-0.238437 20:-0.48099 21:-0.425405 22:0.111045 23:0.211571 24:-0.195851 25:-0.507555 26:-0.101764 27:-0.652463 28:-0.655493 29:-0.350989 30:0.200714 31:-0.0204754 32:0.148337 33:-0.356885 34:-0.847009 35:-0.520088 36:-0.770649 37:-0.46175 38:-0.882913 39:-0.0813715 40:-0.654865 41:-0.338048 42:-0.683692 43:-0.645226 44:-0.349624 45:-0.183879 46:-0.163598 47:0.492317 48:0.382706 49:-0.183424 50:-0.633647 51:-0.12596 52:-0.584714 53:-0.0944875 54:-0.603234 55:0.640347 56:-0.2526 57:0.429327 58:-0.270345 59:-0.352914 60:-0.395453 61:0.0977967 62:0.0571808 63:0.233278 64:0.268321 65:-0.564353 66:-0.376832 67:-0.291132 68:-0.590176 69:-0.195614 70:-0.453133 71:0.463734 72:-0.230414 73:-0.337326 74:-0.0763612 75:-0.259389 76:0.132357 77:-0.699764 78:0.0164138 79:0.518305 80:0.469109 81:-0.350278 82:-0.00501457 83:0.0332136 84:0.146057 85:-0.0158691 86:-0.496284 87:0.166945 88:-0.474027 89:-0.668405 90:0.227922 91:-0.448896 92:-0.151468 93:-0.621057 94:-0.00227566 95:-0.323082 96:-0.452244 97:-0.267707 98:-0.755892 99:-0.130807 100:-0.556103 101:-0.681536 102:-0.776878 103:0.318381 104:-0.633614 105:-0.308823 106:-0.235016 107:-0.0817549 108:-0.421 109:0.296509 110:-0.270788 111:0.151913 112:-0.192188 113:-0.372431 114:-0.56919 115:0.0845488 116:-0.0996569 117:-0.348451 118:-0.588744 119:0.683423 120:-0.236707 121:-0.0796633 122:0.322955 123:0.0816286 124:-0.420771 125:0.160056 126:-0.184454 127:0.00813147 128:-0.921792 
0.1552016603991596 1:0.0890068 2:0.0116486 3:0.113016 4:-0.469969 5:-0.355029 6:-0.165853 7:-0.0625273 8:-0.200624 9:-0.872161 10:-0.143281 11:0.306417 12:-0.258043 13:-0.369277 14:-0.0973386 15:0.415932 16:0.214654 17:-0.108702 18:0.153874 19:-0.251379 20:-0.138342 21:-0.498237 22:0.0618037 23:-0.473891 24:-0.082639 25:-0.580313 26:-0.15844 27:-0.669385 28:-0.697146 29:-0.494405 30:-0.167665 31:-0.309612 32:-0.305693 33:0.0960727 34:-0.356085 35:-0.320139 36:-0.362039 37:-0.474381 38:-0.342953 39:-0.24507 40:-0.320185 41:-0.634608 42:-0.24708 43:-0.691111 44:-0.210252 45:-0.24256 46:-0.0653675 47:0.051676 48:-0.356293 49:0.185391 50:-0.315975 51:-0.132296 52:-0.243832 53:-0.100451 54:-0.545489 55:-0.370918 56:0.28397 57:-0.421034 58:-0.132093 59:-0.471073 60:-0.472451 61:-0.229995 62:-0.0701316 63:-0.0529566 64:-0.357181 65:-0.125691 66:0.416605 67:-0.253698 68:-0.193053 69:-0.648704 70:-0.278183 71:-0.260614 72:-0.339411 73:-0.556678 74:0.440596 75:0.031904 76:0.616128 77:-0.845764 78:-0.156602 79:0.154538 80:-0.180379 81:-0.217278 82:0.0156935 83:-0.11612 84:0.0202835 85:-0.385971 86:-0.412508 87:-0.412824 88:-0.574048 89:-0.879773 90:0.174945 91:-0.843788 92:-0.326002 93:-0.768576 94:-0.49193 95:-0.526284 96:-0.74444 97:0.11527 98:-0.288241 99:0.175606 100:-0.173786 101:-0.608633 102:-0.635714 103:-0.247961 104:-0.416334 105:-0.503706 106:0.265029 107:-0.336155 108:0.0231088 109:0.365448 110:-0.16326 111:-0.114916 112:-0.412103 113:0.0738843 114:0.0465859 115:0.0683335 116:0.318142 117:-0.31591 118:-0.4772 119:0.0324914 120:-0.13066 121:-0.132335 122:-0.0878306 123:-0.441527 124:-0.599973 125:0.0708016 126:-0.158681 127:-0.318404 128:-0.934125 
2 1:-0.840112 2:-1 3:-0.59169 4:-1 5:-0.133024 6:-0.945094 7:-0.730723 8:-0.968397 9:-0.895649 10:-1 11:-0.188219 12:-0.720453 13:0.184992 14:-0.553287 15:-0.535741 16:-0.754375 17:0.540046 18:-0.620549 19:0.717359 20:-0.308784 21:0.0714176 22:-0.0766322 23:-0.385373 24:-0.668226 25:1 26:0.378457 27:1 28:0.258851 29:1 30:0.945541 31:-0.5059 32:0.389343 33:1 34:-0.973752 35:1 36:-1 37:1 38:-0.868615 39:0.152201 40:-0.788119 41:1 42:-0.94871 43:1 44:-0.116659 45:1 46:0.0502661 47:0.0543586 48:0.0963919 49:-0.143426 50:-1 51:0.442971 52:-1 53:-0.606484 54:-0.968031 55:-0.876738 56:-0.685935 57:0.363882 58:-0.845889 59:1 60:-0.328978 61:-0.724966 62:-0.733309 63:-0.620463 64:-0.53737 65:-1 66:-0.901094 67:-0.771831 68:-0.891202 69:-0.616455 70:0.882026 71:-0.492114 72:0.866017 73:-1 74:-1 75:-1 76:-0.393569 77:-0.982249 78:-0.156013 79:-0.566042 80:0.438978 81:-0.887925 82:-0.778276 83:0.0638259 84:0.875658 85:0.207877 86:1 87:-0.0130142 88:1 89:-0.976904 90:-0.111175 91:-0.688528 92:1 93:-0.890566 94:1 95:-0.756125 96:1 97:-0.455048 98:-0.77257 99:0.38672 100:-0.172827 101:1 102:1 103:1 104:1 105:-0.964446 106:-1 107:-0.776355 108:-0.429339 109:0.518116 110:0.536565 111:-0.298364 112:0.673161 113:-0.877385 114:-1 115:-0.172561 116:0.0973367 117:-0.620336 118:-0.634376 119:-0.410471 120:0.104364 121:-1 122:-1 123:-0.807136 124:-0.392362 125:-0.993008 126:-0.583068 127:-1 128:-0.911132 
0.5834868583787836 1:-0.89169 2:-0.285569 3:-0.550057 4:-0.634535 5:-0.325187 6:-0.185908 7:0.0823021 8:0.194001 9:0.204304 10:-0.134523 11:-0.817499 12:-0.767883 13:-0.51421 14:-0.632873 15:-0.307744 16:-0.382605 17:-0.586957 18:-0.69512 19:-0.749292 20:-0.132013 21:-0.353525 22:0.158694 23:0.674852 24:-0.0987762 25:-0.392029 26:-0.32615 27:-0.793149 28:-0.708337 29:-0.542714 30:0.144961 31:0.958009 32:0.973989 33:-0.546137 34:-0.648565 35:-0.604153 36:-0.672588 37:-0.523157 38:-0.732629 39:0.443569 40:-0.445101 41:-0.450006 42:-0.529875 43:-0.748763 44:-0.540121 45:-0.432736 46:-0.308176 47:-0.234859 48:-0.319619 49:-0.774668 50:-0.542929 51:-0.739308 52:-0.371216 53:0.198858 54:-0.42269 55:0.290661 56:-0.120925 57:-0.244311 58:-0.86717 59:-0.677063 60:-0.693676 61:-0.14162 62:-0.016046 63:0.594158 64:-0.234269 65:-0.37764 66:-0.481437 67:-0.464153 68:-0.478835 69:0.068093 70:-0.0524318 71:0.294774 72:0.413011 73:0.101252 74:-0.512296 75:-0.214163 76:-0.622557 77:-0.752951 78:-0.649016 79:-0.116881 80:-0.317835 81:-0.614799 82:-0.55679 83:-0.406035 84:-0.392768 85:0.0619874 86:-0.0620307 87:0.282589 88:-0.332246 89:-0.358118 90:-0.357826 91:-0.745711 92:-0.517661 93:-0.653103 94:-0.407532 95:0.147273 96:-0.337293 97:-0.714921 98:-0.378385 99:-0.601031 100:-0.647046 101:-0.833548 102:-0.630451 103:-0.381606 104:-0.433969 105:-0.316289 106:-0.48654 107:-0.636085 108:-0.441186 109:-0.172661 110:-0.399485 111:-0.271821 112:-0.317818 113:-0.832381 114:-0.138369 115:-0.853036 116:-0.509739 117:-0.703529 118:-0.434744 119:-0.0998283 120:-0.233903 121:-0.0466102 122:-0.524217 123:-0.742957 124:-0.749389 125:-0.364972 126:-0.0953737 127:0.505982 128:-0.922335 
0.9239718888271443 1:-0.00996355 2:-0.521469 3:0.371897 4:-0.527243 5:-0.363789 6:-0.512882 7:0.301184 8:-0.383761 9:-0.396302 10:-0.432586 11:0.472377 12:-0.449244 13:0.665148 14:-0.367459 15:0.0838661 16:-0.194432 17:-0.0210149 18:-0.462805 19:-0.0480923 20:-0.140043 21:-0.480381 22:-0.0578907 23:-0.147292 24:-0.445633 25:-0.252451 26:0.116871 27:-0.629006 28:-0.571836 29:0.0482302 30:0.150829 31:-0.202602 32:-0.117999 33:-0.24303 34:-0.639706 35:-0.13121 36:-0.626064 37:-0.231209 38:-0.699324 39:0.322961 40:-0.863643 41:-0.222276 42:-0.570327 43:-0.396868 44:-0.0948414 45:0.0943651 46:0.215303 47:0.334355 48:-0.310645 49:-0.164603 50:-0.385876 51:-0.201751 52:-0.262202 53:0.148996 54:-0.764516 55:-0.0710897 56:-0.639574 57:-0.114572 58:0.327263 59:-0.228902 60:-0.124154 61:0.240875 62:0.0299097 63:0.144006 64:-0.0726024 65:-0.401626 66:-0.361766 67:-0.0882541 68:-0.444506 69:-0.50354 70:-0.0501544 71:0.182517 72:-0.235085 73:-0.252892 74:-0.016533 75:0.0823817 76:0.161544 77:-0.709305 78:-0.112305 79:0.136575 80:-0.1435 81:-0.126167 82:-0.0264375 83:0.302951 84:0.235145 85:-0.246727 86:-0.427976 87:-0.19984 88:-0.685417 89:-0.618863 90:0.348885 91:-0.334211 92:-0.205615 93:-0.762586 94:-0.191543 95:-0.375678 96:-0.498059 97:-0.131119 98:-0.538784 99:-0.0821913 100:-0.494835 101:-0.653914 102:-0.639871 103:-0.141491 104:-0.60842 105:-0.380381 106:-0.175168 107:-0.0495665 108:-0.533095 109:0.516634 110:-0.031823 111:-0.0121616 112:-0.182778 113:-0.292044 114:-0.23524 115:-0.127515 116:-0.00821824 117:-0.531898 118:-0.67935 119:-0.0580677 120:-0.642797 121:-0.0993885 122:0.26118 123:0.358464 124:0.0263709 125:-0.239804 126:-0.0543173 127:-0.0500234 128:-0.905871 
0.4230872888916434 1:-0.0670565 2:-0.239633 3:-0.0178246 4:-0.580578 5:-0.578773 6:-0.0683907 7:-0.246542 8:-0.524206 9:-0.623686 10:-0.00670204 11:0.552194 12:-0.461607 13:0.172399 14:-0.0695168 15:-0.251181 16:0.126173 17:-0.23357 18:-0.236145 19:-0.394939 20:-0.204177 21:-0.62694 22:-0.152384 23:-0.131577 24:-0.585782 25:-0.549752 26:-0.185643 27:-0.720652 28:-0.681854 29:-0.3836 30:-0.104656 31:-0.17311 32:-0.295143 33:-0.224196 34:-0.707334 35:-0.268514 36:-0.447528 37:-0.655799 38:-0.348944 39:-0.00569771 40:0.105145 41:-0.318776 42:0.0852514 43:-0.683921 44:-0.403056 45:-0.226164 46:-0.467963 47:-0.00197602 48:-0.162561 49:-0.251369 50:-0.227293 51:-0.0870463 52:-0.047646 53:-0.118788 54:-0.680018 55:-0.0396719 56:-0.387086 57:-0.060169 58:0.0487847 59:-0.632789 60:-0.494848 61:0.100745 62:-0.211536 63:-0.169964 64:-0.0202035 65:-0.302299 66:-0.208605 67:-0.111763 68:-0.618845 69:0.0390602 70:-0.338668 71:-0.277378 72:-0.377487 73:0.0848877 74:0.761819 75:0.0723659 76:0.0987376 77:-0.652598 78:-0.16205 79:-0.255385 80:-0.0534278 81:-0.156474 82:-0.0582361 83:-0.247951 84:0.0566824 85:-0.408508 86:-0.52992 87:-0.420157 88:-0.762629 89:-0.598304 90:0.143938 91:-0.540723 92:-0.604497 93:-0.814016 94:-0.562633 95:-0.191893 96:-0.608215 97:0.279469 98:-0.547178 99:0.0203361 100:-0.533971 101:-0.712939 102:-0.720193 103:-0.281952 104:-0.536944 105:0.22575 106:-0.0943967 107:0.296692 108:-0.491861 109:0.118939 110:-0.441962 111:-0.0010028 112:-0.388108 113:-0.0474049 114:-0.167224 115:-0.116014 116:0.196517 117:-0.447888 118:-0.577465 119:-0.214419 120:-0.215577 121:-0.0209141 122:0.32207 123:-0.134641 124:-0.469147 125:0.0151997 126:-0.332796 127:-0.258802 128:-0.942204 
0.4104500162710119 1:-0.0965453 2:-0.316048 3:-0.0996053 4:-0.7282 5:-0.244219 6:-0.238545 7:-0.149051 8:-0.215402 9:-0.877075 10:-0.486748 11:-0.178358 12:-0.480865 13:-0.0394125 14:-0.305808 15:-0.421059 16:-0.0181365 17:-0.219503 18:-0.382539 19:-0.148234 20:-0.390075 21:-0.314104 22:0.0354983 23:0.154516 24:0.144601 25:-0.549842 26:-0.214105 27:-0.687904 28:-0.664683 29:-0.518964 30:0.309009 31:-0.552448 32:-0.209622 33:-0.0619459 34:-0.260368 35:-0.0741191 36:-0.286092 37:-0.333824 38:-0.308397 39:0.157728 40:0.12389 41:-0.607164 42:-0.390382 43:-0.597795 44:-0.0424683 45:-0.114073 46:0.159859 47:0.248536 48:0.374816 49:-0.111408 50:-0.373364 51:0.24105 52:-0.145486 53:-0.0274084 54:-0.546042 55:-0.0590666 56:0.529393 57:-0.206387 58:0.00443497 59:-0.387582 60:-0.196188 61:-0.444005 62:-0.067279 63:-0.269528 64:-0.0338474 65:-0.595129 66:-0.143201 67:-0.442801 68:-0.582664 69:-0.304598 70:-0.118969 71:0.0725613 72:0.114084 73:-0.676244 74:-0.205285 75:-0.21094 76:-0.0408546 77:-0.786916 78:-0.0461837 79:-0.178773 80:-0.268548 81:-0.444062 82:-0.309506 83:0.144807 84:0.0988084 85:-0.0660325 86:-0.190629 87:0.159985 88:-0.363074 89:-0.615922 90:-0.0879277 91:-0.515676 92:-0.086836 93:-0.835347 94:-0.128916 95:-0.542051 96:-0.485518 97:-0.314993 98:-0.265492 99:-0.0514426 100:-0.507773 101:-0.617021 102:-0.637179 103:0.0575314 104:-0.237246 105:-0.686194 106:-0.120026 107:-0.369572 108:-0.339598 109:0.399539 110:-0.0503454 111:-0.102221 112:-0.0230103 113:-0.589516 114:-0.355325 115:-0.0290799 116:0.379614 117:-0.525382 118:-0.451426 119:0.105885 120:0.162344 121:-0.360913 122:-0.17919 123:-0.174482 124:-0.198102 125:-0.296336 126:0.150627 127:-0.612244 128:-0.891427 
0.3589113792340735 1:-0.252415 2:-0.532509 3:0.176293 4:-0.599574 5:-0.407288 6:-0.237929 7:0.0356918 8:-0.555918 9:-0.321406 10:-0.504722 11:0.317788 12:-0.392122 13:0.641531 14:-0.33572 15:0.517597 16:-0.258779 17:-0.0690926 18:-0.483257 19:-0.00858589 20:-0.0693003 21:-0.446867 22:-0.26414 23:-0.158086 24:-0.476337 25:-0.445961 26:0.0212908 27:-0.601912 28:-0.617765 29:0.284854 30:0.0147763 31:0.0844414 32:0.012252 33:-0.205223 34:-0.56097 35:-0.0369882 36:-0.668244 37:-0.242851 38:-0.620422 39:0.388673 40:-0.97374 41:-0.272652 42:-0.526852 43:-0.446349 44:-0.441589 45:-0.0358709 46:-0.0643967 47:0.271027 48:-0.330184 49:-0.193144 50:-0.493665 51:-0.261324 52:-0.466001 53:0.422576 54:-0.662636 55:-0.073976 56:-0.611771 57:0.0951087 58:0.0508533 59:-0.392665 60:-0.249141 61:0.304787 62:-0.125187 63:0.339451 64:0.0606688 65:-0.332429 66:-0.289648 67:-0.203543 68:-0.556942 69:-0.43395 70:0.26142 71:-0.115549 72:-0.379099 73:-0.273346 74:-0.21825 75:-0.0296038 76:0.117667 77:-0.613787 78:-0.199239 79:0.188636 80:-0.218494 81:-0.14042 82:-0.2158 83:0.126554 84:0.134444 85:-0.129331 86:-0.398056 87:-0.251971 88:-0.671239 89:-0.662555 90:0.103447 91:-0.421327 92:-0.0622787 93:-0.577566 94:0.0047296 95:-0.153619 96:-0.354796 97:-0.220642 98:-0.569867 99:-0.196908 100:-0.596454 101:-0.737178 102:-0.675749 103:-0.0299551 104:-0.728722 105:-0.379043 106:-0.303813 107:-0.0408216 108:-0.639479 109:0.269598 110:-0.282192 111:0.182509 112:-0.0188891 113:-0.503771 114:-0.245546 115:-0.278715 116:-0.0564287 117:-0.489008 118:-0.708234 119:0.0691515 120:-0.632232 121:-0.0474632 122:-0.147614 123:-0.0733527 124:-0.390888 125:-0.029586 126:0.274621 127:0.171868 128:-0.883635 
0.828710022036336 1:-1 2:-0.202028 3:-0.444129 4:-0.321645 5:-0.797601 6:-0.174473 7:-0.60164 8:0.128978 9:-0.665329 10:-0.511183 11:0.545384 12:-0.330831 13:0.145642 14:-0.522074 15:-0.168423 16:0.199125 17:-0.537677 18:-0.551452 19:-0.453551 20:-0.138536 21:-0.446662 22:0.0926401 23:0.569584 24:0.11421 25:-0.255059 26:-0.535873 27:-0.573392 28:-0.750253 29:0.776033 30:0.233332 31:0.505032 32:0.639245 33:-0.689946 34:-0.0779865 35:-0.695697 36:-0.320857 37:-0.756929 38:-0.501915 39:-0.466155 40:-0.536 41:-0.829125 42:-0.927607 43:-0.776621 44:-0.932214 45:-0.66746 46:-0.759852 47:-0.535646 48:-0.643013 49:-0.496827 50:-0.321357 51:-0.387392 52:-0.369264 53:0.0991629 54:0.0292283 55:0.872294 56:0.113004 57:-0.638986 58:-0.84755 59:-0.630404 60:-0.953638 61:0.465644 62:-0.170515 63:0.205543 64:-0.327697 65:-0.69792 66:-0.108359 67:-0.528709 68:-0.192868 69:-0.620475 70:-0.551185 71:-0.748861 72:-0.157086 73:-0.342049 74:-0.0418609 75:0.615486 76:0.217458 77:-0.793466 78:-0.408327 79:0.312387 80:0.136777 81:-0.89744 82:-0.77442 83:-0.537987 84:-0.545332 85:-0.580668 86:-0.363599 87:-0.405902 88:-0.580548 89:-0.739341 90:-0.810126 91:-0.327993 92:-0.8565 93:-0.682714 94:-0.409986 95:-0.159396 96:-0.665509 97:-0.290248 98:0.280242 99:-0.206307 100:-0.0339102 101:-0.816717 102:-0.602787 103:-0.334193 104:-0.307988 105:-0.454193 106:-0.0856067 107:0.0667212 108:-0.554332 109:0.110112 110:-0.280646 111:0.203439 112:-0.317772 113:-0.477238 114:-0.361726 115:-0.311176 116:0.0858336 117:-0.375652 118:-0.235388 119:0.387052 120:-0.0581603 121:-0.225417 122:-0.593542 123:-0.0460538 124:-1 125:0.64108 126:-0.0636074 127:0.272085 128:-0.942894 
0.00340624030148773 1:-0.0412538 2:0.000137043 3:-0.538599 4:-0.0365165 5:-0.52267 6:-0.359001 7:-0.103048 8:0.0395446 9:-0.622188 10:-0.357886 11:0.406694 12:-0.172116 13:-0.0606583 14:-0.407996 15:0.0215137 16:0.478532 17:0.0141757 18:0.498336 19:-0.104907 20:-0.105511 21:-0.418104 22:0.0790848 23:-0.15495 24:0.189999 25:-0.423283 26:0.0268449 27:-0.612282 28:-0.62535 29:-0.11658 30:0.184261 31:-0.447161 32:0.0977732 33:-0.387036 34:-0.29527 35:-0.344812 36:-0.314991 37:-0.557455 38:-0.421453 39:0.0289321 40:-0.208358 41:-0.53838 42:-0.739972 43:-0.67805 44:-0.34957 45:-0.275399 46:-0.413886 47:0.149783 48:-0.298217 49:-0.102215 50:-0.0879321 51:-0.0198113 52:-0.270813 53:0.263865 54:-0.546424 55:-0.442475 56:-0.0871317 57:-0.332076 58:-0.383649 59:-0.538064 60:-0.781316 61:-0.252576 62:-0.33417 63:-0.304739 64:-0.237496 65:-0.531059 66:0.0843151 67:-0.558039 68:-0.0613135 69:-0.799736 70:0.00749905 71:-0.152958 72:-0.217831 73:-0.491391 74:-0.0254223 75:-0.0309984 76:0.43761 77:-0.838012 78:-0.305747 79:-0.0518288 80:-0.338079 81:-0.618685 82:-0.251021 83:-0.216557 84:-0.349592 85:-0.277954 86:-0.521159 87:-0.200455 88:-0.591562 89:-0.853668 90:-0.101052 91:-0.674283 92:-0.412978 93:-0.897087 94:-0.437776 95:-0.624856 96:-0.587491 97:-0.378629 98:-0.012515 99:0.0291385 100:0.0180193 101:-0.50437 102:-0.357573 103:0.0332927 104:-0.272641 105:-0.424401 106:-0.0808013 107:0.11826 108:-0.233096 109:0.173254 110:-0.333989 111:0.617338 112:-0.0785099 113:-0.205583 114:-0.0371592 115:-0.171661 116:-0.153191 117:0.142189 118:-0.231554 119:-0.114002 120:-0.177024 121:-0.329801 122:-0.167435 123:-0.341073 124:-0.727267 125:-0.0689214 126:-0.275033 127:-0.357486 128:-0.923254 
0.8369306308978608 1:-0.147513 2:-0.0673976 3:-0.386029 4:-0.656411 5:-0.512028 6:-0.0685667 7:-0.502426 8:-0.148409 9:-0.472876 10:-0.0290422 11:-0.640168 12:-0.74563 13:-0.175262 14:0.0105317 15:-0.597993 16:-0.462655 17:-0.662868 18:-0.839409 19:-0.537249 20:-0.556749 21:-0.696298 22:-0.224897 23:-0.283524 24:-0.127534 25:-0.52928 26:-0.54281 27:-0.828228 28:-0.86436 29:-0.226331 30:-0.400541 31:0.534093 32:-0.107959 33:-0.154702 34:-0.169053 35:-0.417857 36:-0.193911 37:-0.660432 38:-0.551649 39:-0.944558 40:-0.101622 41:-0.723907 42:-0.0182771 43:-0.820784 44:-0.591463 45:-0.793614 46:-0.427657 47:-0.849726 48:-0.526422 49:-0.308566 50:-0.0850646 51:-0.238876 52:0.0056615 53:-0.343067 54:-0.490879 55:-0.0809739 56:0.02849 57:-0.462156 58:-0.0703797 59:-0.717479 60:-0.507138 61:-0.52065 62:-0.516567 63:0.250395 64:-0.483203 65:-0.0868084 66:0.364043 67:-0.517318 68:-0.776964 69:-0.176408 70:0.026539 71:-0.818963 72:-0.358078 73:0.427686 74:0.45796 75:0.0449989 76:-0.483867 77:-0.616428 78:-0.530107 79:-0.310723 80:-0.992412 81:-0.468153 82:-0.715957 83:-0.449338 84:-0.691118 85:-0.671771 86:-0.59285 87:-0.469041 88:-0.679862 89:-0.498853 90:-0.681308 91:-0.421359 92:-0.714236 93:-0.529448 94:-0.792863 95:0.284078 96:-0.664699 97:0.438117 98:0.243321 99:-0.116614 100:-0.284153 101:-0.963008 102:-0.703808 103:-0.848508 104:-0.597261 105:0.06411 106:0.572116 107:-0.117106 108:-0.571008 109:-0.65751 110:-0.620864 111:-0.764194 112:-0.68074 113:-0.31967 114:0.127402 115:-0.115129 116:0.00543405 117:-0.997274 118:-0.576779 119:-0.433423 120:-0.192045 121:0.179217 122:-0.262656 123:-0.152172 124:-0.553926 125:-0.96301 126:-0.849822 127:0.419473 128:-0.949836 
0.8298059178771563 1:-0.00353367 2:-0.294669 3:0.443747 4:-0.552125 5:-0.323083 6:-0.178871 7:0.0756296 8:-0.0613831 9:-0.481204 10:0.0758041 11:-0.146464 12:-0.470505 13:-0.110109 14:-0.394154 15:-0.510339 16:-0.207498 17:-0.262144 18:-0.290985 19:0.0339455 20:-0.463983 21:-0.498926 22:-0.0123383 23:-0.187248 24:-0.193653 25:-0.691396 26:-0.0231421 27:-0.742377 28:-0.688307 29:-0.60565 30:0.0875084 31:-0.477146 32:-0.301536 33:0.197823 34:-0.354473 35:0.0813749 36:-0.363575 37:-0.460876 38:-0.54572 39:0.360969 40:-0.485258 41:-0.233291 42:-0.00899548 43:-0.586732 44:-0.429595 45:-0.00946917 46:0.194377 47:0.130477 48:0.000524881 49:0.411135 50:-0.318671 51:0.206839 52:-0.249538 53:-0.432543 54:-0.487553 55:0.0661268 56:-0.2313 57:-0.480446 58:0.423516 59:-0.444628 60:-0.497052 61:-0.431637 62:-0.0306514 63:-0.244502 64:0.0594638 65:-0.0297599 66:-0.189206 67:-0.337398 68:-0.612445 69:-0.271188 70:0.114312 71:-0.0216088 72:-0.0957252 73:-0.368578 74:0.462489 75:-0.281757 76:0.160313 77:-0.663217 78:-0.152908 79:-0.31237 80:-0.268844 81:-0.0726978 82:-0.226197 83:0.0228089 84:0.0389602 85:0.00973485 86:-0.326834 87:0.0320456 88:-0.469187 89:-0.852799 90:0.476553 91:-0.612198 92:-0.201025 93:-0.720702 94:-0.121952 95:-0.500648 96:-0.477623 97:0.330862 98:-0.3206 99:-0.0312138 100:-0.322554 101:-0.622654 102:-0.699192 103:-0.22751 104:-0.559448 105:-0.533428 106:0.346862 107:0.056674 108:-0.142356 109:0.219335 110:-0.0385435 111:-0.430562 112:-0.10816 113:0.0635649 114:-0.346105 115:-0.0294612 116:0.102661 117:-0.611771 118:-0.715745 119:-0.184085 120:-0.196952 121:-0.358514 122:0.0856911 123:0.219475 124:-0.187177 125:-0.583324 126:0.167897 127:-0.438631 128:-0.922055 
1.576275626808138 1:0.120574 2:0.00145265 3:0.00377711 4:-0.436102 5:-0.25217 6:-0.460175 7:0.0586209 8:-0.305055 9:-0.520569 10:-0.333782 11:0.288591 12:-0.62783 13:0.674908 14:-0.484716 15:0.0475779 16:-0.211409 17:-0.0873242 18:-0.263815 19:-0.248354 20:-0.320409 21:-0.519157 22:-0.0179738 23:-0.162307 24:-0.23566 25:-0.489982 26:-0.266733 27:-0.713519 28:-0.624273 29:-0.271986 30:-0.0451193 31:-0.401168 32:-0.177071 33:-0.0878854 34:-0.428554 35:-0.229126 36:-0.670724 37:-0.437345 38:-0.529538 39:-0.0864551 40:-0.618553 41:-0.159024 42:-0.29356 43:-0.544468 44:-0.3001 45:-0.186888 46:0.0501942 47:0.00552089 48:0.0298844 49:-0.080306 50:-0.212669 51:-0.381718 52:-0.22059 53:-0.250987 54:-0.530275 55:-0.0769247 56:-0.163463 57:0.0897153 58:0.478209 59:-0.522645 60:-0.288434 61:0.142288 62:0.0770065 63:0.0497497 64:-0.0760425 65:-0.182532 66:0.247858 67:-0.22369 68:-0.4613 69:-0.582509 70:0.0333713 71:-0.173029 72:-0.321504 73:-0.139525 74:0.280759 75:0.10417 76:0.028709 77:-0.72801 78:-0.292181 79:0.0843466 80:-0.385167 81:-0.272434 82:-0.112801 83:-0.102648 84:0.0169745 85:-0.475296 86:-0.49957 87:-0.363827 88:-0.689996 89:-0.695382 90:0.135093 91:-0.540865 92:-0.205359 93:-0.817376 94:-0.257359 95:-0.376199 96:-0.663563 97:-0.161995 98:-0.274312 99:0.0169726 100:-0.527631 101:-0.711264 102:-0.669517 103:-0.209899 104:-0.603807 105:-0.256211 106:0.143853 107:-0.117274 108:-0.519266 109:0.13004 110:-0.317785 111:-0.306279 112:-0.314933 113:-0.235323 114:0.0327007 115:-0.174331 116:0.250101 117:-0.611107 118:-0.617958 119:0.0102011 120:-0.361739 121:-0.0457572 122:0.30429 123:0.114429 124:-0.248496 125:0.0639147 126:-0.00839108 127:-0.239389 128:-0.91041 
1.540648279687218 1:-0.523939 2:-0.134274 3:-0.0732504 4:-0.563691 5:-0.329091 6:-0.0446409 7:-0.14546 8:-0.297939 9:-0.910748 10:-0.452413 11:-0.191912 12:-0.511618 13:-0.19189 14:-0.141856 15:-0.0635908 16:0.163953 17:-0.0734654 18:-0.191711 19:-0.261636 20:-0.106136 21:-0.274287 22:0.410309 23:0.168863 24:0.106612 25:-0.461858 26:-0.217882 27:-0.593935 28:-0.60664 29:-0.358197 30:0.0448558 31:-0.0349445 32:0.478802 33:-0.267947 34:-0.766586 35:-0.131785 36:-0.423656 37:-0.354617 38:-0.39891 39:0.450358 40:-0.232759 41:-0.553376 42:-0.67872 43:-0.574174 44:-0.191555 45:-0.156288 46:-0.10855 47:0.248177 48:0.0988977 49:-0.222485 50:-0.497594 51:-0.253662 52:-0.363647 53:0.162211 54:-0.436279 55:0.358148 56:-0.119738 57:-0.269402 58:-0.0615098 59:-0.529735 60:-0.0190211 61:-0.216563 62:-0.114918 63:0.0236398 64:0.106887 65:-0.691823 66:-0.268545 67:-0.471278 68:-0.325501 69:-0.164973 70:-0.163266 71:0.21731 72:-0.111713 73:-0.578651 74:-0.227404 75:-0.300575 76:0.236579 77:-0.699333 78:-0.167328 79:0.163188 80:-0.014942 81:-0.560477 82:-0.0425101 83:0.132117 84:0.0396284 85:-0.281155 86:-0.293062 87:0.164631 88:-0.423465 89:-0.614718 90:-0.174881 91:-0.50186 92:-0.316799 93:-0.81947 94:-0.354552 95:-0.323242 96:-0.45297 97:-0.612575 98:-0.727535 99:-0.0575494 100:-0.358202 101:-0.689781 102:-0.591651 103:0.0769413 104:-0.176814 105:-0.539838 106:-0.524943 107:-0.364883 108:-0.339802 109:0.218116 110:-0.0558951 111:0.0669952 112:-0.0544922 113:-0.611695 114:-0.267024 115:-0.192407 116:-0.352432 117:-0.21585 118:-0.351544 119:0.833987 120:0.0675132 121:-0.41786 122:-0.378755 123:-0.104964 124:-0.31812 125:-0.297477 126:0.141225 127:-0.400911 128:-0.880039 
0.00186916063621025 1:0.399526 2:-0.427107 3:-0.293596 4:-0.772365 5:-0.437089 6:-0.651669 7:-0.127966 8:-0.456994 9:-0.579228 10:-0.352568 11:-0.208775 12:-0.540568 13:-0.0691258 14:-0.424692 15:0.0979782 16:-0.0455441 17:-0.158215 18:-0.32431 19:-0.262251 20:-0.378493 21:-0.631118 22:-0.279699 23:-0.0688499 24:-0.218142 25:-0.580303 26:-0.102998 27:-0.741424 28:-0.68026 29:-0.408159 30:-0.0665773 31:0.275927 32:0.288263 33:0.113648 34:-0.376294 35:-0.269576 36:-0.533594 37:-0.521541 38:-0.67292 39:0.18393 40:-0.575026 41:-0.301092 42:-0.158413 43:-0.58413 44:-0.387154 45:-0.187587 46:0.0504818 47:0.365732 48:0.154569 49:0.0232925 50:-0.445902 51:-0.213977 52:-0.391001 53:-0.529662 54:-0.644734 55:0.172424 56:-0.0762004 57:-0.152325 58:0.279779 59:-0.587433 60:-0.345399 61:-0.0185078 62:-0.181041 63:0.285064 64:0.336676 65:-0.181724 66:-0.181725 67:-0.478103 68:-0.74405 69:-0.455926 70:-0.3701 71:-0.058558 72:-0.393076 73:-0.119155 74:0.150571 75:-0.346416 76:-0.302532 77:-0.717445 78:-0.408156 79:0.0525773 80:-0.105484 81:-0.247036 82:-0.180015 83:-0.189613 84:-0.176124 85:-0.163825 86:-0.535572 87:-0.0181452 88:-0.594235 89:-0.66075 90:0.266753 91:-0.451354 92:-0.283038 93:-0.660555 94:-0.349938 95:0.0776662 96:-0.400695 97:-0.00595083 98:-0.28526 99:-0.289465 100:-0.612434 101:-0.704485 102:-0.769935 103:-0.3136 104:-0.586682 105:-0.36052 106:0.113058 107:-0.414877 108:-0.476472 109:0.124704 110:-0.320806 111:-0.0966524 112:-0.31942 113:-0.270437 114:-0.382369 115:-0.252585 116:-0.354361 117:-0.748385 118:-0.667859 119:0.14669 120:-0.316086 121:0.0658769 122:0.386034 123:0.152289 124:-0.341289 125:-0.103398 126:-0.114703 127:0.0123036 128:-0.897413 
0.3453106248067542 1:0.355016 2:-0.0929423 3:0.219836 4:-0.485025 5:-0.115767 6:-0.481427 7:-0.298321 8:-0.592337 9:-0.517933 10:-0.0634409 11:0.0810047 12:-0.259523 13:-0.0405826 14:-0.152907 15:-0.478241 16:-0.066346 17:0.212201 18:-0.224094 19:-0.054165 20:-0.380301 21:-0.551864 22:-0.162251 23:-0.473591 24:-0.511312 25:-0.456753 26:0.0991471 27:-0.704463 28:-0.647677 29:-0.45921 30:-0.0121899 31:-0.260848 32:-0.326308 33:0.230513 34:-0.347282 35:-0.0991238 36:-0.402041 37:-0.418465 38:-0.538293 39:-0.114773 40:-0.472734 41:-0.170513 42:-0.0267361 43:-0.452408 44:0.0484383 45:-0.167133 46:0.227779 47:-0.229925 48:-0.0608693 49:0.216722 50:-0.338208 51:0.308655 52:-0.264407 53:-0.367284 54:-0.634386 55:-0.390147 56:-0.262032 57:-0.16567 58:0.267556 59:-0.424257 60:-0.41098 61:-0.293633 62:0.110496 63:-0.347002 64:-0.230674 65:-0.232883 66:-0.130177 67:-0.110434 68:-0.399229 69:-0.56098 70:-0.0537654 71:-0.300151 72:-0.575492 73:-0.220459 74:0.362065 75:-0.0840299 76:0.339953 77:-0.728118 78:0.0270925 79:-0.490727 80:-0.0793816 81:-0.050389 82:-0.234537 83:0.326287 84:0.0663867 85:-0.354477 86:-0.494798 87:-0.406573 88:-0.69159 89:-0.537263 90:0.449442 91:-0.513344 92:-0.147577 93:-0.825996 94:-0.274663 95:-0.474731 96:-0.636322 97:0.473522 98:-0.0483417 99:0.183097 100:-0.323969 101:-0.58844 102:-0.596986 103:-0.304581 104:-0.523312 105:-0.220362 106:0.278385 107:-0.202917 108:-0.451863 109:0.162846 110:-0.138555 111:-0.427361 112:-0.366654 113:0.221492 114:-0.277438 115:0.0439115 116:0.0411401 117:-0.653472 118:-0.534007 119:-0.270868 120:-0.358014 121:-0.151634 122:0.282182 123:-0.0944038 124:-0.357764 125:-0.375028 126:0.0666042 127:-0.554259 128:-0.943825 
0.02629638366918964 1:0.0741516 2:-0.0200356 3:0.0486356 4:-0.583758 5:-0.290206 6:-0.0902054 7:-0.574174 8:-0.564117 9:-0.577311 10:-0.293138 11:-0.151153 12:-0.538853 13:-0.161899 14:-0.594275 15:-0.359945 16:-0.161316 17:-0.175752 18:-0.0620188 19:-0.164315 20:-0.223854 21:-0.457071 22:-0.211998 23:-0.396583 24:-0.373486 25:-0.676822 26:0.011244 27:-0.675133 28:-0.515024 29:-0.307216 30:0.0454785 31:-0.437433 32:-0.133557 33:0.418073 34:-0.0728411 35:-0.17894 36:0.270711 37:-0.195081 38:-0.130412 39:0.0807915 40:-0.372381 41:-0.510486 42:0.0487687 43:-0.586996 44:-0.164202 45:-0.221266 46:-0.243959 47:0.124226 48:-0.225817 49:-0.0221719 50:-0.0378463 51:0.0412106 52:0.03236 53:-0.105378 54:-0.671965 55:-0.254779 56:-0.41076 57:-0.790405 58:0.114604 59:-0.465899 60:-0.18088 61:-0.111442 62:-0.192509 63:-0.260644 64:-0.229546 65:-0.25151 66:0.0679218 67:-0.340108 68:-0.235282 69:-0.0915425 70:0.52441 71:-0.148731 72:-0.118412 73:-0.570722 74:0.176729 75:-0.506869 76:0.196121 77:-0.653029 78:-0.43549 79:-0.342443 80:0.101282 81:-0.326264 82:0.0139823 83:-0.208348 84:0.427576 85:-0.0727002 86:-0.313008 87:-0.123005 88:-0.632763 89:-0.9207 90:0.166451 91:-0.610422 92:-0.107386 93:-0.709013 94:-0.0652181 95:-0.320594 96:-0.432684 97:0.294236 98:0.0064628 99:-0.0186901 100:-0.172058 101:-0.613417 102:-0.462097 103:-0.152356 104:-0.420523 105:-0.6888 106:0.358876 107:-0.411919 108:-0.136543 109:0.0348155 110:0.0841119 111:-0.0253046 112:-0.21561 113:-0.257305 114:-0.15399 115:-0.21448 116:0.312794 117:-0.648104 118:-0.553772 119:-0.279426 120:-0.354449 121:-0.452502 122:-0.108636 123:-0.263769 124:-0.204661 125:-0.45034 126:0.161828 127:-0.380391 128:-0.916561 
1.128713022323921 1:0.0536147 2:0.318624 3:-0.113398 4:-0.582352 5:-0.545309 6:-0.0354928 7:-0.210923 8:-0.141184 9:-0.450347 10:-0.0785459 11:-0.772853 12:-0.775391 13:-0.684638 14:-0.820592 15:-0.436812 16:-0.76211 17:-0.260524 18:-0.573709 19:-0.46647 20:-0.119935 21:-0.775053 22:-0.282788 23:-0.852891 24:-0.151897 25:-0.738758 26:-0.379149 27:-0.885181 28:-0.827908 29:-0.698929 30:-0.335928 31:-0.222428 32:-0.610633 33:0.183633 34:1 35:-0.289447 36:0.105089 37:-0.339545 38:-0.148771 39:-0.0829751 40:0.348513 41:-0.253072 42:0.152315 43:-0.760857 44:-0.0801878 45:-0.687308 46:-0.598519 47:-0.557155 48:-0.154704 49:-0.289378 50:-0.0333539 51:-0.513089 52:0.00290524 53:-0.394916 54:-0.497317 55:-0.437263 56:0.390722 57:-0.541244 58:-0.0699723 59:-0.841412 60:-0.531599 61:-0.715271 62:-0.227054 63:-0.092284 64:0.0600274 65:-0.239523 66:0.423761 67:-0.470375 68:-0.682686 69:-0.124327 70:0.094882 71:-0.449788 72:-0.0729844 73:-0.0197063 74:0.0561102 75:-0.59185 76:-0.432714 77:-0.732322 78:-0.693749 79:-0.44121 80:-0.623942 81:-0.42871 82:-0.361645 83:-0.38688 84:-0.381473 85:-0.482986 86:-0.459129 87:-0.518971 88:-0.602679 89:-0.799647 90:-0.139212 91:-0.782195 92:-0.656244 93:-0.75606 94:-0.419445 95:-0.240316 96:-0.618307 97:0.0238835 98:0.703168 99:-0.150917 100:-0.343916 101:-0.78732 102:-0.592262 103:-0.4271 104:-0.363645 105:-0.0828095 106:0.0878693 107:-0.390094 108:-0.311193 109:-0.541469 110:-0.431706 111:-0.530031 112:-0.415239 113:-0.382428 114:0.0110051 115:-0.601067 116:-0.2015 117:-0.842578 118:-0.617523 119:-0.240216 120:0.272396 121:-0.0322161 122:-0.0486308 123:-0.311 124:-0.525634 125:-0.674289 126:-0.570519 127:-0.267317 128:-0.902785 
1.201205462855379 1:0.26824 2:0.51158 3:-0.185757 4:-0.367193 5:-0.121351 6:-0.137881 7:-0.194012 8:-0.113598 9:-0.431293 10:-0.35338 11:-0.0534143 12:-0.616388 13:0.294362 14:-0.340425 15:0.0223777 16:-0.163374 17:-0.165109 18:-0.238571 19:-0.566725 20:-0.451819 21:-0.649209 22:-0.363558 23:-0.138167 24:-0.375998 25:-0.637033 26:-0.404204 27:-0.820204 28:-0.793214 29:-0.475806 30:-0.218364 31:-0.476962 32:-0.373857 33:-0.192234 34:0.140289 35:-0.257472 36:-0.0874373 37:-0.489551 38:-0.305386 39:-0.109587 40:-0.434839 41:-0.315495 42:-0.340755 43:-0.680878 44:-0.239424 45:-0.343409 46:-0.191464 47:0.0868133 48:-0.244205 49:-0.199341 50:0.045407 51:-0.012303 52:0.0972884 53:-0.67989 54:-0.535598 55:0.0412501 56:-0.232487 57:-0.329944 58:0.194904 59:-0.389159 60:-0.120342 61:-0.318037 62:-0.141847 63:-0.0358389 64:0.00273073 65:-0.0635964 66:0.257356 67:-0.610151 68:-0.512776 69:-0.30844 70:0.185137 71:-0.230825 72:-0.263004 73:-0.18537 74:0.278928 75:-0.165352 76:0.00214736 77:-0.521233 78:-0.312188 79:-0.0438283 80:-0.436852 81:-0.319004 82:-0.168015 83:-0.148957 84:-0.324679 85:-0.406508 86:-0.477511 87:-0.19247 88:-0.651118 89:-0.727708 90:-0.232968 91:-0.553365 92:-0.515587 93:-0.808463 94:-0.486582 95:-0.481311 96:-0.550968 97:-0.0189745 98:0.0041514 99:-0.381257 100:-0.129891 101:-0.757316 102:-0.689851 103:-0.340016 104:-0.576991 105:-0.226207 106:0.0593571 107:-0.506252 108:-0.686815 109:-0.0963109 110:-0.393748 111:-0.433122 112:-0.467992 113:-0.140011 114:0.112866 115:-0.0574527 116:0.327911 117:-0.655215 118:-0.497058 119:-0.172217 120:-0.478831 121:-0.15142 122:0.00210262 123:-0.0751011 124:-0.412795 125:-0.594098 126:-0.169395 127:-0.182341 128:-0.88209 
0.2457134464177054 1:-0.483087 2:-0.0988625 3:0.081229 4:-0.549706 5:-0.401339 6:-0.525619 7:0.065997 8:-0.157385 9:-0.858021 10:-0.503389 11:0.32646 12:0.00683121 13:-0.0583182 14:-0.334681 15:-0.27196 16:-0.0223375 17:0.112159 18:0.0137352 19:-0.00808552 20:-0.153477 21:-0.447322 22:0.0437925 23:-0.431634 24:-0.203574 25:-0.365119 26:0.437603 27:-0.687975 28:-0.523104 29:-0.362381 30:0.143141 31:-0.298406 32:-0.345537 33:-0.284518 34:0.041163 35:-0.129284 36:-0.507674 37:-0.34629 38:-0.592474 39:0.274719 40:-0.378199 41:-0.524273 42:-0.925747 43:-0.483145 44:-0.30086 45:0.0631356 46:-0.0125126 47:0.140298 48:0.26432 49:0.0835077 50:-0.541792 51:-0.0409639 52:-0.444979 53:0.108206 54:-0.573942 55:-0.525889 56:-0.102186 57:-0.355504 58:-0.483475 59:-0.287578 60:-0.0924253 61:-0.0719344 62:-0.0162742 63:-0.281446 64:-0.12951 65:-0.635571 66:-0.0763916 67:-0.370165 68:-0.491216 69:-0.198115 70:-0.391828 71:0.0596506 72:-0.101266 73:-0.402697 74:-0.226668 75:-0.320552 76:0.263469 77:-0.694481 78:-0.0155136 79:-0.215732 80:0.279226 81:-0.427743 82:-0.050633 83:0.201642 84:0.306766 85:-0.13291 86:-0.228371 87:-0.350412 88:-0.456453 89:-0.794532 90:0.0477878 91:-0.606964 92:0.057479 93:-0.827652 94:-0.128727 95:-0.524438 96:-0.542803 97:-0.480234 98:-0.0465169 99:-0.00743073 100:-0.489386 101:-0.469264 102:-0.667413 103:0.310215 104:-0.322138 105:-0.588294 106:-0.370729 107:-0.134038 108:-0.287415 109:0.716337 110:0.099918 111:0.164885 112:0.28352 113:-0.354749 114:-0.34502 115:-0.146995 116:0.0111245 117:-0.140639 118:-0.473063 119:-0.0969348 120:0.064509 121:-0.116981 122:-0.449875 123:0.0903475 124:-0.334245 125:-0.0967435 126:0.13864 127:-0.527694 128:-0.934937 
2 1:0.00134418 2:-0.474359 3:0.0885711 4:-0.518569 5:-0.140045 6:-0.157585 7:0.410686 8:-0.231056 9:-0.680667 10:-0.453911 11:0.238357 12:-0.415603 13:0.277519 14:-0.122595 15:0.11209 16:0.441216 17:-0.192734 18:-0.196242 19:-0.0929209 20:-0.202713 21:-0.486743 22:-0.0296755 23:-0.0780588 24:-0.296002 25:-0.658166 26:-0.0816949 27:-0.781716 28:-0.678524 29:-0.574428 30:0.0189194 31:-0.533607 32:-0.222482 33:-0.299613 34:-0.702734 35:-0.241562 36:-0.62651 37:-0.459128 38:-0.643691 39:0.612692 40:-0.548282 41:-0.456331 42:-0.868931 43:-0.58457 44:-0.235407 45:-0.0609898 46:0.363332 47:0.720363 48:0.628046 49:-0.103427 50:-0.456168 51:0.018655 52:-0.149866 53:-0.162827 54:-0.515666 55:0.359186 56:-0.282958 57:-0.193809 58:-0.128207 59:-0.437747 60:-0.306721 61:-0.00398116 62:0.317397 63:0.110095 64:0.545047 65:-0.421362 66:-0.335654 67:-0.255604 68:-0.616016 69:-0.354445 70:-0.254486 71:0.405478 72:-0.240535 73:-0.390635 74:0.244843 75:-0.0572606 76:0.122974 77:-0.636858 78:-0.117396 79:0.237371 80:0.336349 81:-0.218643 82:0.214067 83:0.203867 84:0.156907 85:-0.207655 86:-0.362973 87:0.0725527 88:-0.543532 89:-0.735062 90:0.407035 91:-0.507015 92:-0.209786 93:-0.720897 94:-0.0958189 95:-0.507588 96:-0.415386 97:-0.240738 98:-0.593041 99:-0.188321 100:-0.602851 101:-0.704904 102:-0.822147 103:0.0452464 104:-0.534263 105:-0.547937 106:-0.227547 107:-0.30352 108:-0.627259 109:0.313735 110:-0.151949 111:0.111502 112:0.00469365 113:-0.124048 114:-0.480281 115:0.0992081 116:0.363202 117:-0.481439 118:-0.563194 119:0.189872 120:-0.163005 121:-0.00118885 122:0.287051 123:0.162383 124:-0.213238 125:0.0413529 126:0.377786 127:-0.0555579 128:-0.878416 
0.9339656637907756 1:-0.303105 2:-0.0273811 3:0.0390018 4:-0.537277 5:-0.723997 6:-0.294542 7:-0.326952 8:-0.0109192 9:-0.677671 10:0.0935747 11:0.185103 12:-0.221405 13:0.0588416 14:-0.361927 15:-0.463049 16:-0.0174412 17:-0.348119 18:-0.396776 19:-0.352886 20:-0.36958 21:-0.648842 22:-0.146318 23:-0.32413 24:-0.0398784 25:-0.45902 26:-0.249849 27:-0.790204 28:-0.774141 29:-0.482803 30:-0.13713 31:-0.183515 32:-0.361435 33:-0.416026 34:0.492344 35:-0.364063 36:-0.366016 37:-0.588159 38:-0.31658 39:-0.0837939 40:-0.0990361 41:-0.490811 42:-0.333494 43:-0.779814 44:-0.481642 45:-0.467138 46:-0.344528 47:-0.0430773 48:-0.304008 49:-0.20714 50:-0.17692 51:-0.328174 52:-0.317953 53:-0.228842 54:-0.50536 55:0.143809 56:0.64464 57:-0.0498726 58:0.0389118 59:-0.527702 60:-0.537179 61:-0.126698 62:-0.110011 63:-0.147537 64:-0.183309 65:-0.240112 66:0.22613 67:-0.336796 68:-0.628548 69:-0.397593 70:-0.711692 71:-0.380289 72:-0.270446 73:-0.333572 74:0.333509 75:0.174662 76:0.095072 77:-0.774033 78:-0.371402 79:-0.187023 80:-0.206283 81:-0.225789 82:-0.42392 83:-0.178367 84:-0.347269 85:-0.49121 86:-0.657443 87:-0.294493 88:-0.724057 89:-0.511924 90:-0.171401 91:-0.551779 92:-0.615284 93:-0.827506 94:-0.460847 95:-0.479786 96:-0.695748 97:-0.105652 98:0.372211 99:-0.204423 100:-0.519786 101:-0.840162 102:-0.767752 103:-0.455103 104:-0.458127 105:-0.45687 106:0.0546718 107:-0.134615 108:-0.508961 109:0.116337 110:-0.372439 111:-0.0620879 112:-0.367479 113:-0.0663239 114:-0.0493087 115:-0.203237 116:-0.0426787 117:-0.570002 118:-0.6144 119:-0.0383521 120:-0.186537 121:0.0863485 122:-0.0707145 123:0.12464 124:-0.623782 125:0.0696397 126:-0.0745833 127:-0.335689 128:-0.918695 
0.1079430281446336 1:0.246456 2:-0.113663 3:-0.0767305 4:-0.449879 5:-0.340563 6:-0.347601 7:-0.171786 8:-0.354752 9:-0.481863 10:-0.246313 11:-0.095105 12:-0.394216 13:-0.207501 14:-0.440574 15:-0.0143425 16:0.433538 17:-0.145027 18:0.00200513 19:-0.31015 20:-0.284456 21:-0.565469 22:-0.0549512 23:-0.247639 24:-0.318607 25:-0.509481 26:-0.15375 27:-0.790653 28:-0.69753 29:-0.591112 30:-0.112391 31:-0.20802 32:-0.2852 33:-0.110282 34:-0.401835 35:-0.174381 36:-0.333863 37:-0.52281 38:-0.472732 39:0.00269533 40:-0.334648 41:-0.321192 42:-0.290323 43:-0.633032 44:-0.309571 45:-0.377227 46:-0.121315 47:0.185303 48:0.13249 49:0.0267229 50:-0.223374 51:-0.312047 52:-0.334431 53:0.176937 54:-0.530795 55:-0.138867 56:-0.296388 57:-0.340134 58:0.155757 59:-0.606957 60:-0.514524 61:-0.413919 62:-0.149406 63:-0.0328054 64:-0.0255483 65:-0.160267 66:0.100188 67:-0.546975 68:-0.116226 69:-0.352927 70:-0.420039 71:0.0134138 72:-0.389238 73:-0.165336 74:0.217345 75:-0.211356 76:0.0935401 77:-0.780022 78:-0.222785 79:0.0236357 80:-0.0931494 81:-0.330926 82:0.0181846 83:-0.112 84:0.00144768 85:-0.50979 86:-0.567369 87:-0.196574 88:-0.605166 89:-0.589646 90:0.0926538 91:-0.494706 92:-0.360811 93:-0.685052 94:-0.366759 95:-0.280435 96:-0.584689 97:-0.0151075 98:-0.17851 99:-0.165062 100:-0.250688 101:-0.752268 102:-0.640352 103:0.0526079 104:-0.519325 105:-0.311711 106:0.0641825 107:-0.377051 108:-0.564721 109:0.107181 110:-0.319073 111:-0.269453 112:-0.272255 113:-0.320297 114:-0.0328201 115:-0.263629 116:0.101049 117:-0.390788 118:-0.468003 119:-0.115669 120:-0.524394 121:0.00659463 122:0.280657 123:-0.220804 124:-0.256957 125:-0.216503 126:-0.134932 127:-0.144365 128:-0.922021 
1.631602162416718 1:0.147347 2:-0.114759 3:0.121207 4:-0.441458 5:-0.247092 6:-0.0824647 7:-0.0958412 8:-0.334939 9:-0.788218 10:-0.151786 11:0.14489 12:-0.464314 13:0.0147797 14:0.0202937 15:0.396924 16:0.126463 17:-0.0603007 18:-0.0789621 19:-0.281856 20:-0.182153 21:-0.453626 22:0.0876786 23:-0.229305 24:-0.114348 25:-0.643873 26:-0.0278323 27:-0.720156 28:-0.745812 29:-0.584115 30:0.0432992 31:-0.319032 32:-0.239498 33:0.00406412 34:-0.416527 35:-0.136542 36:-0.35885 37:-0.435432 38:-0.350256 39:-0.234596 40:-0.578743 41:-0.515259 42:-0.253894 43:-0.642096 44:-0.484275 45:-0.365682 46:-0.215015 47:-0.0761308 48:-0.165304 49:0.142945 50:-0.370181 51:0.029293 52:-0.227026 53:-0.350542 54:-0.541962 55:-0.0501791 56:-0.0705786 57:-0.348575 58:0.107928 59:-0.4525 60:-0.304338 61:-0.408752 62:-0.237295 63:0.0490997 64:-0.261829 65:-0.128451 66:0.366254 67:-0.259493 68:-0.117388 69:-0.680416 70:-0.0158701 71:-0.128805 72:-0.377143 73:-0.464188 74:0.698971 75:0.180131 76:0.619329 77:-0.751269 78:-0.161367 79:0.216081 80:-0.03877 81:-0.28483 82:0.0197225 83:0.0148401 84:0.0570642 85:-0.246261 86:-0.396198 87:-0.277757 88:-0.609634 89:-0.913342 90:0.104405 91:-0.791712 92:-0.393872 93:-0.832328 94:-0.509003 95:-0.517097 96:-0.68426 97:0.191108 98:-0.351318 99:0.302298 100:-0.293179 101:-0.674096 102:-0.663551 103:-0.206846 104:-0.588475 105:-0.351082 106:0.289797 107:-0.267759 108:-0.269789 109:0.41637 110:-0.240112 111:-0.191705 112:-0.391336 113:0.131501 114:-0.00407335 115:0.195569 116:0.175245 117:-0.326646 118:-0.535443 119:0.0247916 120:-0.285975 121:-0.170293 122:0.0818301 123:-0.235211 124:-0.391295 125:0.0671469 126:-0.0628208 127:-0.178254 128:-0.926131 
0.1032379117265437 1:-0.66171 2:-0.172537 3:-0.471969 4:-0.43806 5:-0.844356 6:-0.106215 7:0.138205 8:0.402972 9:0.0052607 10:-0.523064 11:0.642931 12:-0.336173 13:-0.370354 14:-0.747514 15:0.552157 16:0.162446 17:-0.351034 18:-0.531561 19:-0.778359 20:-0.250657 21:-0.627365 22:-0.27792 23:-0.0134797 24:-0.122762 25:-0.218349 26:-0.354488 27:-0.840952 28:-0.778032 29:-0.294277 30:-0.512453 31:0.717636 32:-0.231962 33:-0.634367 34:-0.699231 35:-0.811139 36:-0.607677 37:-0.787484 38:-0.662714 39:-0.379256 40:-0.227103 41:-0.615692 42:-0.814439 43:-0.764063 44:-0.736968 45:-0.611764 46:-0.961599 47:0.0141196 48:-0.694892 49:-0.348061 50:-0.340072 51:-0.845071 52:-0.309148 53:-0.0795095 54:-0.502268 55:0.129751 56:0.0485411 57:-0.526748 58:-0.489336 59:-0.704029 60:-0.857897 61:0.461905 62:-0.455492 63:0.635869 64:-0.0889867 65:-0.567517 66:-0.273762 67:-0.440192 68:-0.379554 69:-0.284767 70:-0.601596 71:-0.558364 72:0.194293 73:0.271976 74:-0.102218 75:0.674349 76:0.0883974 77:-0.773354 78:-0.31551 79:0.418672 80:-0.247587 81:-0.793611 82:-0.587766 83:-0.97877 84:-0.420226 85:-0.527993 86:-0.679932 87:-0.528113 88:-0.613514 89:-0.492535 90:-0.213936 91:-0.750771 92:-0.732409 93:-0.771498 94:-0.633399 95:0.114174 96:-0.458501 97:-0.139454 98:-0.424796 99:-0.809091 100:-0.352073 101:-0.879766 102:-0.72832 103:-0.420425 104:-0.532841 105:-0.234941 106:-0.386146 107:0.0187177 108:-1 109:0.0716733 110:-0.771549 111:0.290619 112:-0.277452 113:-0.162459 114:-0.129257 115:-0.861792 116:-0.0576742 117:-0.449438 118:-0.542137 119:0.125307 120:-0.0532535 121:0.67448 122:-0.243376 123:-0.533354 124:-0.773625 125:0.93261 126:-0.634201 127:0.653114 128:-0.927853 
0.3945848506534432 1:-0.501656 2:-0.597731 3:0.046556 4:-0.680463 5:-0.342707 6:-0.230224 7:-0.429053 8:-0.443858 9:-0.51991 10:-0.322472 11:0.584313 12:-0.325958 13:0.430397 14:0.647065 15:-0.350585 16:-0.120582 17:-0.133805 18:-0.610844 19:-0.0897367 20:-0.317244 21:-0.279608 22:0.0117766 23:0.639318 24:-0.00226675 25:-0.280836 26:-0.103344 27:-0.392525 28:-0.614214 29:0.569471 30:0.951049 31:-0.392117 32:1 33:-0.250883 34:-0.736439 35:-0.199298 36:-0.646681 37:-0.540718 38:-0.725218 39:-0.179222 40:-0.725766 41:-0.372279 42:-0.50693 43:-0.455363 44:-0.427722 45:-0.294314 46:-0.59104 47:-0.363169 48:-0.14634 49:-0.072073 50:-0.635215 51:0.819617 52:-0.584088 53:0.424592 54:-0.723887 55:0.404662 56:-0.240982 57:-0.43504 58:-0.694003 59:0.0571767 60:-0.570059 61:0.0811731 62:-0.325441 63:-0.428236 64:-0.255357 65:-0.495768 66:-0.521432 67:-0.440919 68:-0.694241 69:-0.663533 70:0.193549 71:-0.123312 72:-0.450236 73:-0.37503 74:0.379428 75:0.40412 76:0.530207 77:-0.834913 78:0.738311 79:-0.386271 80:0.130029 81:-0.586975 82:-0.59773 83:-0.0464448 84:-0.275776 85:-0.427911 86:-0.441118 87:-0.0562267 88:-0.577473 89:-0.845913 90:-0.398605 91:-0.475497 92:-0.383434 93:-0.852792 94:-0.366507 95:-0.735624 96:-0.419799 97:0.365666 98:-0.328082 99:0.472883 100:-0.388703 101:-0.646088 102:-0.658668 103:-0.253595 104:-0.541519 105:0.114961 106:0.721485 107:0.633833 108:-0.459812 109:0.673254 110:0.29287 111:-0.133094 112:-0.218839 113:-0.400308 114:-0.58851 115:0.433153 116:-0.0596036 117:-0.194889 118:-0.580548 119:0.737862 120:-0.0469448 121:-0.112716 122:-0.505134 123:0.717453 124:-0.365797 125:-0.224911 126:-0.333471 127:-0.537145 128:-0.922664 
0.5057446337853908 1:-0.938971 2:0.12512 3:-0.691593 4:-0.498065 5:-0.50608 6:-0.077187 7:-0.337604 8:0.222791 9:-0.553044 10:-0.776802 11:-0.480568 12:-0.900988 13:0.0257413 14:-0.0534721 15:0.206843 16:-0.0410245 17:-0.715504 18:-0.728345 19:-0.669529 20:-0.591259 21:-0.618158 22:-0.250697 23:0.49618 24:0.266478 25:-0.443844 26:-0.69129 27:-0.777873 28:-0.862074 29:-0.243559 30:-0.146207 31:0.75347 32:0.463584 33:-0.775893 34:-0.596925 35:-0.517853 36:-0.183845 37:-0.756088 38:-0.434948 39:-0.225077 40:-0.117135 41:-0.672382 42:-0.941646 43:-0.861779 44:-0.793221 45:-0.693861 46:-0.555156 47:-0.317421 48:-0.0272092 49:-0.819309 50:-0.105424 51:-0.522371 52:-0.332345 53:-0.556063 54:-0.532602 55:0.639516 56:0.1641 57:-0.702043 58:-0.445268 59:-0.682446 60:-0.0849598 61:-0.357362 62:-0.575673 63:0.707915 64:0.48845 65:-0.633388 66:0.0500973 67:-0.537591 68:-0.480688 69:-0.0550952 70:-0.58824 71:-0.376982 72:-0.165451 73:-0.158504 74:-0.198452 75:-0.275309 76:-0.565659 77:-0.661707 78:-0.377704 79:0.533441 80:-0.601844 81:-0.618495 82:-0.650497 83:-0.432618 84:-0.737158 85:-0.473318 86:-0.675923 87:0.148212 88:-0.353022 89:-0.244392 90:-0.919497 91:-0.178602 92:-0.757596 93:-0.715637 94:-0.649129 95:0.151846 96:-0.53029 97:-0.585265 98:-0.556546 99:-0.335075 100:-0.6464 101:-0.857765 102:-0.724393 103:-0.420496 104:-0.466682 105:0.135175 106:-0.30109 107:-0.390187 108:-0.845941 109:-0.574736 110:-0.677438 111:-0.420918 112:-0.520125 113:-0.601286 114:-0.0250096 115:-0.333203 116:-0.0998522 117:-0.682319 118:-0.621977 119:0.789603 120:0.306343 121:0.113964 122:-0.450244 123:-0.0724435 124:-0.534657 125:-0.184625 126:-0.945833 127:0.218443 128:-0.901097 
1.425477079782143 1:-0.0742347 2:-0.440702 3:-0.00606884 4:-0.606935 5:-0.177332 6:-0.447157 7:-0.363833 8:-0.202923 9:-0.230153 10:0.0521947 11:-0.573071 12:-0.593286 13:-0.503587 14:-0.582636 15:-0.71747 16:-0.516079 17:0.0788192 18:-0.510006 19:-0.086689 20:-0.107255 21:-0.4006 22:-0.313456 23:-0.0229889 24:-0.583144 25:-0.579721 26:0.0106516 27:-0.711897 28:-0.433434 29:-0.00292704 30:0.181603 31:-0.15433 32:-0.0864936 33:0.509609 34:-0.0290125 35:-0.13163 36:0.0785787 37:-0.105229 38:-0.27892 39:-0.0833504 40:-0.148809 41:-0.23495 42:0.330615 43:-0.626835 44:-0.0617894 45:-0.352575 46:0.0467065 47:-0.537754 48:-0.598754 49:-0.0524282 50:-0.19986 51:-0.309981 52:-0.124002 53:-0.236877 54:-0.71101 55:-0.442309 56:-0.334116 57:-0.421802 58:-0.133065 59:-0.517836 60:-0.235243 61:-0.385261 62:-0.350259 63:-0.0869754 64:-0.408628 65:-0.00897301 66:-0.281764 67:-0.241855 68:-0.531912 69:-0.307904 70:0.810831 71:-0.481964 72:0.231229 73:-0.41303 74:-0.115769 75:-0.300811 76:-0.103579 77:-0.799476 78:-0.0375694 79:-0.63645 80:0.259921 81:-0.214303 82:-0.521569 83:0.187388 84:-0.255317 85:-0.0280488 86:-0.192858 87:-0.149425 88:-0.701784 89:-0.878539 90:-0.331609 91:-0.464219 92:-0.245084 93:-0.749534 94:0.0431956 95:0.0277583 96:-0.355168 97:0.480715 98:0.0920454 99:-0.0846006 100:-0.167634 101:-0.574231 102:-0.439998 103:-0.474939 104:-0.27295 105:-0.639568 106:0.359877 107:-0.572564 108:-0.311109 109:-0.431719 110:0.16141 111:-0.595575 112:-0.0536908 113:-0.471989 114:-0.120687 115:-0.406088 116:-0.120465 117:-0.741135 118:-0.599299 119:-0.608043 120:-0.229296 121:-0.660491 122:-0.25304 123:-0.303377 124:-0.335778 125:-0.828399 126:-0.234239 127:0.0845076 128:-0.941384 
0.7883136137633026 1:0.185732 2:-0.449582 3:0.600475 4:-0.64435 5:-0.234487 6:-0.666165 7:-0.556243 8:-1 9:-0.206066 10:0.0558757 11:0.713304 12:-0.126851 13:0.6092 14:-0.253005 15:-0.234088 16:-0.268774 17:0.501038 18:-0.298805 19:0.254085 20:-0.278062 21:-0.381629 22:-0.278407 23:-0.668313 24:-0.809367 25:-0.111629 26:0.567939 27:-0.562762 28:-0.493137 29:-0.307444 30:0.14453 31:-0.417977 32:-0.593106 33:0.456726 34:-0.630463 35:0.143311 36:-0.633308 37:-0.197587 38:-0.698969 39:-0.164278 40:-0.820366 41:0.222382 42:-0.0776329 43:-0.238332 44:0.172587 45:-0.0610132 46:0.0175823 47:0.00568855 48:0.108684 49:0.124627 50:-0.526995 51:0.151013 52:-0.414631 53:-0.2705 54:-0.833332 55:-0.83473 56:-0.722289 57:0.487097 58:0.137641 59:-0.226165 60:-0.213839 61:-0.0168971 62:-0.222547 63:-0.455277 64:-0.482581 65:-0.103091 66:-0.343369 67:0.165582 68:-0.540233 69:-0.422605 70:-0.158178 71:-0.270477 72:-0.724647 73:-0.0476683 74:0.695952 75:0.167326 76:0.668404 77:-0.699009 78:-0.0390439 79:-0.221503 80:-0.00678507 81:0.0897753 82:0.0155202 83:0.295885 84:-0.10059 85:-0.402952 86:-0.418629 87:-0.38047 88:-0.864988 89:-0.607832 90:0.708707 91:-0.245985 92:0.110951 93:-0.808561 94:-0.194794 95:-0.475453 96:-0.648714 97:0.612695 98:-0.452898 99:0.385146 100:-0.445992 101:-0.568665 102:-0.673703 103:-0.420473 104:-0.709556 105:-0.0187875 106:0.378698 107:0.141145 108:-0.0328201 109:0.944433 110:0.0751903 111:-0.211952 112:-0.152464 113:-0.0266227 114:-0.366607 115:-0.0398646 116:-0.146939 117:-0.549165 118:-0.744695 119:-0.425969 120:-0.793034 121:0.0273861 122:0.441071 123:0.216981 124:-0.325145 125:-0.116179 126:0.371305 127:-0.587466 128:-0.954686 
1.195081663446577 1:0.266771 2:-0.173852 3:-0.119467 4:-0.458657 5:-0.202622 6:-0.449391 7:0.351313 8:0.36641 9:-0.647234 10:0.0148765 11:-0.125265 12:-0.512647 13:-0.224097 14:-0.290301 15:-0.24244 16:-0.00266543 17:-0.346176 18:-0.313783 19:-0.581896 20:-0.0652745 21:-0.607896 22:-0.289416 23:0.00236896 24:0.0420008 25:-0.655207 26:-0.3203 27:-0.936842 28:-0.784452 29:-0.650496 30:-0.0837484 31:-0.62387 32:-0.214265 33:-0.273792 34:0.0754448 35:-0.356053 36:-0.376909 37:-0.498257 38:-0.39698 39:0.0997612 40:-0.109782 41:-0.395116 42:0.222955 43:-0.723156 44:-0.613986 45:-0.0918929 46:-0.366496 47:0.57361 48:0.0577877 49:-0.248373 50:-0.125879 51:-0.0450341 52:-0.129499 53:-0.160167 54:-0.549899 55:0.335098 56:-0.10712 57:-0.340326 58:-0.0558995 59:-0.75577 60:-0.323002 61:0.139584 62:-0.302763 63:0.0142142 64:0.0265979 65:-0.0448882 66:0.0707841 67:-0.104036 68:-0.523052 69:-0.375885 70:0.0844182 71:0.360506 72:0.255128 73:-0.330367 74:0.151307 75:-0.0393118 76:-0.274575 77:-0.778841 78:-0.423942 79:-0.167329 80:-0.240493 81:-0.165174 82:-0.0622868 83:-0.299042 84:0.0451328 85:-0.210655 86:-0.40447 87:-0.183905 88:-0.325172 89:-0.773405 90:0.04006 91:-0.785938 92:-0.560671 93:-0.896663 94:-0.245907 95:-0.607083 96:-0.40265 97:-0.242581 98:0.0121196 99:-0.558498 100:-0.623968 101:-0.734819 102:-0.723036 103:-0.469589 104:-0.514928 105:-0.637526 106:0.156907 107:-0.381349 108:-0.422509 109:-0.234816 110:-0.508137 111:-0.103288 112:-0.175932 113:-0.1181 114:0.200842 115:-0.310185 116:-0.0205761 117:-0.506178 118:-0.556302 119:-0.0419078 120:-0.241413 121:-0.0246459 122:0.263246 123:0.134035 124:-0.266407 125:-0.293273 126:-0.368309 127:-0.0138363 128:-0.900609 
0.1338165329215353 1:-0.284481 2:-0.646189 3:-0.193312 4:-0.600841 5:-0.0292957 6:-0.565343 7:-0.243388 8:-0.100134 9:-0.0677779 10:-0.55486 11:-0.17839 12:-0.478464 13:-0.636881 14:-0.623824 15:-0.520866 16:-0.690433 17:0.0174611 18:-0.452017 19:0.0761585 20:-0.10648 21:-0.23834 22:-0.108461 23:-0.231457 24:-0.315091 25:-0.233394 26:-0.0513077 27:-0.556195 28:-0.401522 29:0.199768 30:0.117923 31:-0.391871 32:-0.189591 33:0.0226036 34:-0.0699275 35:-0.141565 36:-0.121559 37:-0.141638 38:-0.37913 39:0.00583419 40:-0.270412 41:-0.215998 42:-0.385983 43:-0.539565 44:-0.0309354 45:-0.128767 46:-0.205739 47:-0.00722147 48:-0.37827 49:0.0494323 50:-0.115842 51:-0.502652 52:-0.0373063 53:0.116689 54:-0.621774 55:-0.45047 56:-0.419568 57:-0.352519 58:-0.0474056 59:-0.569239 60:-0.0888117 61:-0.154141 62:-0.166122 63:-0.18134 64:-0.140803 65:-0.283995 66:-0.469988 67:-0.573696 68:-0.488975 69:-0.27101 70:0.85761 71:-0.0920854 72:0.586283 73:-0.434328 74:-0.516712 75:-0.227168 76:0.0226088 77:-0.88023 78:-0.386039 79:-0.600406 80:0.0614364 81:-0.123039 82:-0.234732 83:-0.296817 84:0.0778091 85:0.110284 86:-0.249276 87:-0.208273 88:-0.412072 89:-0.863857 90:-0.0175472 91:-0.476496 92:-0.145923 93:-0.763463 94:-0.101733 95:-0.334275 96:-0.388778 97:-0.00797451 98:-0.075896 99:-0.015923 100:-0.0952116 101:-0.456566 102:-0.377748 103:0.103334 104:-0.232069 105:-0.676967 106:-0.395377 107:-0.369665 108:-0.37463 109:0.350758 110:0.147172 111:0.0501184 112:0.144656 113:-0.539961 114:-0.11266 115:-0.502723 116:-0.127108 117:-0.724407 118:-0.374551 119:-0.506498 120:-0.18834 121:-0.460392 122:-0.301019 123:-0.501673 124:-0.592483 125:-0.613068 126:0.502828 127:-0.151092 128:-0.900953 
0.9370253209589413 1:-0.568089 2:0.400959 3:-0.085473 4:0.988135 5:-0.407288 6:0.418041 7:-0.481196 8:0.394105 9:-0.670841 10:-0.134142 11:0.179193 12:-0.343717 13:-0.446901 14:-0.747952 15:0.415356 16:-0.352271 17:-0.534067 18:0.184472 19:-0.589447 20:-0.0815716 21:-0.660013 22:-0.395143 23:-0.533582 24:-0.443623 25:-0.626742 26:-0.408919 27:-0.840047 28:-0.78299 29:-0.191453 30:-0.467142 31:-0.259186 32:-0.659617 33:-0.563515 34:0.361292 35:-0.742631 36:0.586732 37:-0.511647 38:-0.0512167 39:-0.12593 40:-0.753456 41:-1 42:-0.434626 43:-0.928834 44:-0.466202 45:-0.587415 46:-0.904897 47:-0.0883702 48:-0.688221 49:-0.617806 50:1 51:-0.758348 52:0.22944 53:0.47045 54:-0.045144 55:-0.3156 56:-0.522659 57:-0.84048 58:0.0800959 59:-0.764698 60:-0.294669 61:0.268956 62:-0.646732 63:0.38452 64:-0.375256 65:-0.16469 66:0.453425 67:-0.0474828 68:0.0162211 69:0.173772 70:-0.279865 71:-0.29141 72:-0.148232 73:-0.598684 74:-0.667491 75:-0.200688 76:-0.319711 77:-0.80098 78:-0.769012 79:0.401707 80:-0.545191 81:-0.497266 82:-0.147025 83:-0.669909 84:-0.436135 85:-0.420777 86:-0.727472 87:-0.779011 88:-0.90406 89:-0.91962 90:-0.244943 91:-0.73107 92:-0.657922 93:-0.712423 94:-0.559466 95:0.0279188 96:-0.721509 97:-0.557374 98:0.711805 99:-0.507878 100:0.0650456 101:-0.836017 102:-0.245351 103:-0.459056 104:-0.284928 105:-0.955516 106:-0.596224 107:-0.527183 108:-0.799792 109:-0.445718 110:-0.659056 111:0.38902 112:-0.591171 113:-0.537668 114:1 115:-0.690838 116:-0.0140064 117:-0.590838 118:0.0015483 119:-0.659441 120:-0.632613 121:-0.35764 122:0.240843 123:-0.580539 124:-0.279253 125:0.250705 126:-0.0952238 127:0.336285 128:-0.82643 
0.4738686968723572 1:0.139032 2:-0.0887762 3:-0.102024 4:-0.3815 5:-0.145649 6:-0.577464 7:-0.381181 8:-0.586667 9:-0.530695 10:-0.172984 11:-0.111936 12:-0.31105 13:-0.135942 14:-0.272567 15:-0.503946 16:-0.135213 17:0.132565 18:-0.0448548 19:0.00728948 20:-0.173994 21:-0.492945 22:0.0771564 23:-0.339495 24:-0.406388 25:-0.397315 26:0.156046 27:-0.679487 28:-0.568363 29:-0.48987 30:0.0660025 31:-0.230494 32:-0.31267 33:0.0696018 34:-0.372885 35:0.054954 36:-0.381568 37:-0.390861 38:-0.541103 39:-0.0196861 40:-0.449141 41:-0.167671 42:-0.162884 43:-0.423809 44:0.0857236 45:-0.210677 46:0.185172 47:-0.177255 48:0.175327 49:0.182372 50:-0.364924 51:0.135426 52:-0.427384 53:-0.131051 54:-0.598007 55:-0.440108 56:-0.308006 57:-0.191614 58:0.273824 59:-0.508452 60:-0.258175 61:-0.342136 62:-0.0330761 63:-0.365713 64:-0.193007 65:-0.302923 66:-0.073087 67:-0.265114 68:-0.386006 69:-0.492016 70:-0.21501 71:-0.11598 72:-0.354801 73:-0.35137 74:0.291535 75:-0.159846 76:0.215133 77:-0.782211 78:-0.0754724 79:-0.341295 80:-0.215305 81:-0.235664 82:-0.120599 83:0.37855 84:0.00167041 85:-0.334897 86:-0.454787 87:-0.258893 88:-0.652139 89:-0.561666 90:0.163865 91:-0.45275 92:-0.11794 93:-0.81309 94:-0.174995 95:-0.405927 96:-0.582073 97:0.324911 98:-0.217013 99:0.153994 100:-0.224177 101:-0.539984 102:-0.617334 103:-0.103381 104:-0.483575 105:-0.340376 106:-0.0694885 107:-0.0972351 108:-0.355937 109:0.550626 110:-0.233743 111:-0.356483 112:-0.133712 113:-0.0956339 114:-0.155183 115:-0.0864662 116:0.119708 117:-0.536256 118:-0.365406 119:-0.117778 120:-0.404288 121:-0.167201 122:0.214308 123:-0.271322 124:-0.319556 125:-0.233678 126:0.251957 127:-0.485887 128:-0.943948 
1.872091334141283 1:0.360559 2:-0.0167466 3:-0.400968 4:-0.428971 5:-0.414632 6:-0.38414 7:-0.197142 8:-0.0572234 9:-0.417692 10:0.0160189 11:-0.479412 12:-0.547227 13:-0.124396 14:-0.642723 15:-0.468219 16:-0.520686 17:-0.268877 18:-0.567272 19:-0.4949 20:-0.146545 21:-0.681461 22:-0.411488 23:-0.261102 24:-0.426733 25:-0.313835 26:-0.372434 27:-0.760227 28:-0.694837 29:-0.389718 30:-0.312195 31:-0.337688 32:-0.360682 33:0.238189 34:-0.123489 35:-0.372339 36:-0.038748 37:-0.447057 38:0.060126 39:0.203002 40:-0.244556 41:-0.270247 42:0.539317 43:-0.735551 44:-0.180131 45:-0.391921 46:-0.337876 47:-0.239482 48:-0.28027 49:-0.175649 50:-0.147481 51:-0.315547 52:-0.011621 53:-0.260786 54:-0.516505 55:-0.270996 56:-0.060147 57:-0.161108 58:-0.123192 59:-0.577619 60:-0.4082 61:-0.473484 62:-0.363438 63:-0.179064 64:0.168324 65:0.0710566 66:0.0478855 67:-0.229837 68:-0.456803 69:-0.479152 70:0.052637 71:0.214147 72:-0.0952907 73:-0.164915 74:0.393866 75:0.125397 76:-0.225774 77:-0.70785 78:-0.372597 79:-0.221537 80:-0.564223 81:-0.158597 82:-0.278444 83:0.0738396 84:-0.457643 85:-0.471784 86:-0.437832 87:-0.168755 88:-0.581755 89:-0.176832 90:-0.146844 91:-0.453369 92:-0.498462 93:-0.662454 94:-0.461728 95:-0.460529 96:-0.589204 97:0.323629 98:-0.103937 99:-0.140635 100:-0.371775 101:-0.773464 102:-0.59858 103:-0.477164 104:-0.559649 105:-0.55815 106:0.222882 107:-0.231571 108:-0.719593 109:-0.476812 110:-0.429622 111:-0.444473 112:-0.455857 113:-0.206281 114:0.0814074 115:-0.419374 116:0.0255339 117:-0.855666 118:-0.550873 119:-0.34512 120:-0.0244137 121:-0.0891527 122:-0.0340969 123:-0.122076 124:-0.635871 125:-0.502878 126:-0.266642 127:-0.335008 128:-0.920666 
2 1:-0.102116 2:-0.332931 3:-0.0562322 4:-0.482882 5:-0.424019 6:-0.132603 7:-0.458752 8:-0.358036 9:-0.549629 10:0.055241 11:-0.196891 12:-0.481568 13:-0.162238 14:-0.308999 15:-0.606172 16:-0.0304207 17:-0.176099 18:-0.211501 19:-0.140433 20:0.157266 21:-0.527616 22:-0.116755 23:-0.333372 24:-0.215693 25:-0.407566 26:0.197862 27:-0.70707 28:-0.666816 29:-0.583623 30:-0.000335281 31:-0.166337 32:-0.386182 33:0.0963285 34:-0.205629 35:0.0178009 36:-0.209685 37:-0.402437 38:-0.076771 39:-0.196622 40:-0.51677 41:-0.321962 42:-0.0300088 43:-0.631323 44:-0.266506 45:-0.324097 46:0.160255 47:-0.348032 48:-0.316131 49:0.117789 50:-0.235609 51:0.138001 52:-0.333343 53:-0.0296201 54:-0.44515 55:-0.11777 56:-0.103185 57:-0.452051 58:-0.0482832 59:-0.555554 60:-0.521175 61:-0.176782 62:-0.0797735 63:-0.262811 64:-0.527011 65:-0.307866 66:-0.0614555 67:-0.281221 68:-0.341958 69:-0.508989 70:-0.187271 71:-0.451973 72:-0.10983 73:-0.211476 74:0.399264 75:-0.110401 76:0.0243869 77:-0.754024 78:-0.195607 79:-0.674922 80:-0.188734 81:-0.288829 82:-0.263173 83:0.480612 84:0.10654 85:-0.133643 86:-0.264491 87:-0.474359 88:-0.603305 89:-0.494441 90:0.106449 91:-0.516564 92:-0.473113 93:-0.807343 94:-0.395535 95:-0.403841 96:-0.714592 97:0.260013 98:0.0169249 99:0.235147 100:-0.277266 101:-0.663856 102:-0.514697 103:-0.233262 104:-0.422377 105:-0.302977 106:0.286594 107:-0.189651 108:-0.343107 109:-0.135935 110:-0.0857277 111:-0.343809 112:-0.0609259 113:-0.156225 114:-0.155726 115:-0.0950696 116:0.0594815 117:-0.631017 118:-0.467239 119:-0.268612 120:-0.383489 121:-0.182021 122:-0.0427533 123:-0.43761 124:-0.482167 125:-0.404434 126:-0.157707 127:-0.392652 128:-0.950481 
0.9996549207165421 1:-0.00336738 2:-0.120789 3:-0.294148 4:-0.354798 5:-0.494386 6:-0.509874 7:-0.335541 8:-0.222627 9:-0.550528 10:-0.349077 11:0.160982 12:-0.379885 13:0.0694645 14:-0.598255 15:-0.116727 16:-0.321445 17:-0.486476 18:-0.177434 19:-0.331734 20:-0.113434 21:-0.532674 22:0.0668402 23:-0.26941 24:-0.220779 25:-0.377526 26:-0.0690068 27:-0.689912 28:-0.670916 29:-0.00820097 30:-0.081138 31:-0.00108057 32:-0.519521 33:-0.214926 34:-0.161428 35:-0.381943 36:-0.374848 37:-0.398974 38:-0.262167 39:0.17042 40:-0.517901 41:-0.257277 42:-0.468587 43:-0.690068 44:-0.341049 45:-0.169559 46:-0.381634 47:0.14128 48:-0.244137 49:-0.364825 50:-0.172237 51:-0.411767 52:-0.174017 53:-0.325261 54:-0.436916 55:-0.242631 56:-0.302697 57:-0.145994 58:0.0922255 59:-0.594628 60:-0.555267 61:0.138915 62:-0.233359 63:0.175424 64:-0.231218 65:-0.143314 66:-0.0314791 67:-0.326634 68:-0.259471 69:-0.666034 70:-0.303583 71:-0.34541 72:-0.0996361 73:-0.180941 74:-0.0561668 75:0.121177 76:-0.0737625 77:-0.793751 78:-0.447037 79:0.210259 80:-0.340403 81:-0.308561 82:-0.187835 83:-0.148897 84:-0.0647004 85:-0.298602 86:-0.331762 87:-0.488875 88:-0.62627 89:-0.686122 90:-0.175871 91:-0.360511 92:-0.323346 93:-0.783187 94:-0.254989 95:-0.241159 96:-0.53745 97:0.111844 98:0.126595 99:-0.169833 100:-0.285133 101:-0.720986 102:-0.594143 103:-0.202964 104:-0.367687 105:-0.256141 106:-0.074314 107:-0.287091 108:-0.657342 109:0.392062 110:-0.265098 111:-0.0111161 112:-0.15615 113:-0.323754 114:-0.0288064 115:-0.399498 116:-0.0347901 117:-0.647786 118:-0.424005 119:-0.306596 120:-0.346007 121:-0.157605 122:-0.0457536 123:-0.106783 124:-0.390111 125:-0.205624 126:-0.210152 127:-0.149304 128:-0.915674 
0.4870336280891033 1:-0.445394 2:0.186186 3:-0.613122 4:-0.510517 5:-0.880045 6:-0.0170207 7:-0.621124 8:-0.111081 9:-0.379525 10:-0.229634 11:-0.113895 12:-0.562947 13:-0.19737 14:-0.380587 15:-0.451472 16:-0.676614 17:-0.52745 18:-0.310014 19:-0.491215 20:-0.315737 21:-0.728682 22:-0.0541649 23:-0.246355 24:0.288517 25:-0.480655 26:-0.392503 27:-0.745574 28:-0.728388 29:-0.267556 30:-0.479907 31:0.606378 32:-0.409884 33:-0.350567 34:-0.149216 35:-0.205361 36:-0.273572 37:-0.652451 38:-0.434717 39:-0.615967 40:-0.346848 41:-0.37877 42:-0.366525 43:-0.708887 44:-0.768066 45:-0.627904 46:-0.447181 47:-0.649801 48:-0.692183 49:-0.373835 50:-0.137731 51:-0.615507 52:-0.397363 53:-0.671967 54:-0.624898 55:-0.0587344 56:-0.0131113 57:-0.559322 58:-0.291501 59:-0.843758 60:-0.66582 61:-0.476067 62:-0.665901 63:0.347576 64:-0.300642 65:-0.452288 66:0.178642 67:-0.614015 68:-0.644516 69:-0.107801 70:-0.30902 71:-0.86543 72:-0.0347269 73:0.145493 74:-0.0861753 75:-0.0705185 76:-0.341704 77:-0.650711 78:-0.644888 79:0.0633888 80:-0.800996 81:-0.499313 82:-0.515547 83:-0.522501 84:-0.440048 85:-0.611428 86:-0.509035 87:-0.755502 88:-0.465687 89:-0.430224 90:-0.352717 91:-0.478971 92:-0.652773 93:-0.483132 94:-0.696131 95:0.279023 96:-0.802087 97:0.00943718 98:0.0337738 99:-0.19333 100:-0.221258 101:-0.820244 102:-0.671772 103:-0.67808 104:-0.400221 105:-0.0904865 106:0.0533503 107:0.00885647 108:-0.421983 109:-0.170389 110:-0.532982 111:-0.564552 112:-0.769301 113:-0.33479 114:0.100283 115:-0.418276 116:-0.0587732 117:-0.83685 118:-0.61046 119:-0.344311 120:-0.256434 121:0.0976506 122:-0.340932 123:-0.053304 124:-0.739085 125:-0.281696 126:-0.781645 127:0.447401 128:-0.923197 
1.270604091126635 1:-0.11384 2:0.0279841 3:-0.330264 4:-0.674024 5:-0.46422 6:-0.543141 7:0.561047 8:-0.234887 9:-0.617994 10:-0.496129 11:-0.128348 12:-0.592275 13:0.159036 14:-0.384742 15:0.300876 16:-0.0242786 17:-0.446264 18:-0.369787 19:-0.394803 20:-0.331539 21:-0.629535 22:-0.343937 23:0.0415735 24:0.0427543 25:-0.643161 26:-0.166463 27:-0.818338 28:-0.670872 29:-0.379574 30:-0.0878197 31:-0.153653 32:0.265485 33:-0.0959546 34:-0.42378 35:-0.41841 36:-0.5161 37:-0.483219 38:-0.863474 39:0.520607 40:-0.355575 41:-0.458735 42:-0.531019 43:-0.796522 44:-0.688177 45:-0.282046 46:-0.389364 47:0.523096 48:0.47539 49:-0.254137 50:-0.356226 51:-0.341772 52:-0.4875 53:-0.394104 54:-0.602469 55:0.733583 56:0.10857 57:-0.546787 58:-0.197098 59:-0.62652 60:-0.36984 61:-0.230755 62:-0.156709 63:0.246712 64:0.605395 65:-0.3895 66:-0.0365532 67:-0.294795 68:-0.553439 69:-0.201956 70:-0.442075 71:0.330918 72:-0.269504 73:-0.335006 74:0.0117392 75:-0.191976 76:-0.103114 77:-0.76653 78:-0.471126 79:0.342825 80:0.0386217 81:-0.325221 82:-0.228818 83:-0.0650288 84:-0.0448146 85:-0.0911031 86:-0.49472 87:0.00784581 88:-0.28861 89:-0.713601 90:0.0359726 91:-0.463203 92:-0.46335 93:-0.73239 94:-0.397737 95:-0.126218 96:-0.380026 97:-0.236731 98:-0.366646 99:-0.43703 100:-0.711691 101:-0.772406 102:-0.809001 103:-0.22706 104:-0.574711 105:-0.515609 106:-0.0461822 107:-0.394801 108:-0.455473 109:-0.0385375 110:-0.460555 111:0.0876699 112:-0.204346 113:-0.352814 114:-0.0919406 115:-0.290476 116:-0.127645 117:-0.643192 118:-0.636564 119:0.467141 120:0.16655 121:0.0540418 122:0.242982 123:0.293959 124:-0.487115 125:-0.0472891 126:-0.105038 127:0.0994082 128:-0.889269 
0.6295330369079872 1:0.120907 2:-0.238207 3:-0.152697 4:-0.788388 5:-0.352641 6:-0.576936 7:-0.250231 8:-0.861909 9:-0.543278 10:-0.0936508 11:0.0869789 12:-0.343591 13:-0.151215 14:-0.0447488 15:0.315276 16:-0.0403291 17:-0.0507685 18:-0.516422 19:0.0244612 20:-0.534596 21:-0.327826 22:-0.167194 23:-0.136866 24:-0.440609 25:-0.423453 26:0.00707224 27:-0.544227 28:-0.55428 29:-0.222147 30:0.212784 31:-0.127917 32:-0.131175 33:0.104634 34:-0.623706 35:0.0499752 36:-0.592086 37:-0.406707 38:-0.840451 39:-0.177414 40:-0.602983 41:-0.171935 42:-0.0337286 43:-0.515265 44:-0.0151692 45:-0.0924293 46:-0.055192 47:0.350331 48:0.358087 49:0.0206397 50:-0.582931 51:0.407558 52:-0.423421 53:-0.585151 54:-0.721741 55:-0.473872 56:-0.496967 57:0.195067 58:0.249785 59:-0.305903 60:-0.168232 61:-0.058289 62:-0.00703171 63:-0.484843 64:-0.0243822 65:-0.367074 66:-0.259893 67:-0.322118 68:-0.627857 69:-0.256091 70:-0.474697 71:0.0547624 72:-0.525285 73:-0.0804804 74:0.52194 75:-0.162907 76:0.235266 77:-0.758768 78:0.216328 79:0.0598959 80:0.0516728 81:-0.27397 82:-0.477575 83:0.0849058 84:-0.133712 85:-0.262019 86:-0.345862 87:-0.14769 88:-0.640113 89:-0.635678 90:0.327202 91:-0.566467 92:-0.156431 93:-0.8767 94:-0.10016 95:-0.289462 96:-0.481413 97:0.304675 98:-0.61573 99:0.178898 100:-0.60645 101:-0.631064 102:-0.791396 103:-0.227841 104:-0.647818 105:0.0210765 106:0.375294 107:-0.0192386 108:-0.396917 109:0.842457 110:-0.0159934 111:0.0380849 112:-0.280589 113:0.0208359 114:-0.557735 115:0.588594 116:0.0361334 117:-0.545927 118:-0.760072 119:-0.154242 120:-0.565891 121:0.1242 122:0.138589 123:0.0722337 124:-0.297687 125:0.0466131 126:-0.00509459 127:-0.28358 128:-0.925838 
0.3238466941252241 1:-0.579508 2:-0.210689 3:-0.4993 4:-0.744315 5:-0.719425 6:-0.526974 7:-0.0999418 8:0.132919 9:-0.451066 10:-0.597928 11:-0.408717 12:-0.560601 13:-0.125042 14:-0.741181 15:0.171131 16:-0.132779 17:-0.607156 18:-0.517665 19:-0.461034 20:-0.388676 21:-0.467392 22:-0.2744 23:0.431617 24:0.106424 25:-0.546151 26:-0.134471 27:-0.689613 28:-0.690759 29:0.24108 30:-0.143405 31:0.329986 32:0.782915 33:-0.440726 34:-0.0532515 35:-0.514402 36:-0.636747 37:-0.315438 38:-0.657742 39:0.15783 40:-0.223144 41:-0.47867 42:-0.564605 43:-0.71819 44:-0.647554 45:-0.317474 46:-0.764238 47:0.100825 48:-0.134962 49:-0.519147 50:-0.302116 51:-0.443896 52:-0.44699 53:0.197654 54:-0.60164 55:0.159965 56:0.0526638 57:-0.407178 58:-0.474511 59:-0.643633 60:-0.653589 61:0.252576 62:-0.313346 63:0.329267 64:0.261285 65:-0.582022 66:-0.0359027 67:-0.430256 68:-0.5845 69:-0.477991 70:-0.297982 71:0.0250306 72:-0.260452 73:-0.3089 74:-0.260168 75:-0.168341 76:-0.248123 77:-0.538698 78:-0.476947 79:0.335174 80:0.0429226 81:-0.511557 82:-0.316069 83:-0.442812 84:-0.341351 85:-0.344342 86:-0.476533 87:0.262625 88:-0.39152 89:-0.68308 90:-0.256311 91:-0.604235 92:-0.492195 93:-0.752602 94:-0.368269 95:-0.0480264 96:-0.343438 97:-0.254764 98:0.19545 99:-0.571856 100:-0.611208 101:-0.815383 102:-0.71745 103:-0.128235 104:-0.430747 105:-0.517018 106:-0.446815 107:-0.467365 108:-0.556094 109:0.346014 110:-0.386723 111:0.227891 112:-0.135498 113:-0.488328 114:0.0117645 115:-0.59074 116:-0.45784 117:-0.610761 118:-0.556513 119:0.0446052 120:0.00933288 121:-0.381865 122:-0.258032 123:-0.443042 124:-0.665153 125:-0.0948211 126:-0.233452 127:0.385329 128:-0.876415 
0.08853132729810175 1:-0.372116 2:-0.328217 3:-0.236685 4:-0.513697 5:-0.546523 6:-0.566434 7:-0.711336 8:-0.480529 9:-0.309363 10:-0.0730878 11:0.223004 12:-0.339801 13:0.787172 14:-0.132106 15:-0.393569 16:0.0890022 17:-0.170546 18:-0.249398 19:-0.0714278 20:-0.258364 21:-0.542101 22:-0.0239089 23:-0.169414 24:-0.323756 25:-0.224768 26:-0.0773009 27:-0.548746 28:-0.649315 29:0.128218 30:0.197361 31:0.125263 32:-0.390218 33:-0.34114 34:-0.382307 35:-0.185777 36:-0.584435 37:-0.577176 38:-0.702381 39:-0.274923 40:-0.479279 41:-0.321619 42:-0.490692 43:-0.572112 44:-0.590079 45:-0.370044 46:-0.139832 47:-0.430713 48:-0.337194 49:0.181503 50:-0.368326 51:0.173383 52:-0.318668 53:-0.25807 54:-0.564847 55:0.0604371 56:-0.261158 57:0.109136 58:-0.252543 59:-0.397539 60:-0.598451 61:-0.106397 62:-0.231875 63:-0.191523 64:-0.477314 65:-0.387872 66:-0.186357 67:-0.29896 68:-0.500632 69:-0.585725 70:-0.497081 71:-0.686636 72:-0.459416 73:0.12487 74:0.487968 75:0.216663 76:0.312243 77:-0.721326 78:0.156106 79:-0.281067 80:-0.188041 81:-0.369592 82:-0.481171 83:0.0612699 84:-0.400818 85:-0.474741 86:-0.560153 87:-0.651165 88:-0.725561 89:-0.740879 90:-0.172518 91:-0.185613 92:-0.444571 93:-0.762829 94:-0.376595 95:-0.234138 96:-0.708205 97:0.0829109 98:-0.0378796 99:0.00592789 100:-0.405752 101:-0.674052 102:-0.587688 103:-0.484099 104:-0.550461 105:0.00593383 106:0.053951 107:0.185428 108:-0.441457 109:0.452174 110:0.135207 111:-0.346882 112:-0.375675 113:0.0761058 114:-0.230901 115:0.206781 116:-0.249197 117:-0.566792 118:-0.598008 119:-0.0384012 120:-0.284873 121:-0.0744388 122:-0.180912 123:0.37835 124:-0.702429 125:0.097504 126:-0.33879 127:-0.325812 128:-0.949936 
0.6836774044881018 1:-0.13094 2:-0.117281 3:-0.301914 4:-0.675855 5:-0.290529 6:-0.427875 7:-0.0302567 8:-0.364057 9:-0.605052 10:-0.648816 11:0.190306 12:-0.346821 13:0.015919 14:-0.351664 15:0.254363 16:0.101431 17:-0.137692 18:-0.184432 19:0.116484 20:-0.0627987 21:-0.362791 22:0.221303 23:-0.2755 24:-0.116986 25:-0.385209 26:0.0282766 27:-0.645644 28:-0.539616 29:-0.323371 30:0.0495019 31:-0.0540931 32:0.0341307 33:-0.17151 34:-0.520736 35:-0.153625 36:-0.606719 37:-0.306418 38:-0.775925 39:0.197509 40:-0.563715 41:-0.463521 42:-0.755048 43:-0.556033 44:-0.340723 45:-0.104581 46:0.278081 47:0.742734 48:0.320668 49:-0.015494 50:-0.3492 51:-0.0441244 52:-0.422735 53:0.137798 54:-0.559174 55:-0.131433 56:-0.47616 57:-0.00182266 58:-0.0648948 59:-0.393577 60:-0.252953 61:0.0837259 62:0.0843092 63:-0.0996511 64:-0.206223 65:-0.651184 66:0.0157493 67:-0.337047 68:-0.488167 69:-0.307278 70:-0.236041 71:0.0254619 72:-0.203473 73:-0.388147 74:-0.217496 75:-0.175277 76:0.313911 77:-0.805659 78:-0.134469 79:0.280617 80:-0.112874 81:-0.299993 82:-0.2956 83:0.115488 84:0.103676 85:-0.373992 86:-0.269869 87:-0.263856 88:-0.483335 89:-0.76448 90:0.275503 91:-0.598477 92:-0.0741612 93:-0.831207 94:-0.233973 95:-0.344144 96:-0.4384 97:-0.221243 98:-0.360502 99:-0.187343 100:-0.512665 101:-0.548417 102:-0.641293 103:0.184619 104:-0.48672 105:-0.530541 106:-0.160331 107:-0.215607 108:-0.215657 109:0.753063 110:0.119916 111:0.23858 112:-0.023079 113:-0.304835 114:-0.270713 115:-0.172027 116:0.131406 117:-0.488094 118:-0.481588 119:0.299313 120:-0.219783 121:-0.0991753 122:-0.0855435 123:-0.335641 124:-0.325785 125:-0.0751112 126:0.187076 127:-0.15569 128:-0.930318 
0.6058409994649578 1:0.739118 2:0.125668 3:0.324364 4:-0.564647 5:-0.168774 6:-0.635238 7:-0.694618 8:-0.674732 9:-0.453582 10:-0.118149 11:-0.338505 12:-0.352651 13:-0.5975 14:-0.535866 15:-0.983656 16:-0.666126 17:0.354005 18:0.143227 19:0.0635128 20:-0.0935414 21:-0.538377 22:-0.202037 23:-0.736328 24:-0.320993 25:-0.650343 26:0.224152 27:-0.741086 28:-0.504064 29:-0.798043 30:0.0519446 31:-1 32:-0.681447 33:0.70203 34:0.647139 35:0.383025 36:-0.0271991 37:-0.036352 38:-0.315438 39:0.170113 40:-0.664544 41:-0.00278947 42:0.291629 43:-0.506955 44:0.258718 45:-0.203377 46:0.150043 47:-0.250189 48:0.149049 49:0.314535 50:-0.214294 51:-0.0921495 52:-0.379395 53:-0.548896 54:-0.617312 55:-0.609469 56:-0.389772 57:-0.473923 58:0.266835 59:-0.514786 60:-0.249399 61:-0.839964 62:0.015019 63:-0.770709 64:-0.530568 65:-0.159031 66:0.386291 67:-0.28772 68:-0.324456 69:-0.351408 70:0.347347 71:-0.344116 72:-0.130706 73:-0.291861 74:0.36801 75:-0.623056 76:0.332567 77:-0.790302 78:-0.351069 79:-1 80:-0.188215 81:-0.235815 82:0.199142 83:0.205942 84:0.606866 85:0.0544751 86:0.0397372 87:-0.526658 88:-0.598807 89:-0.980317 90:0.346586 91:-0.941389 92:-0.0606943 93:-0.909667 94:-0.151735 95:-0.768402 96:-0.424314 97:0.764772 98:1 99:0.210744 100:-0.161115 101:-0.507479 102:-0.479559 103:-0.188264 104:-0.371891 105:0.302801 106:1 107:-0.357627 108:-0.115002 109:-0.209124 110:0.122023 111:-0.430284 112:-0.0728547 113:-0.35181 114:-0.240664 115:-0.0911798 116:0.211757 117:-0.613252 118:-0.50478 119:-0.757847 120:-0.298872 121:-0.547642 122:0.282674 123:-0.586367 124:-0.412155 125:-0.835307 126:0.156996 127:-0.873345 128:-0.951334 
0.4982916809469086 1:-0.863919 2:-0.359463 3:-0.69346 4:-0.580509 5:-0.676472 6:-0.328777 7:-0.548212 8:0.119345 9:-0.4845 10:-0.287096 11:-0.22371 12:-0.660281 13:-0.339687 14:0.184371 15:-0.466678 16:-0.42221 17:-0.70271 18:-0.838106 19:-0.474134 20:-0.632164 21:-0.680303 22:-0.141918 23:0.71706 24:0.293792 25:-0.4591 26:-0.66663 27:-0.670077 28:-0.913477 29:0.0106094 30:0.737834 31:0.754332 32:0.41567 33:-0.680952 34:-0.491662 35:-0.57698 36:-0.343469 37:-0.919648 38:-0.170233 39:-0.481269 40:0.802364 41:-0.655574 42:-0.785986 43:-0.81734 44:-0.809286 45:-0.833986 46:-0.707141 47:-0.70774 48:-0.766039 49:-0.441506 50:-0.396027 51:-0.215211 52:-0.549166 53:-0.236205 54:-0.520043 55:0.388257 56:0.374606 57:-0.478826 58:-0.832537 59:-0.581099 60:-0.946213 61:-0.0555539 62:-0.674716 63:0.0207146 64:-0.243365 65:-0.52271 66:-0.458981 67:-0.789445 68:-0.66948 69:-0.599214 70:-0.699381 71:-0.798922 72:-0.238236 73:0.139462 74:0.289573 75:0.224632 76:-0.191525 77:-0.773839 78:0.0790579 79:-0.144575 80:-0.717128 81:-0.645903 82:-0.945327 83:-0.469425 84:-0.689336 85:-0.658458 86:-0.906328 87:-0.360916 88:-0.471718 89:-0.437511 90:-0.713528 91:-0.196304 92:-0.894222 93:-0.854093 94:-0.810145 95:-0.0424097 96:-0.743127 97:0.0669218 98:-0.37796 99:-0.210124 100:-0.43857 101:-0.939949 102:-0.713903 103:-0.655048 104:-0.33363 105:0.665522 106:0.581527 107:0.504707 108:-0.705238 109:-0.225362 110:-0.221122 111:-0.693913 112:-0.790709 113:-0.287135 114:-0.189462 115:0.00614211 116:-0.12259 117:-0.594698 118:-0.645261 119:0.74154 120:0.590635 121:0.194571 122:-0.550604 123:0.875745 124:-0.948694 125:-0.153697 126:-0.638322 127:-0.000383158 128:-0.977401 
0.6604788977848179 1:0.294375 2:0.0572564 3:0.0915843 4:-0.497708 5:-0.350274 6:0.0962748 7:-0.310404 8:-0.486659 9:-0.726444 10:-0.17768 11:0.427025 12:-0.431954 13:1 14:-0.0795417 15:0.343356 16:-0.0858732 17:-0.338564 18:-0.394751 19:-0.223176 20:-0.362885 21:-0.618877 22:0.169796 23:0.0544193 24:-0.252488 25:-0.367415 26:-0.384876 27:-0.502667 28:-0.752485 29:-0.0467007 30:0.0880353 31:-0.291264 32:-0.300515 33:-0.412326 34:-0.417581 35:-0.244461 36:-0.427527 37:-0.752642 38:-0.466586 39:-0.484374 40:-0.630495 41:-0.404865 42:-0.748413 43:-0.682802 44:-0.545982 45:-0.280623 46:-0.30699 47:-0.229374 48:-0.13161 49:-0.268476 50:-0.468613 51:0.0158182 52:-0.211174 53:-0.550099 54:-0.508324 55:-0.204776 56:-0.302822 57:0.260278 58:-0.567159 59:-0.545049 60:-0.700725 61:-0.0191156 62:0.067222 63:-0.132045 64:-0.24597 65:-0.215144 66:0.308097 67:-0.0986916 68:-0.487577 69:-0.723456 70:-0.245643 71:-0.577313 72:-0.653763 73:-0.105321 74:0.711616 75:0.404845 76:0.383475 77:-0.604892 78:-0.262365 79:0.453436 80:-0.299816 81:-0.573688 82:-0.414888 83:-0.139034 84:-0.229386 85:-0.61394 86:-0.756571 87:-0.475161 88:-0.71909 89:-0.609503 90:-0.0636586 91:-0.266955 92:-0.471039 93:-0.675944 94:-0.545833 95:-0.488933 96:-0.80677 97:0.354826 98:-0.352108 99:0.369545 100:-0.305482 101:-0.8063 102:-0.662632 103:-0.412993 104:-0.662346 105:0.253007 106:0.680839 107:-0.0797083 108:-0.363461 109:0.697134 110:-0.300012 111:-0.265762 112:-0.451026 113:-0.118315 114:-0.33005 115:0.0679674 116:0.420986 117:-0.622881 118:-0.665211 119:0.0378127 120:-0.307945 121:0.403658 122:0.0644927 123:0.353032 124:-0.45601 125:0.302504 126:-0.274883 127:-0.350675 128:-0.952822 
0.9272726201741104 1:-0.00200934 2:-0.0451418 3:-0.495438 4:-0.528372 5:-0.896959 6:-0.0620574 7:-0.585287 8:-0.0253688 9:-0.16718 10:0.0730116 11:-0.254095 12:-0.493408 13:-0.422699 14:-0.296296 15:-0.277533 16:-0.247537 17:-0.350548 18:-0.433831 19:-0.617308 20:-0.489989 21:-0.822904 22:-0.344873 23:-0.614277 24:-0.104679 25:-0.642379 26:-0.33911 27:-0.822944 28:-0.847222 29:-0.810279 30:-0.371204 31:-0.204819 32:-0.773556 33:0.0531288 34:0.049222 35:-0.254928 36:-0.152951 37:-0.708483 38:-0.395528 39:-0.419106 40:0.254705 41:-0.120054 42:-0.127332 43:-0.768299 44:-0.425117 45:-0.627064 46:-0.408601 47:-0.281542 48:-0.249048 49:-0.0431203 50:-0.173479 51:-0.138802 52:-0.114303 53:-0.547608 54:-0.482241 55:-0.112163 56:0.646014 57:-0.268208 58:0.143314 59:-0.597182 60:-0.739978 61:-0.36885 62:-0.466788 63:-0.191198 64:-0.363031 65:-0.153696 66:0.231725 67:-0.512426 68:-0.520643 69:-0.341046 70:-0.396301 71:-0.365969 72:-0.425142 73:0.241272 74:0.526658 75:0.0611909 76:-0.22974 77:-0.786323 78:-0.282698 79:-0.224397 80:-0.606071 81:-0.37833 82:-0.19429 83:-0.277181 84:-0.366391 85:-0.622208 86:-0.792045 87:-0.59713 88:-0.627647 89:-0.720955 90:0.100669 91:-0.624951 92:-0.710112 93:-0.837247 94:-0.569366 95:-0.259052 96:-0.844038 97:0.317157 98:0.130366 99:-0.368209 100:-0.363395 101:-0.853135 102:-0.654411 103:-0.677985 104:-0.413452 105:0.0545314 106:0.469 107:-0.0754289 108:-0.439186 109:-0.29697 110:-0.355462 111:-0.450255 112:-0.556324 113:0.00109286 114:-0.109297 115:-0.204 116:0.0891551 117:-0.83815 118:-0.67143 119:-0.172756 120:0.0582003 121:0.294476 122:0.0940278 123:0.0244431 124:-0.693309 125:-0.271387 126:-0.352725 127:-0.236153 128:-0.962597 
1.563779900797339 1:-0.299364 2:-0.327998 3:0.0834783 4:-0.683712 5:-0.543549 6:-0.356591 7:-0.338987 8:-0.310966 9:-0.387434 10:0.0766926 11:-0.0849554 12:-0.501277 13:0.396712 14:-0.00235915 15:-0.568876 16:0.057075 17:-0.268391 18:-0.397718 19:-0.144368 20:-0.398967 21:-0.613042 22:-0.242235 23:-0.342815 24:-0.446449 25:-0.450705 26:-0.04995 27:-0.654416 28:-0.720297 29:-0.274025 30:0.0381502 31:-0.0529848 32:-0.502334 33:0.0761555 34:-0.258075 35:-0.255702 36:-0.39813 37:-0.546654 38:-0.56553 39:-0.200546 40:-0.37028 41:-0.273031 42:-0.292702 43:-0.632328 44:-0.246371 45:-0.2945 46:0.0596505 47:-0.282571 48:-0.208107 49:0.00193247 50:-0.288753 51:-0.038898 52:-0.238498 53:-0.200901 54:-0.601747 55:0.0776515 56:-0.14666 57:-0.0260182 58:-0.17077 59:-0.527037 60:-0.525901 61:-0.170764 62:-0.236725 63:-0.0830751 64:-0.292071 65:-0.187359 66:-0.163797 67:-0.458031 68:-0.628902 69:-0.432789 70:-0.373875 71:-0.620329 72:-0.306495 73:0.133811 74:0.305464 75:0.146063 76:0.221288 77:-0.653083 78:0.00901013 79:-0.411337 80:-0.0633644 81:-0.261896 82:-0.265382 83:-0.0171556 84:-0.326811 85:-0.453537 86:-0.571065 87:-0.362111 88:-0.64321 89:-0.590282 90:0.0816369 91:-0.366158 92:-0.3798 93:-0.764096 94:-0.165578 95:-0.141263 96:-0.678757 97:0.383899 98:-0.0625751 99:-0.139037 100:-0.471801 101:-0.647311 102:-0.731171 103:-0.508977 104:-0.602717 105:-0.138732 106:0.140989 107:-0.171213 108:-0.442186 109:-0.137055 110:-0.129189 111:-0.444452 112:-0.385223 113:0.0578856 114:-0.242725 115:0.133683 116:-0.0626565 117:-0.669687 118:-0.69283 119:-0.333644 120:-0.345537 121:-0.0674017 122:-0.0869699 123:0.358767 124:-0.600536 125:-0.20387 126:-0.11017 127:-0.257865 128:-0.942956 
0.5640929866670608 1:-0.567202 2:0.196601 3:-0.794721 4:-0.551906 5:-0.80365 6:-0.26182 7:-0.34908 8:0.179661 9:-0.525363 10:-0.57239 11:-0.0597096 12:-0.657718 13:-0.253256 14:-0.74038 15:0.142187 16:-0.608529 17:-0.540893 18:-0.435996 19:-0.62445 20:-0.385597 21:-0.663532 22:0.0441857 23:-0.297221 24:0.271313 25:-0.57593 26:-0.336592 27:-0.747164 28:-0.757234 29:-0.497148 30:-0.396853 31:0.244402 32:-0.338074 33:-0.514726 34:0.793503 35:-0.669541 36:-0.0564651 37:-0.729227 38:-0.307547 39:-0.482122 40:-0.0949153 41:-0.427785 42:-0.667257 43:-0.796031 44:-0.567095 45:-0.516 46:-0.747016 47:-0.266715 48:-0.437023 49:-0.617349 50:-0.0398536 51:-0.487728 52:-0.485667 53:-0.479577 54:-0.371362 55:-0.0188652 56:0.616656 57:-0.37437 58:-0.396969 59:-0.785395 60:-0.544882 61:-0.0334904 62:-0.526579 63:0.363394 64:-0.0140812 65:-0.631298 66:0.0265481 67:-0.785781 68:-0.63313 69:-0.281729 70:-0.419013 71:-0.519028 72:0.191215 73:-0.101273 74:-0.106256 75:-0.328648 76:-0.134928 77:-0.806424 78:-0.784595 79:-0.00996324 80:-0.535921 81:-0.865541 82:-0.405552 83:-0.387542 84:-0.378291 85:-0.548508 86:-0.482713 87:-0.438759 88:-0.532385 89:-0.496881 90:-0.226932 91:-0.616148 92:-0.361486 93:-0.835201 94:-0.614396 95:-0.119518 96:-0.701167 97:-0.189445 98:0.65846 99:-0.511981 100:-0.116028 101:-0.783528 102:-0.614778 103:-0.496242 104:-0.318823 105:-0.352279 106:-0.172084 107:-0.422022 108:-0.603871 109:-0.156225 110:-0.633181 111:-0.125989 112:-0.506777 113:-0.757117 114:0.0450672 115:-0.387569 116:-0.581199 117:-0.711015 118:-0.373207 119:0.198087 120:0.083335 121:-0.205905 122:-0.284838 123:-0.34408 124:-0.779175 125:-0.0734 126:-0.484585 127:0.245604 128:-0.938959 
0.7202431015264177 1:-0.14161 2:-0.184158 3:-0.141323 4:-0.351964 5:-0.282194 6:-0.142279 7:-0.102708 8:-0.00478914 9:-0.576232 10:-0.457376 11:-0.0346566 12:-0.293128 13:-0.314376 14:-0.410374 15:-0.24676 16:-0.00996639 17:-0.270658 18:-0.0685956 19:-0.358458 20:-0.0799139 21:-0.462202 22:-0.162607 23:-0.209886 24:-0.0931878 25:-0.541687 26:-0.201886 27:-0.656392 28:-0.616952 29:-0.236105 30:0.0858799 31:-0.685133 32:0.0269837 33:-0.267455 34:-0.259128 35:-0.226559 36:-0.153358 37:-0.320995 38:-0.296924 39:0.173763 40:-0.209651 41:-0.500891 42:-0.505624 43:-0.64979 44:-0.201053 45:-0.254595 46:0.176722 47:0.41033 48:0.265844 49:-0.11891 50:-0.296811 51:0.0297555 52:-0.180185 53:0.301576 54:-0.402705 55:0.0834242 56:-0.0538381 57:-0.62142 58:-0.152748 59:-0.609277 60:-0.439194 61:-0.039842 62:-0.157992 63:-0.275162 64:0.0691428 65:-0.517744 66:-0.221343 67:-0.635844 68:-0.339077 69:-0.31371 70:0.0496209 71:0.154626 72:0.0540457 73:-0.523233 74:-0.138133 75:-0.39894 76:0.206625 77:-0.670871 78:0.00472624 79:-0.372881 80:0.209744 81:-0.361423 82:0.0704964 83:-0.213219 84:0.0700138 85:0.0525193 86:-0.312285 87:0.0226232 88:-0.456974 89:-0.816194 90:0.17386 91:-0.3696 92:-0.347787 93:-0.772229 94:-0.124092 95:-0.621767 96:-0.395388 97:-0.0784027 98:-0.183255 99:-0.29445 100:-0.243222 101:-0.565171 102:-0.526214 103:-0.00974045 104:-0.344201 105:-0.640906 106:-0.0873687 107:-0.486771 108:-0.235808 109:0.272628 110:-0.133614 111:0.260385 112:-0.0726715 113:-0.254815 114:-0.195646 115:-0.0853679 116:0.0511534 117:-0.467576 118:-0.519327 119:0.0925699 120:0.0505898 121:-0.480619 122:-0.123415 123:-0.303167 124:-0.423449 125:-0.260782 126:0.0766436 127:-0.258802 128:-0.905598 
0.8507780689498814 1:0.16514 2:-0.223078 3:0.571659 4:-0.516922 5:-0.156271 6:-0.483749 7:-0.384287 8:-0.450426 9:-0.526501 10:-0.115483 11:0.066808 12:-0.286829 13:0.0405518 14:-0.192193 15:-0.485557 16:-0.144831 17:0.0444846 18:-0.110423 19:0.0711548 20:-0.21225 21:-0.467846 22:-0.169946 23:-0.324364 24:-0.468677 25:-0.493383 26:0.0212661 27:-0.679259 28:-0.644269 29:-0.209015 30:0.0717502 31:-0.13826 32:-0.0799543 33:-0.0528336 34:-0.433017 35:-0.012935 36:-0.42985 37:-0.416799 38:-0.452829 39:-0.0483112 40:-0.438071 41:-0.30108 42:-0.143713 43:-0.492561 44:-0.196982 45:-0.247481 46:0.193801 47:-0.13601 48:0.202079 49:-0.0481058 50:-0.242395 51:0.251395 52:-0.295694 53:-0.175901 54:-0.554573 55:-0.279448 56:-0.291515 57:-0.316983 58:0.0272837 59:-0.496044 60:-0.260816 61:-0.27938 62:0.0056054 63:-0.236918 64:-0.181346 65:-0.315788 66:-0.205066 67:-0.217392 68:-0.289521 69:-0.443777 70:-0.222438 71:-0.183093 72:-0.258243 73:-0.347237 74:0.315108 75:-0.0568621 76:-0.0699055 77:-0.73588 78:-0.121198 79:-0.356664 80:-0.0508571 81:-0.0539334 82:-0.254876 83:0.352268 84:-0.153502 85:-0.268175 86:-0.485548 87:-0.190249 88:-0.698612 89:-0.520783 90:0.324296 91:-0.455605 92:-0.218966 93:-0.809827 94:-0.258513 95:-0.401113 96:-0.640251 97:0.0815685 98:-0.277474 99:0.0456459 100:-0.47189 101:-0.612171 102:-0.59881 103:-0.0626679 104:-0.469317 105:-0.332629 106:-0.0843854 107:-0.176702 108:-0.331057 109:0.280105 110:-0.0598525 111:-0.343191 112:-0.15315 113:-0.15807 114:-0.200093 115:-0.0105307 116:-0.0630961 117:-0.520193 118:-0.379624 119:0.00843551 120:-0.345697 121:-0.146409 122:0.0570659 123:0.0204101 124:-0.21514 125:-0.357219 126:0.0685147 127:-0.43531 128:-0.924999 
0.3559523724491577 1:0.175644 2:0.0752364 3:0.0314476 4:-0.389218 5:-0.482773 6:-0.766706 7:-0.246009 8:-0.736844 9:-0.59966 10:-0.459445 11:0.391019 12:0.010513 13:-0.116883 14:-0.433165 15:0.212315 16:0.20069 17:0.409324 18:0.314746 19:-0.0501621 20:-0.350484 21:-0.433834 22:-0.126435 23:-0.51086 24:-0.450091 25:-0.394125 26:0.330322 27:-0.566069 28:-0.502338 29:-0.533977 30:0.0711993 31:-0.0214605 32:-0.389124 33:0.102863 34:-0.237741 35:-0.00242413 36:-0.529551 37:-0.358855 38:-0.855738 39:0.000887069 40:-0.86685 41:-0.490456 42:-0.632008 43:-0.410772 44:-0.200266 45:0.134644 46:-0.0825183 47:0.453851 48:0.17702 49:0.223697 50:-0.379634 51:-0.0915482 52:-0.855095 53:0.172933 54:-0.588052 55:-0.640554 56:-0.665265 57:-0.023993 58:0.136951 59:-0.289976 60:-0.258493 61:0.0330649 62:-0.149035 63:-0.242877 64:-0.210888 65:-0.456711 66:0.0798915 67:-0.481264 68:-0.0230431 69:-0.511044 70:-0.288811 71:-0.0611459 72:-0.423874 73:-0.300254 74:0.0477682 75:-0.196215 76:0.782145 77:-0.772562 78:-0.183749 79:0.175662 80:0.18332 81:-0.378993 82:0.210254 83:-0.0666827 84:0.293371 85:-0.192852 86:-0.416497 87:-0.350039 88:-0.683905 89:-0.827794 90:0.64896 91:-0.545894 92:0.129567 93:-0.928232 94:-0.208343 95:-0.284447 96:-0.582696 97:-0.0139855 98:0.0821916 99:0.0231033 100:-0.349265 101:-0.445025 102:-0.696011 103:0.00353875 104:-0.470129 105:-0.548501 106:-0.257401 107:-0.337216 108:-0.384562 109:0.851515 110:0.0263904 111:0.12217 112:0.0589569 113:-0.293746 114:-0.0989917 115:-0.114275 116:-0.227192 117:-0.158737 118:-0.357698 119:-0.0701815 120:-0.533787 121:-0.189805 122:0.311004 123:-0.263139 124:-0.207552 125:0.150486 126:0.297059 127:-0.332539 128:-0.948591 
1.261506232114295 1:-0.200172 2:0.259422 3:-0.487077 4:-0.309377 5:-0.772978 6:0.54154 7:-0.862158 8:-0.032703 9:-0.443277 10:0.232185 11:-0.575255 12:-0.569246 13:-0.595899 14:-0.573963 15:-0.90339 16:-0.976098 17:-0.640981 18:-0.496912 19:-0.522306 20:-0.0513671 21:-0.87744 22:-0.358802 23:-0.470038 24:-0.191644 25:-0.52913 26:-0.361375 27:-0.896803 28:-0.773382 29:-0.799643 30:-0.590095 31:-0.281721 32:-0.537874 33:0.228959 34:0.47759 35:-0.255414 36:0.330949 37:-0.591869 38:0.298067 39:-0.621597 40:0.0160226 41:-0.443124 42:0.505696 43:-0.885903 44:-0.517734 45:-0.909553 46:-0.623256 47:-0.859235 48:-0.752392 49:-0.157673 50:-9.08044e-005 51:-0.398461 52:0.202771 53:-0.51222 54:-0.391315 55:-0.767014 56:0.0577859 57:-0.342244 58:-0.184999 59:-0.616745 60:-0.342083 61:-0.707005 62:-0.817518 63:-0.261403 64:-0.260002 65:-0.086231 66:0.379135 67:-0.493709 68:-0.379807 69:-0.151752 70:-0.191005 71:-0.672633 72:-0.584509 73:0.131196 74:0.479853 75:-0.221988 76:-0.398247 77:0.508285 78:-0.576547 79:-0.621131 80:-0.889635 81:-0.469385 82:-0.453076 83:-0.509149 84:-0.673205 85:-0.52946 86:-0.748807 87:-0.622375 88:-0.878168 89:-0.45349 90:-0.544698 91:-0.615069 92:-0.880149 93:-0.806028 94:-0.678346 95:-0.454551 96:-0.784426 97:0.893406 98:0.943796 99:-0.317136 100:0.264963 101:-0.834309 102:-0.363029 103:-0.62707 104:-0.410245 105:-0.400102 106:0.43376 107:-0.54071 108:-0.391138 109:-0.674242 110:-0.569816 111:-0.656084 112:-0.579082 113:-0.213842 114:-0.0202366 115:-0.572832 116:0.45342 117:-0.848832 118:-0.528393 119:-0.641638 120:-0.0780878 121:-0.0112114 122:-0.356893 123:-0.498106 124:-0.667695 125:-0.678683 126:-0.8938 127:-0.384563 128:-0.932363 
0.3335201861644513 1:-0.704669 2:-0.326134 3:-0.0242753 4:-0.355477 5:-0.530965 6:-0.318837 7:-0.118576 8:-0.289839 9:-0.703016 10:-0.35946 11:-0.00828676 12:-0.266634 13:0.468239 14:-0.113546 15:0.40686 16:0.257475 17:-0.434303 18:-0.331128 19:-0.392096 20:-0.282906 21:-0.410818 22:-0.349441 23:-0.169998 24:-0.242504 25:-0.332541 26:-0.36182 27:-0.70244 28:-0.71247 29:-0.277998 30:0.0952198 31:1 32:0.000680669 33:-0.478297 34:-0.777621 35:-0.440051 36:-0.743496 37:-0.646598 38:-0.56675 39:-0.12187 40:-0.646752 41:-0.719643 42:-0.750523 43:-0.810639 44:-0.619902 45:-0.443162 46:-0.228606 47:0.209087 48:-0.256396 49:-0.380399 50:-0.380055 51:-0.224569 52:-0.29489 53:-0.372715 54:-0.472955 55:-0.0175362 56:-0.367972 57:-0.248915 58:-0.358104 59:-0.26593 60:-0.464231 61:0.00616928 62:-0.176763 63:0.676605 64:0.105701 65:-0.509117 66:-0.34787 67:-0.227855 68:-0.500042 69:-0.218483 70:-0.551924 71:0.155977 72:-0.439101 73:0.00374303 74:-0.0696801 75:0.155155 76:-0.0872759 77:-0.675669 78:-0.308836 79:0.285607 80:-0.0437383 81:-0.500109 82:-0.257887 83:-0.273542 84:-0.331933 85:-0.39824 86:-0.708953 87:-0.2129 88:-0.645094 89:-0.460176 90:-0.560984 91:-0.0659476 92:-0.623579 93:-0.763024 94:-0.532347 95:0.293065 96:-0.372858 97:-0.657517 98:-0.687432 99:-0.353395 100:-0.478799 101:-0.784487 102:-0.776354 103:-0.24621 104:-0.541458 105:-0.479689 106:-0.76984 107:-0.0166338 108:-0.772912 109:0.161858 110:-0.419342 111:-0.175041 112:-0.272552 113:-0.107207 114:-0.186859 115:-0.293603 116:-0.314162 117:-0.390304 118:-0.477121 119:0.247646 120:-0.551241 121:0.243937 122:-0.154155 123:0.257754 124:-0.740521 125:0.365458 126:-0.0981832 127:0.56933 128:-0.923535 
0.30591750993647 1:0.0184998 2:0.135316 3:-0.318083 4:-0.274657 5:-0.318773 6:-0.178871 7:0.192095 8:0.21064 9:-0.806373 10:-0.276802 11:-0.0490139 12:-0.513459 13:-0.254519 14:-0.290764 15:0.290363 16:0.461004 17:-0.0696942 18:-0.122574 19:-0.42064 20:-0.39563 21:-0.400629 22:0.220741 23:0.0402389 24:-0.00459001 25:-0.612309 26:-0.259032 27:-0.798629 28:-0.780704 29:-0.49648 30:-0.301466 31:-0.115602 32:-0.0725642 33:-0.240059 34:-0.543054 35:-0.407921 36:-0.484839 37:-0.607039 38:-0.330539 39:-0.152098 40:-0.139597 41:-0.709006 42:-0.407962 43:-0.724438 44:-0.621747 45:-0.483954 46:-0.390155 47:-0.100777 48:-0.193783 49:-0.385544 50:-0.496418 51:-0.0430607 52:-0.396976 53:0.0659033 54:-0.416538 55:0.33676 56:-0.0801357 57:-0.146932 58:-0.201235 59:-0.505507 60:-0.478229 61:-0.0236742 62:-0.292294 63:0.13653 64:0.188537 65:-0.379823 66:0.131153 67:-0.634263 68:-0.311773 69:-0.617438 70:-0.210866 71:0.0734527 72:-0.0988032 73:-0.439178 74:0.38426 75:0.255784 76:0.170189 77:-0.595675 78:-0.710248 79:0.506163 80:-0.26175 81:-0.557862 82:-0.313383 83:-0.176142 84:-0.131835 85:-0.545018 86:-0.413427 87:0.0741014 88:-0.430167 89:-0.749002 90:-0.0372819 91:-0.613451 92:-0.362116 93:-0.529837 94:-0.546462 95:-0.4507 96:-0.563043 97:-0.0539983 98:-0.51488 99:-0.230806 100:-0.400058 101:-0.688546 102:-0.735206 103:-0.13858 104:-0.469217 105:-0.485887 106:-0.00643727 107:-0.0668701 108:-0.500894 109:0.1111 110:-0.386208 111:-0.0241098 112:-0.577754 113:-0.252647 114:-0.128932 115:-0.206547 116:0.0185735 117:-0.27414 118:-0.53601 119:0.503678 120:0.24606 121:0.0392212 122:0.0368758 123:-0.0104323 124:-0.676485 125:0.239952 126:-0.0303053 127:-0.148197 128:-0.948788 
0.1227935275831746 1:-0.740338 2:-0.72028 3:-0.0475321 4:-0.572181 5:-0.468206 6:-0.0763073 7:-0.184379 8:-0.183219 9:-0.48384 10:-0.524777 11:0.245905 12:-0.243731 13:0.354836 14:0.031057 15:-0.276223 16:0.114353 17:-0.20067 18:-0.521655 19:0.0247569 20:-0.26056 21:-0.179918 22:-0.0569546 23:0.364386 24:-0.193716 25:-0.611737 26:-0.218203 27:-0.464848 28:-0.560711 29:0.470673 30:0.418479 31:0.377395 32:0.575797 33:-0.433464 34:-0.740927 35:-0.204763 36:-0.586784 37:-0.535474 38:-0.617612 39:-0.177994 40:-0.661603 41:-0.586009 42:-0.550083 43:-0.5854 44:-0.218013 45:-0.269825 46:-0.311736 47:-0.0842505 48:-0.144308 49:-0.424262 50:-0.571021 51:0.131695 52:-0.0896752 53:0.463227 54:-0.68107 55:0.344027 56:-0.413758 57:-0.557702 58:-0.352337 59:-0.42818 60:-0.250769 61:0.643003 62:-0.135628 63:0.135013 64:0.00459656 65:-0.551927 66:-0.587851 67:-0.3589 68:-0.681001 69:-0.358287 70:-0.074734 71:-0.0965998 72:-0.446941 73:-0.178453 74:-0.302123 75:0.0414489 76:0.248396 77:-0.823749 78:0.234023 79:-0.258712 80:0.246227 81:-0.497512 82:-0.645904 83:0.163271 84:-0.337915 85:-0.196208 86:-0.436952 87:0.0523272 88:-0.69334 89:-0.746729 90:-0.254363 91:-0.417488 92:-0.186207 93:-0.905235 94:-0.0664346 95:-0.24505 96:-0.364385 97:-0.20307 98:-0.551071 99:0.210983 100:-0.384969 101:-0.594656 102:-0.506117 103:-0.0478975 104:-0.516867 105:-0.228461 106:-0.379439 107:0.132587 108:-0.503419 109:0.612747 110:-0.0323381 111:0.0803089 112:0.0602161 113:-0.451619 114:-0.310524 115:0.339355 116:0.00252775 117:-0.329399 118:-0.431344 119:0.135385 120:-0.469408 121:-0.504214 122:-0.615404 123:0.0368454 124:-0.435479 125:-0.297117 126:0.169245 127:0.121631 128:-0.875313 
1.062907954300183 1:-0.341214 2:-0.133617 3:-0.237194 4:-0.220355 5:-0.358407 6:0.565114 7:-0.202116 8:-0.131879 9:-0.825067 10:0.170877 11:-0.0797842 12:0.0226955 13:-0.368784 14:-0.194683 15:-0.550616 16:-0.438985 17:-0.438837 18:-0.515901 19:-0.219947 20:0.0499247 21:-0.165009 22:1 23:0.0879517 24:-0.150767 25:-0.870161 26:-0.279002 27:-0.784897 28:-0.681096 29:-0.0574244 30:0.26765 31:-0.0314966 32:0.0209306 33:-0.266293 34:-0.00458744 35:-0.427814 36:-0.362289 37:-0.53122 38:-0.334569 39:-0.463801 40:-0.894815 41:-0.777032 42:-0.593219 43:-0.804919 44:-0.609427 45:-0.626178 46:-0.470804 47:-0.490306 48:-0.595774 49:-0.450425 50:-0.240866 51:0.190805 52:0.138856 53:0.294549 54:-0.059381 55:-0.165737 56:-0.314815 57:-0.898187 58:-0.0378148 59:-0.642981 60:-0.300407 61:-0.141802 62:0.168119 63:-0.127278 64:-0.363167 65:-0.223401 66:-0.00155476 67:-0.204421 68:-0.208533 69:0.0801528 70:0.123729 71:-0.429717 72:-0.252177 73:-0.537741 74:0.168123 75:-0.402364 76:0.48581 77:-0.754353 78:-0.604532 79:-0.552852 80:-0.516023 81:-0.697382 82:-0.493215 83:-0.502864 84:-0.290539 85:-0.416665 86:-0.197434 87:-0.658311 88:-0.782906 89:-0.956014 90:-0.604509 91:-1 92:-0.65664 93:-0.787034 94:-0.564919 95:0.263056 96:-0.720047 97:0.653169 98:0.572452 99:0.345356 100:0.0933506 101:-0.728448 102:-0.420899 103:-0.565787 104:-0.565484 105:-0.394608 106:0.968164 107:-0.273044 108:-0.302228 109:-0.0170619 110:-0.29308 111:-0.449103 112:-0.258884 113:-0.452944 114:-0.106911 115:0.292876 116:0.545493 117:-0.58161 118:-0.128483 119:-0.328789 120:-0.537792 121:-0.429525 122:-0.207569 123:-0.106713 124:-0.296969 125:-0.480781 126:-0.149541 127:-0.092852 128:-0.925079 
0.4428571629397068 1:0.644666 2:0.0868576 3:0.196622 4:-0.571351 5:-0.387339 6:-0.460808 7:-0.434561 8:-0.532963 9:-0.319908 10:-0.199005 11:0.177941 12:-0.389198 13:-0.274841 14:-0.440661 15:-0.337985 16:-0.307625 17:-0.00021517 18:0.0324631 19:-0.235094 20:-0.325619 21:-0.756625 22:0.111382 23:-0.695305 24:-0.387426 25:-0.41555 26:0.135286 27:-0.754471 28:-0.716933 29:-0.459404 30:-0.345627 31:-0.383743 32:-0.722433 33:0.323722 34:-0.257021 35:-0.177059 36:-0.446583 37:-0.607056 38:-0.601507 39:-0.335278 40:-0.586338 41:-0.0687656 42:-0.00684944 43:-0.657647 44:-0.113457 45:-0.118808 46:-0.24813 47:0.324463 48:-0.0606661 49:0.179399 50:-0.236469 51:0.0388826 52:-0.388841 53:-0.347406 54:-0.384399 55:-0.512807 56:-0.392333 57:-0.189567 58:0.440692 59:-0.620968 60:-0.560409 61:-0.245191 62:-0.027485 63:-0.107668 64:-0.132426 65:-0.275496 66:0.142082 67:-0.480812 68:-0.35983 69:-0.203028 70:-0.235117 71:-0.403149 72:-0.419112 73:0.0511477 74:0.300425 75:-0.318506 76:0.326084 77:-0.754827 78:-0.164456 79:-0.319373 80:-0.193924 81:-0.222984 82:-0.10093 83:0.000375889 84:-0.165338 85:-0.346454 86:-0.565472 87:-0.470254 88:-0.627483 89:-0.626117 90:0.414571 91:-0.424563 92:-0.143103 93:-0.742813 94:-0.480143 95:-0.497037 96:-0.617628 97:0.511892 98:0.099892 99:-0.0177598 100:-0.210493 101:-0.692581 102:-0.640503 103:-0.419479 104:-0.522223 105:0.0904513 106:0.496631 107:-0.479291 108:-0.399341 109:0.210573 110:-0.378668 111:-0.501312 112:-0.494413 113:-0.0800831 114:-0.0462713 115:0.0169726 116:0.116264 117:-0.618592 118:-0.418971 119:-0.577195 120:-0.528039 121:0.109272 122:0.305397 123:-0.424508 124:-0.333081 125:-0.287294 126:-0.202248 127:-0.403721 128:-0.930429 
0.4168350925537184 1:-0.0752879 2:-0.520121 3:-0.292832 4:-0.536597 5:-0.322374 6:-0.201407 7:-0.308342 8:-0.521797 9:-0.85868 10:-0.521223 11:-0.152117 12:-0.50606 13:0.277704 14:-0.0763753 15:0.0516099 16:0.033202 17:-0.0802676 18:-0.471507 19:-0.0449991 20:-0.340237 21:-0.441443 22:-0.148116 23:0.278636 24:-0.294307 25:-0.683502 26:-0.114304 27:-0.560313 28:-0.602507 29:-0.218403 30:0.20694 31:0.379797 32:0.0792493 33:-0.125752 34:-0.623396 35:-0.0494242 36:-0.400833 37:-0.426132 38:-0.59635 39:0.0958376 40:-0.526628 41:-0.652885 42:-0.323873 43:-0.595683 44:-0.123687 45:-0.0892807 46:0.0903926 47:0.340655 48:0.293239 49:-0.0462763 50:-0.439632 51:0.0537757 52:-0.281928 53:0.0490215 54:-0.660607 55:0.182848 56:-0.403202 57:-0.243053 58:-0.159361 59:-0.557209 60:-0.182945 61:-0.0183863 62:-0.255523 63:0.228944 64:0.207195 65:-0.500733 66:-0.417998 67:-0.299186 68:-0.422322 69:-0.318087 70:-0.189836 71:-0.146373 72:-0.304919 73:-0.474816 74:0.118335 75:-0.194856 76:0.0778384 77:-0.706179 78:0.146746 79:0.203772 80:-0.20176 81:-0.323629 82:-0.320878 83:0.422214 84:0.0982039 85:-0.30258 86:-0.460145 87:0.231465 88:-0.529689 89:-0.531313 90:0.260877 91:-0.340286 92:-0.207456 93:-0.806759 94:-0.195025 95:-0.0917158 96:-0.378816 97:-0.383217 98:-0.730965 99:0.00161019 100:-0.537749 101:-0.641447 102:-0.693634 103:0.0568449 104:-0.431597 105:-0.330305 106:-0.471002 107:-0.130354 108:-0.507199 109:0.229941 110:-0.164992 111:0.102797 112:-0.180603 113:-0.373202 114:-0.407764 115:0.000315 116:0.09614 117:-0.467714 118:-0.52133 119:0.364541 120:-0.274359 121:-0.150034 122:-0.240203 123:-0.43374 124:-0.543195 125:-0.0513029 126:-0.212512 127:-0.0752267 128:-0.879991 
1.410130902315328 1:-0.831465 2:-0.479819 3:0.163604 4:-0.381557 5:-0.678273 6:-0.19715 7:-0.327243 8:-0.200077 9:-0.841604 10:-0.362227 11:0.755894 12:-0.180147 13:0.412784 14:-0.273493 15:-0.39053 16:0.252434 17:-0.34208 18:-0.453341 19:0.147143 20:0.202713 21:-0.322578 22:0.167419 23:0.32785 24:-0.192334 25:-0.397716 26:-0.24506 27:-0.541353 28:-0.54797 29:0.49546 30:0.428154 31:-0.162273 32:0.447564 33:-0.486425 34:-0.394148 35:-0.231051 36:-0.421884 37:-0.523932 38:-0.2838 39:0.176868 40:-0.712483 41:-0.686063 42:-0.929145 43:-0.654818 44:-0.563404 45:-0.297532 46:-0.375449 47:-0.262117 48:-0.349317 49:-0.160052 50:-0.38341 51:-0.0778884 52:-0.319487 53:0.933733 54:0.0379405 55:0.800446 56:-0.260158 57:-0.440177 58:-0.639373 59:-0.534949 60:-0.737278 61:0.775779 62:0.168918 63:-0.0507898 64:-0.283636 65:-0.660019 66:-0.121395 67:-0.14285 68:-0.257685 69:-0.619581 70:-0.0505647 71:-0.497376 72:0.0162409 73:-0.570933 74:0.132302 75:0.217206 76:0.45271 77:-0.797816 78:-0.0858872 79:-0.166547 80:0.391495 81:-0.674978 82:-0.639753 83:-0.158189 84:-0.164288 85:-0.249217 86:-0.0376643 87:-0.188924 88:-0.495063 89:-0.899075 90:-0.541281 91:-0.488567 92:-0.555336 93:-0.73843 94:-0.0228719 95:-0.37989 96:-0.526752 97:-0.227534 98:-0.123827 99:0.252013 100:-0.0854497 101:-0.761791 102:-0.504172 103:-0.0140722 104:-0.369201 105:-0.579913 106:-0.163014 107:0.0194619 108:-0.359546 109:-0.00128458 110:0.00477696 111:0.125307 112:0.207276 113:-0.219611 114:-0.426129 115:-0.225844 116:0.219939 117:-0.371169 118:-0.0153447 119:0.49485 120:-0.248623 121:-0.360934 122:-0.551465 123:0.0905573 124:-0.80605 125:0.380732 126:0.391459 127:-0.236579 128:-0.917709 
