svm_type c_svc
kernel_type rbf
gamma 0.0078125
nr_class 2
total_sv 139
rho 4.6145
label 0 1
nr_sv 69 70
SV
32 1:-0.542907 2:-0.972865 3:0.239262 4:-0.958299 5:-0.885386 6:-0.970238 7:0.969338 8:-0.79555 9:-0.318287 10:1 11:0.104687 12:1 13:-0.812218 14:-0.432318 15:0.150672 16:1 17:-0.854825 18:-1 19:-0.841597 20:-0.886817 21:-0.786085 22:-0.984044 23:-0.38837 24:-0.714765 25:-0.593993 26:0.192337 27:-0.945187 28:0.234034 29:-0.0491077 30:0.602321 31:0.819196 32:1 33:-0.687731 34:-0.57095 35:1 36:0.306026 37:-1 38:-1 39:-0.422554 40:-0.765684 41:-0.786993 42:0.417754 43:0.233477 44:1 45:-1 46:-1 47:-0.434439 48:-0.353104 49:-0.731826 50:-0.86658 51:0.258435 52:-0.146941 53:-1 54:-1 55:-0.276875 56:-0.736078 57:-0.741798 58:-0.0998112 59:-0.37299 60:1 61:-0.948067 62:-0.974226 63:-0.609385 64:0.524712 65:0.0843905 66:-0.477688 67:-0.755281 68:-1 69:1 70:-0.237498 71:0.319989 72:-0.628275 73:-0.380779 74:-0.0727749 75:-0.701365 76:-1 77:-0.732116 78:0.144344 79:-1 80:-0.786473 81:-0.588121 82:-0.568621 83:-1 84:-1 85:1 86:-0.059296 87:0.0362087 88:-0.363671 89:-0.509847 90:-0.0146725 91:-0.865208 92:-0.744094 93:0.638607 94:1 95:-0.673258 96:-0.150732 97:1 98:1 99:1 100:-0.624577 101:-0.37253 102:-0.794077 103:0.0315495 104:-0.704729 105:-0.995462 106:-0.200281 107:-0.687158 108:-0.899578 109:-1 110:-1 111:-1 112:-0.966057 113:0.548773 114:0.701038 115:-0.482562 116:-0.59184 117:1 118:-0.219127 119:1 120:-0.348322 121:-0.875257 122:0.94925 123:-0.829928 124:0.0251031 125:-0.9578 126:-0.489377 127:-0.868916 128:-0.908184 
32 1:-0.411034 2:-0.741437 3:-0.235263 4:-0.660152 5:-0.393605 6:-0.639811 7:-0.101448 8:-0.584076 9:-0.380357 10:-0.358238 11:-0.305991 12:-0.619539 13:-0.336234 14:-0.334529 15:-0.421093 16:-0.578565 17:-0.686515 18:-0.649699 19:-0.399014 20:-0.454648 21:-0.2084 22:-0.309735 23:-0.606975 24:-0.0926816 25:-0.199463 26:-0.365819 27:-0.440776 28:-0.212766 29:0.0544797 30:-0.0601484 31:-0.121875 32:-0.56167 33:-0.713991 34:-0.169361 35:-0.695008 36:-0.34574 37:0.21561 38:-0.544008 39:-0.492851 40:-0.0810108 41:-0.48742 42:-0.295758 43:-0.267041 44:-0.58334 45:0.0568606 46:0.0419579 47:-0.149371 48:-0.27143 49:-0.427602 50:-0.151177 51:-0.387474 52:0.0452082 53:0.12772 54:-0.300195 55:-0.51587 56:-0.312192 57:-0.237236 58:-0.325371 59:-0.339332 60:-0.633219 61:-0.231178 62:-0.324682 63:-0.509774 64:-0.330165 65:-0.199346 66:-0.406577 67:-0.348747 68:-0.579618 69:-0.526104 70:-0.218658 71:-0.204356 72:-0.213407 73:-0.064993 74:-0.700174 75:0.088885 76:-0.312843 77:0.10051 78:-0.0526933 79:-0.285785 80:-0.667173 81:-0.571366 82:-0.207101 83:-0.0789611 84:-0.526406 85:-0.736296 86:-0.498344 87:-0.43478 88:-0.226302 89:-0.287514 90:-0.617879 91:-0.115145 92:-0.0946152 93:-0.0307884 94:-0.421099 95:-0.0636493 96:-0.265908 97:-0.598624 98:-0.233831 99:-0.322164 100:-0.531861 101:-0.229803 102:-0.0798108 103:-0.241303 104:-0.521687 105:-0.428613 106:-0.635044 107:-0.0123248 108:-0.817084 109:-0.130324 110:-0.273423 111:-0.0603711 112:-0.644614 113:-0.225334 114:-0.419089 115:-0.567013 116:-0.665819 117:-0.402933 118:-0.536492 119:-0.457322 120:-0.63188 121:0.0606185 122:-0.116323 123:-0.146626 124:-0.253511 125:-0.0128205 126:-0.264405 127:-0.33837 128:-0.935547 
5.30890646459615 1:-0.581127 2:-0.609799 3:-0.35187 4:-0.624477 5:-0.72968 6:-0.461432 7:-0.435844 8:-0.246824 9:-0.154993 10:-0.213988 11:-0.125677 12:-0.335798 13:0.00885817 14:-0.0291449 15:-0.135562 16:-0.306542 17:-0.941353 18:-0.70122 19:-0.581837 20:-0.463335 21:-0.937837 22:-0.319651 23:-0.746993 24:0.207699 25:-0.639992 26:-0.562377 27:-0.481841 28:-0.166673 29:0.191426 30:-0.107439 31:0.188552 32:-0.386964 33:-0.81863 34:-0.183369 35:-0.703133 36:-0.124896 37:-0.427855 38:-0.446949 39:-0.705619 40:0.103165 41:-0.396178 42:-0.582358 43:-0.304992 44:-0.726319 45:-0.00314076 46:-0.22473 47:-0.161987 48:-0.318646 49:-0.73359 50:-0.202608 51:-0.463822 52:0.382848 53:-0.4192 54:-0.199786 55:-0.544019 56:0.657311 57:-0.636402 58:-0.811534 59:-0.666363 60:-0.705269 61:-0.331587 62:-0.49907 63:-0.313897 64:-0.17827 65:0.0419765 66:0.0427482 67:0.0149441 68:-0.305904 69:-0.740149 70:-0.63211 71:-0.616445 72:-0.443296 73:0.333472 74:-0.624259 75:-0.0496318 76:-0.37025 77:-0.272101 78:-0.603604 79:-0.369471 80:-0.824775 81:-0.520789 82:0.491012 83:0.303365 84:-0.127935 85:-0.838579 86:-0.572163 87:-0.589357 88:-0.133398 89:-0.269026 90:-0.584224 91:-0.0175308 92:0.0387809 93:-0.231478 94:-0.677109 95:-0.324607 96:-0.495157 97:-0.307304 98:0.00894922 99:-0.0710864 100:-0.335708 101:-0.697094 102:-0.630085 103:-0.596508 104:-0.625103 105:-0.387705 106:-0.819137 107:-0.304532 108:-0.856806 109:-0.357219 110:-0.749317 111:-0.364251 112:-0.906426 113:0.0602947 114:0.106347 115:-0.0925091 116:0.28562 117:-0.464431 118:-0.333624 119:-0.340143 120:-0.350821 121:-0.133655 122:-0.440686 123:-0.096173 124:-0.279834 125:-0.485497 126:-0.784875 127:-0.40345 128:-0.959365 
32 1:-0.648645 2:-0.572083 3:-0.602031 4:-0.218882 5:-0.649142 6:-0.0499088 7:-0.439578 8:-0.52226 9:-0.340069 10:-0.724176 11:-0.33824 12:-0.871839 13:-0.264004 14:-0.426908 15:-0.528426 16:-0.681235 17:-0.835822 18:-0.640195 19:-0.676182 20:0.160112 21:-0.362522 22:0.559582 23:-0.652738 24:-0.558722 25:-0.778798 26:-1 27:-0.408828 28:-0.855658 29:-0.231703 30:-0.586425 31:-0.196921 32:-0.796442 33:-0.799728 34:-0.157066 35:-0.727815 36:0.0139839 37:0.00230845 38:0.393192 39:-0.832087 40:-0.289564 41:-0.415712 42:-0.738178 43:-0.229056 44:-0.708235 45:0.105772 46:0.304362 47:-0.234058 48:-0.365793 49:-0.739827 50:-0.483989 51:-0.623388 52:-0.14072 53:-0.201239 54:0.655425 55:-0.736364 56:-0.154254 57:-0.74559 58:-0.992555 59:-0.251295 60:-0.888704 61:-0.212606 62:-0.223054 63:-0.470291 64:-0.529868 65:-0.227666 66:-0.483248 67:-0.378176 68:-0.0142956 69:-0.725966 70:-0.130963 71:-0.815393 72:-0.499187 73:0.0313656 74:-0.665954 75:0.0795366 76:-0.684337 77:0.119982 78:-0.0342195 79:-0.356323 80:-0.841321 81:-0.711401 82:-0.493133 83:-0.0723787 84:0.0715023 85:-0.7493 86:-0.423443 87:-0.67883 88:-0.744262 89:-0.392249 90:-0.815911 91:-0.201899 92:-0.527601 93:-0.0116192 94:-0.59386 95:-0.328226 96:-0.507727 97:-0.773505 98:-0.390831 99:-0.474639 100:-0.325559 101:-0.673509 102:-0.090345 103:-0.919682 104:-0.843844 105:-0.177825 106:-0.651148 107:0.00461003 108:-0.842475 109:0.0600208 110:-0.474182 111:-0.24573 112:-0.573555 113:-0.410195 114:-0.647543 115:-0.719364 116:-0.702286 117:-0.596676 118:-0.52768 119:-0.601632 120:-0.802996 121:-0.417318 122:-0.662011 123:-0.140616 124:-0.62415 125:-0.260883 126:-0.294965 127:-0.280149 128:-0.941528 
27.5564467242268 1:-0.637999 2:-0.771926 3:-0.301248 4:-0.6889 5:-0.496908 6:-0.476207 7:-0.174102 8:-0.370364 9:-0.367741 10:-0.453089 11:-0.362 12:-0.621797 13:-0.315646 14:-0.291443 15:-0.459934 16:-0.597259 17:-0.707748 18:-0.644269 19:-0.445043 20:-0.377272 21:-0.336295 22:-0.0256718 23:-0.668124 24:-0.0873587 25:-0.308722 26:-0.347224 27:-0.431136 28:-0.101531 29:0.081261 30:-0.0689989 31:-0.0977547 32:-0.675059 33:-0.71596 34:-0.214979 35:-0.713818 36:-0.342436 37:0.0586347 38:-0.301687 39:-0.648607 40:-0.277249 41:-0.378034 42:-0.435322 43:-0.255264 44:-0.760059 45:0.282797 46:-0.0517578 47:-0.0895405 48:-0.459163 49:-0.602142 50:-0.0759451 51:-0.458717 52:-0.0324415 53:0.0172873 54:-0.274107 55:-0.60691 56:-0.314066 57:-0.267349 58:-0.266526 59:-0.431571 60:-0.711931 61:-0.144962 62:-0.38804 63:-0.563928 64:-0.554069 65:-0.36573 66:-0.291714 67:-0.409135 68:-0.480091 69:-0.567986 70:-0.47198 71:-0.395567 72:-0.282106 73:-0.120483 74:-0.700888 75:0.0856683 76:-0.434663 77:-0.0356389 78:-0.332384 79:-0.0596984 80:-0.712269 81:-0.684584 82:-0.183745 83:-0.139848 84:-0.218795 85:-0.777702 86:-0.411079 87:-0.450353 88:-0.324144 89:-0.306736 90:-0.689044 91:0.289025 92:-0.157225 93:0.0957522 94:-0.53264 95:-0.0909297 96:-0.553306 97:-0.617864 98:-0.422791 99:-0.331323 100:-0.602074 101:-0.28845 102:-0.235392 103:-0.305037 104:-0.562099 105:-0.326507 106:-0.755634 107:0.211215 108:-0.850747 109:-0.0573411 110:-0.477159 111:-0.115385 112:-0.696451 113:-0.318961 114:-0.540688 115:-0.569413 116:-0.596853 117:-0.390304 118:-0.266227 119:-0.42148 120:-0.687135 121:-0.0732123 122:-0.287253 123:0.428913 124:-0.207605 125:-0.0319978 126:-0.322374 127:-0.515846 128:-0.954221 
18.1057045388208 1:-0.454238 2:-0.726066 3:-0.132158 4:-0.608285 5:-0.329479 6:-0.45476 7:-0.00858349 8:-0.495252 9:-0.438363 10:-0.427935 11:-0.341267 12:-0.604603 13:-0.418929 14:-0.361604 15:-0.350228 16:-0.630263 17:-0.678662 18:-0.674476 19:-0.398164 20:-0.249207 21:-0.299686 22:0.105742 23:-0.520827 24:-0.195318 25:-0.136759 26:-0.0331113 27:-0.475965 28:0.184432 29:-0.0823616 30:0.0614914 31:-0.0709104 32:-0.642065 33:-0.739914 34:-0.208647 35:-0.699543 36:-0.398361 37:0.113884 38:-0.235056 39:-0.615244 40:-0.263676 41:-0.571164 42:-0.313812 43:-0.311321 44:-0.65889 45:-0.423978 46:0.0669933 47:-0.194047 48:-0.285007 49:-0.339107 50:-0.106553 51:-0.228938 52:0.150529 53:0.171831 54:-0.0189075 55:-0.534604 56:-0.230767 57:-0.112348 58:0.147197 59:-0.379058 60:-0.545059 61:-0.383905 62:-0.233238 63:-0.567977 64:-0.525041 65:-0.435514 66:-0.487131 67:-0.399712 68:-0.168511 69:-0.515156 70:-0.132022 71:-0.0150472 72:0.0146353 73:-0.139721 74:-0.764215 75:-0.276606 76:-0.559861 77:-0.3884 78:0.0968437 79:-0.241567 80:-0.634961 81:-0.582309 82:-0.530733 83:-0.219934 84:0.128785 85:-0.789345 86:-0.354862 87:-0.374067 88:-0.16161 89:-0.318798 90:-0.670092 91:-0.509138 92:0.0477612 93:-0.304415 94:-0.479405 95:-0.352071 96:-0.274757 97:-0.618511 98:-0.194778 99:-0.408147 100:-0.394664 101:-0.02385 102:0.109558 103:-0.125563 104:-0.458803 105:-0.458545 106:-0.675662 107:-0.166996 108:-0.841648 109:-0.394975 110:-0.275907 111:-0.120428 112:-0.476423 113:-0.114876 114:-0.431785 115:-0.623747 116:-0.474732 117:-0.368506 118:-0.378289 119:-0.411062 120:-0.700428 121:-0.190532 122:-0.170856 123:-0.312084 124:-0.250102 125:-0.399944 126:-0.432543 127:-0.431857 128:-0.942289 
32 1:-0.531754 2:-0.701197 3:0.140651 4:-0.634086 5:-0.513034 6:-0.540201 7:0.0303953 8:-0.430227 9:-0.348464 10:-0.437872 11:-0.160642 12:-0.525192 13:-0.699376 14:-0.508064 15:-0.538014 16:-0.6445 17:-0.574009 18:-0.523707 19:0.0692961 20:-0.278395 21:-0.499451 22:-0.0437012 23:-0.371554 24:0.244078 25:-0.253051 26:0.164642 27:-0.0609012 28:0.637629 29:-0.512644 30:-0.211268 31:-0.301969 32:-0.658228 33:-0.799335 34:-0.361993 35:-0.727169 36:-0.596651 37:-0.0457953 38:-0.431383 39:-0.617893 40:-0.424879 41:-0.516047 42:-0.558873 43:-0.119056 44:-0.701749 45:-0.527404 46:-0.305326 47:-0.235238 48:-0.48203 49:-0.41494 50:0.129503 51:-0.18652 52:0.190871 53:0.262548 54:-0.083535 55:-0.413332 56:-0.254339 57:0.304358 58:0.380849 59:-0.19371 60:-0.366487 61:-0.447699 62:-0.298486 63:-0.372182 64:-0.383361 65:-0.292561 66:0.128223 67:0.026569 68:-0.199139 69:-0.557404 70:0.283379 71:0.307784 72:0.383731 73:-0.274694 74:-0.631611 75:0.0125902 76:-0.0821334 77:-0.483091 78:-0.024528 79:-0.103166 80:-0.564957 81:-0.71076 82:-0.16615 83:-0.260388 84:-0.365481 85:-0.813776 86:-0.313197 87:-0.593409 88:-0.274761 89:-0.452704 90:-0.695483 91:-0.493065 92:0.245788 93:-0.571773 94:-0.653334 95:-0.600139 96:-0.5313 97:-0.567011 98:-0.314384 99:-0.225036 100:-0.627299 101:0.0677175 102:0.264211 103:0.292806 104:-0.365157 105:-0.221969 106:-0.546536 107:0.199548 108:-0.771076 109:-0.350716 110:-0.0778938 111:-0.132471 112:-0.753192 113:-0.397327 114:-0.428586 115:-0.623264 116:-0.642197 117:-0.401079 118:-0.283571 119:-0.484986 120:-0.695178 121:-0.133087 122:0.147595 123:-0.395332 124:0.261762 125:-0.571198 126:-0.264498 127:-0.558324 128:-0.941332 
0.7433921592238957 1:-0.744402 2:-0.584563 3:-0.263772 4:-0.433651 5:-0.926353 6:-0.158834 7:-0.473724 8:-0.327939 9:-0.382546 10:-0.628278 11:-0.567021 12:-0.666489 13:-0.527421 14:-0.407523 15:-0.628466 16:-0.768586 17:-0.919021 18:-0.436575 19:-0.579532 20:0.387303 21:-0.80555 22:0.110851 23:-0.789427 24:0.0296881 25:-0.727987 26:-0.00614389 27:-0.24097 28:-0.0804063 29:-0.330599 30:-0.473834 31:-0.436269 32:-0.817125 33:-0.807998 34:-0.00563501 35:-0.759217 36:-0.242566 37:0.280114 38:0.430299 39:-0.611182 40:0.160626 41:-0.696839 42:-0.575166 43:-0.562578 44:-0.745864 45:0.0256599 46:0.605323 47:-0.50249 48:-0.59201 49:-0.615249 50:0.0270169 51:-0.549015 52:0.387046 53:-0.249181 54:0.30888 55:-0.736871 56:-0.305635 57:-0.461488 58:-0.279171 59:-0.363832 60:-0.706646 61:-0.391983 62:-0.101273 63:-0.688069 64:-0.681433 65:-0.250281 66:-0.754454 67:-0.1631 68:0.56376 69:-0.824224 70:-0.511054 71:-0.168362 72:0.384694 73:-0.300787 74:-0.847345 75:-0.0909456 76:-0.362695 77:-0.343614 78:-0.791045 79:-0.516469 80:-0.884087 81:-0.783132 82:-0.225692 83:0.228491 84:0.884059 85:-0.913647 86:-0.683432 87:-0.48976 88:-0.181363 89:-0.371927 90:-0.695165 91:-0.0612802 92:0.250497 93:-0.356231 94:-0.624597 95:-0.34735 96:-0.60323 97:-0.694885 98:-0.563925 99:-0.353432 100:-0.334877 101:-0.255884 102:-0.290434 103:-0.266989 104:-0.248186 105:-0.429058 106:-0.829105 107:-0.141656 108:-0.808254 109:-0.314887 110:-0.742529 111:-0.223193 112:-0.620065 113:-0.397994 114:-0.703323 115:-0.598438 116:-0.601549 117:-0.694417 118:-0.778711 119:-0.463118 120:-0.800053 121:-0.233014 122:-0.559625 123:-0.0891243 124:-0.349856 125:-0.60374 126:-0.746554 127:-0.600538 128:-0.970683 
32 1:-0.116994 2:-0.68367 3:-0.210794 4:-0.761843 5:0.112618 6:-0.631232 7:0.117172 8:-0.662725 9:-0.184556 10:-0.334113 11:-0.338091 12:-0.591422 13:-0.152182 14:-0.14644 15:-0.221319 16:-0.277116 17:-0.489214 18:-0.733301 19:-0.432751 20:-0.533524 21:0.0626622 22:-0.334375 23:-0.402252 24:-0.55037 25:-0.421822 26:-0.626747 27:-0.402445 28:-0.807607 29:-0.0778806 30:-0.266837 31:0.150614 32:-0.547944 33:-0.447268 34:-0.382534 35:-0.531635 36:-0.204089 37:-0.0098494 38:-0.608681 39:-0.518023 40:-0.365298 41:-0.386562 42:-0.12076 43:-0.245765 44:-0.508074 45:-0.11975 46:0.0989905 47:-0.347696 48:0.264092 49:-0.259351 50:-0.3106 51:0.219211 52:0.136884 53:-0.0299346 54:-0.26394 55:-0.350126 56:-0.407872 57:-0.716918 58:-0.80301 59:-0.18272 60:-0.837714 61:-0.428145 62:-0.530803 63:-0.700287 64:-0.387858 65:-0.295605 66:-0.530575 67:-0.812533 68:-0.236671 69:-0.604277 70:-0.57996 71:-0.719425 72:-0.656421 73:-0.178042 74:-0.568394 75:-0.328274 76:-0.23539 77:0.565958 78:0.126684 79:-0.395393 80:-0.475557 81:-0.407901 82:0.105089 83:-0.427553 84:-0.435061 85:-0.623577 86:-0.388204 87:-0.256384 88:-0.451079 89:-0.282178 90:-0.637161 91:-0.476558 92:-0.512558 93:0.0397733 94:-0.168052 95:0.0904208 96:-0.0388491 97:-0.530576 98:-0.266683 99:-0.639537 100:-0.091669 101:-0.77284 102:-0.476112 103:-0.568853 104:-0.564104 105:-0.531661 106:-0.549372 107:-0.471158 108:-0.570053 109:-0.27406 110:-0.0739289 111:-0.484189 112:-0.462962 113:0.27613 114:-0.0738941 115:-0.436195 116:-0.486074 117:-0.452529 118:-0.382909 119:-0.296638 120:-0.55437 121:-0.4787 122:0.0211779 123:-0.193815 124:-0.220544 125:-0.465524 126:0.102546 127:-0.491836 128:-0.864323 
32 1:-0.240657 2:-0.720652 3:-0.342031 4:-0.832689 5:-0.22419 6:-0.426164 7:0.189417 8:-0.42293 9:-0.0770321 10:-0.0105009 11:-0.382031 12:-0.537651 13:-0.233465 14:0.264126 15:-0.255187 16:-0.323988 17:-0.527273 18:-0.626597 19:-0.540516 20:-0.6304 21:0.0296965 22:0.17155 23:-0.466956 24:0.159528 25:-0.131668 26:-0.11399 27:-0.734316 28:-0.332331 29:0.367365 30:0.508928 31:0.0880237 32:-0.346975 33:-0.491734 34:0.220672 35:-0.583057 36:-0.275394 37:0.313862 38:-0.165713 39:-0.448133 40:0.391606 41:-0.113338 42:0.154996 43:-0.368329 44:-0.438477 45:-0.448972 46:0.332075 47:-0.123548 48:0.311918 49:-0.182781 50:0.148574 51:-0.167843 52:0.0947101 53:0.29432 54:0.153932 55:-0.330062 56:0.112225 57:-0.378732 58:-0.256471 59:-0.654217 60:-0.638104 61:-0.657983 62:-0.293924 63:-0.479281 64:-0.196079 65:-0.171539 66:-0.21469 67:-0.731802 68:-0.775989 69:-0.354686 70:0.36405 71:-0.372163 72:-0.188031 73:-0.221906 74:-0.497069 75:-0.718905 76:-0.652767 77:-0.247164 78:0.312546 79:-0.597525 80:-0.591039 81:-0.511489 82:0.220978 83:-0.728614 84:-0.543963 85:-0.618605 86:-0.0615894 87:-0.33178 88:-0.027912 89:-0.418197 90:-0.499703 91:-1 92:-0.44563 93:-0.204053 94:-0.116322 95:-0.564194 96:-0.109586 97:-0.42283 98:0.238767 99:-0.594297 100:-0.481393 101:-0.24645 102:0.669542 103:-0.299917 104:-0.295016 105:-0.653647 106:-0.388164 107:-0.690344 108:-0.873753 109:-0.666533 110:-0.19087 111:-0.592771 112:-0.671158 113:-0.120565 114:0.0177075 115:-0.763031 116:-0.608656 117:-0.108736 118:0.158048 119:-0.297758 120:-0.490445 121:-0.627749 122:0.103702 123:-0.967413 124:-0.391559 125:-0.746015 126:0.022335 127:-0.64489 128:-0.908056 
26.68816563722766 1:-0.267645 2:-0.705097 3:-0.252309 4:-0.82024 5:-0.216834 6:-0.507576 7:0.19243 8:-0.388282 9:-0.00401619 10:-0.0669757 11:-0.371164 12:-0.48466 13:-0.235068 14:-0.035728 15:-0.228666 16:-0.380475 17:-0.610873 18:-0.57156 19:-0.437083 20:-0.616713 21:0.135681 22:0.0928213 23:-0.350111 24:0.0814475 25:-0.0978863 26:-0.0648391 27:-0.60001 28:-0.204912 29:0.223369 30:0.152595 31:-0.123711 32:-0.400071 33:-0.53712 34:0.074582 35:-0.618371 36:-0.122871 37:0.149676 38:-0.344768 39:-0.424917 40:0.313564 41:-0.217745 42:0.0187658 43:-0.383382 44:-0.422949 45:-0.42042 46:0.182665 47:-0.133323 48:0.146216 49:-0.181616 50:0.251436 51:-0.0730073 52:0.242777 53:-0.0058481 54:-0.0837714 55:-0.366489 56:-0.202334 57:-0.37636 58:-0.0328532 59:-0.588275 60:-0.575778 61:-0.642092 62:-0.28575 63:-0.586216 64:-0.328353 65:-0.255739 66:-0.199753 67:-0.596158 68:-0.713257 69:-0.456801 70:0.296656 71:-0.271855 72:-0.126338 73:-0.27051 74:-0.481032 75:-0.680255 76:-0.508946 77:-0.19864 78:0.208141 79:-0.353914 80:-0.589238 81:-0.519817 82:0.200634 83:-0.564096 84:-0.510629 85:-0.703388 86:-0.111287 87:-0.320513 88:0.0140633 89:-0.373906 90:-0.53217 91:-0.859704 92:-0.170202 93:-0.271016 94:-0.240268 95:-0.280379 96:-0.166578 97:-0.494241 98:0.198324 99:-0.474985 100:-0.348625 101:-0.270782 102:0.297278 103:-0.178357 104:-0.36613 105:-0.60762 106:-0.3951 107:-0.52565 108:-0.890686 109:-0.676975 110:-0.336938 111:-0.394316 112:-0.746744 113:-0.00410465 114:-0.189755 115:-0.647805 116:-0.52171 117:-0.177609 118:0.0150926 119:-0.370704 120:-0.391185 121:-0.31173 122:0.302505 123:-0.746947 124:-0.361129 125:-0.720175 126:-0.159843 127:-0.524113 128:-0.90462 
25.14276318840319 1:-0.504149 2:-0.640403 3:-0.378082 4:-0.221855 5:-0.557759 6:-0.733311 7:-0.495253 8:-0.506821 9:-0.68932 10:-0.677194 11:-0.653022 12:-0.837096 13:-0.356154 14:-0.80468 15:-0.602024 16:-0.847522 17:-0.752603 18:-0.447475 19:-0.63156 20:0.143924 21:-0.706628 22:-0.418743 23:-0.75241 24:-0.508668 25:-0.363051 26:-0.0921349 27:-0.70921 28:0.0423335 29:0.0101937 30:-0.678915 31:-0.263104 32:-0.826115 33:-0.812185 34:-0.383424 35:-0.798669 36:-0.390569 37:-0.0230625 38:-0.640515 39:-0.699493 40:-0.201221 41:0.00721716 42:-0.617361 43:-0.600141 44:-0.814652 45:0.839362 46:-0.279353 47:-0.091685 48:-0.576376 49:-0.689746 50:-0.307547 51:-0.773982 52:-0.0201328 53:-0.169004 54:-0.430711 55:-0.806066 56:-0.813629 57:0.421862 58:0.0137347 59:-0.585836 60:-0.774933 61:0.127349 62:-0.281259 63:-0.0586551 64:-0.616557 65:-0.894745 66:-0.66203 67:-0.48823 68:-0.149745 69:-0.648627 70:-0.628161 71:0.024067 72:0.126458 73:-0.028046 74:-0.806777 75:-0.497359 76:-0.372168 77:0.623747 78:-0.616957 79:-0.0457765 80:-0.827154 81:-0.689114 82:-0.145543 83:0.0310194 84:-0.272032 85:-0.839469 86:-0.803945 87:-0.538951 88:-0.491787 89:0.188779 90:-0.72107 91:0.120295 92:0.0310867 93:0.228408 94:-0.732018 95:0.450012 96:-0.672898 97:-0.749443 98:-0.748903 99:-0.425954 100:-0.464232 101:-0.259146 102:-0.476174 103:0.324662 104:-0.34828 105:0.470548 106:-0.734124 107:-0.60843 108:-0.87899 109:1 110:-0.413444 111:0.862172 112:-0.369398 113:-0.554412 114:-0.769565 115:-0.708889 116:-0.810744 117:-0.621589 118:-0.780925 119:-0.453962 120:-0.842773 121:0.622775 122:-0.627784 123:-0.193147 124:-0.651152 125:0.105026 126:-0.178703 127:-0.0267753 128:-0.964784 
32 1:-0.547447 2:-0.724001 3:-0.189808 4:-0.670531 5:-0.324164 6:-0.396354 7:-0.0944811 8:-0.428594 9:-0.269715 10:-0.351547 11:-0.293908 12:-0.624468 13:-0.35935 14:-0.252133 15:-0.358834 16:-0.547071 17:-0.711997 18:-0.604212 19:-0.572357 20:-0.343333 21:-0.303055 22:-0.039895 23:-0.658249 24:-0.0247769 25:-0.308976 26:-0.238134 27:-0.572743 28:0.0687338 29:0.102094 30:-0.130534 31:-0.0592253 32:-0.613478 33:-0.735311 34:-0.0211376 35:-0.651944 36:-0.150263 37:0.0762009 38:-0.242688 39:-0.594705 40:0.0724933 41:-0.149363 42:-0.304766 43:-0.24479 44:-0.670469 45:0.0665436 46:-0.0437251 47:-0.0183449 48:-0.311744 49:-0.47191 50:-0.0341246 51:-0.353397 52:0.401931 53:0.0773106 54:-0.171649 55:-0.559067 56:-0.262897 57:-0.160534 58:-0.250062 59:-0.450941 60:-0.628245 61:-0.331436 62:-0.301532 63:-0.43778 64:-0.379654 65:-0.445004 66:-0.210321 67:-0.364685 68:-0.390819 69:-0.604766 70:-0.412872 71:-0.101099 72:-0.104716 73:-0.217752 74:-0.596773 75:-0.390898 76:-0.363986 77:-0.246535 78:-0.167293 79:0.0248716 80:-0.649696 81:-0.564882 82:-0.0557323 83:-0.213077 84:-0.196141 85:-0.723787 86:-0.3874 87:-0.318734 88:-0.261965 89:-0.223257 90:-0.685102 91:-0.449874 92:0.0750238 93:-0.083004 94:-0.513212 95:-0.228024 96:-0.301784 97:-0.573255 98:-0.254342 99:-0.257341 100:-0.483699 101:-0.299476 102:-0.26551 103:-0.103903 104:-0.37578 105:-0.289161 106:-0.57199 107:-0.306539 108:-0.888228 109:-0.296039 110:-0.35053 111:-0.205887 112:-0.768356 113:-0.176765 114:-0.342266 115:-0.533379 116:-0.547221 117:-0.404709 118:-0.294125 119:-0.271374 120:-0.587136 121:-0.109916 122:-0.251193 123:-0.49379 124:-0.111085 125:-0.473374 126:-0.19652 127:-0.519891 128:-0.938085 
32 1:-0.512612 2:-0.69615 3:-0.207804 4:-0.725716 5:-0.246991 6:-0.363469 7:-0.0679932 8:-0.389264 9:-0.367521 10:-0.307528 11:-0.376246 12:-0.534086 13:-0.288446 14:-0.294977 15:-0.397913 16:-0.568796 17:-0.652705 18:-0.665484 19:-0.502301 20:-0.325646 21:-0.175359 22:0.0218055 23:-0.54874 24:0.156763 25:-0.210361 26:-0.0777601 27:-0.422576 28:-0.0370583 29:0.168287 30:0.0319896 31:-0.0278016 32:-0.644338 33:-0.708787 34:-0.14976 35:-0.705956 36:-0.424975 37:0.189227 38:-0.2931 39:-0.605205 40:-0.163249 41:-0.324329 42:-0.342017 43:-0.321994 44:-0.610791 45:0.183153 46:0.0888157 47:0.020148 48:-0.257364 49:-0.511557 50:-0.0899854 51:-0.377432 52:0.0966757 53:0.294757 54:-0.146034 55:-0.49138 56:-0.153798 57:-0.135033 58:-0.00547014 59:-0.510461 60:-0.646974 61:-0.1735 62:-0.217769 63:-0.414635 64:-0.451829 65:-0.250204 66:-0.284301 67:-0.387843 68:-0.549793 69:-0.599309 70:-0.212339 71:-0.117065 72:-0.0640622 73:-0.152026 74:-0.657736 75:-0.161712 76:-0.352728 77:0.0890461 78:-0.0495106 79:-0.424562 80:-0.69535 81:-0.560924 82:-0.0935941 83:-0.205809 84:-0.412569 85:-0.724467 86:-0.26343 87:-0.469753 88:-0.341943 89:-0.357942 90:-0.664632 91:-0.451612 92:-0.0796863 93:-0.098998 94:-0.455376 95:-0.473702 96:-0.410515 97:-0.612762 98:-0.31903 99:-0.484761 100:-0.522542 101:-0.296371 102:-0.0444149 103:-0.0320527 104:-0.355477 105:-0.401918 106:-0.611274 107:-0.0729137 108:-0.86112 109:-0.355051 110:-0.330274 111:-0.214145 112:-0.675611 113:-0.151539 114:-0.400383 115:-0.623789 116:-0.646855 117:-0.241916 118:-0.210285 119:-0.432805 120:-0.542584 121:-0.312964 122:-0.162226 123:-0.346065 124:-0.255796 125:-0.395025 126:-0.1044 127:-0.568965 128:-0.94916 
10.42276016591329 1:-0.305485 2:-0.779221 3:-0.133425 4:-0.82831 5:-0.127384 6:-0.466631 7:0.200653 8:-0.524875 9:-0.195313 10:-0.346327 11:-0.25505 12:-0.59635 13:-0.376723 14:-0.175011 15:-0.326159 16:-0.408677 17:-0.591014 18:-0.591538 19:-0.402725 20:-0.519649 21:-0.117139 22:-0.070545 23:-0.426459 24:0.0481274 25:-0.00556475 26:-0.228379 27:-0.410252 28:-0.183191 29:0.150284 30:0.0583431 31:0.05887 32:-0.504015 33:-0.646691 34:-0.159351 35:-0.674741 36:-0.434834 37:0.184193 38:-0.464222 39:-0.401892 40:0.0191854 41:-0.191577 42:-0.231201 43:-0.271245 44:-0.541762 45:-0.0384795 46:0.17316 47:-0.00333372 48:0.0292118 49:-0.335938 50:0.0890343 51:-0.254506 52:-0.0204 53:0.136563 54:-0.187885 55:-0.410152 56:-0.255782 57:-0.00757265 58:-0.244775 59:-0.486042 60:-0.553952 61:-0.316186 62:-0.294381 63:-0.425585 64:-0.314959 65:-0.242482 66:-0.179035 67:-0.518822 68:-0.579551 69:-0.532373 70:0.186071 71:-0.382401 72:-0.224328 73:-0.0964435 74:-0.507528 75:-0.225241 76:-0.539643 77:-0.126719 78:0.160401 79:-0.329098 80:-0.589806 81:-0.534568 82:-0.057539 83:-0.331971 84:-0.416695 85:-0.70387 86:-0.206107 87:-0.397915 88:-0.154181 89:-0.231773 90:-0.601658 91:-0.539235 92:-0.31035 93:-0.114286 94:-0.304307 95:-0.269015 96:-0.251754 97:-0.552011 98:-0.107816 99:-0.429098 100:-0.439874 101:-0.301422 102:0.135327 103:-0.222859 104:-0.376857 105:-0.47875 106:-0.470579 107:-0.167121 108:-0.856638 109:-0.463682 110:-0.272096 111:-0.0950547 112:-0.588654 113:-0.0424736 114:-0.394051 115:-0.694131 116:-0.599704 117:-0.308803 118:-0.137457 119:-0.328853 120:-0.61615 121:-0.258045 122:-0.0822434 123:-0.567244 124:-0.301102 125:-0.61467 126:-0.211024 127:-0.601154 128:-0.934591 
32 1:-0.3961 2:-0.758468 3:-0.378736 4:-0.821567 5:-0.244557 6:-0.292759 7:-0.0507948 8:-0.627061 9:-0.0660703 10:-0.359387 11:-0.256415 12:-0.634841 13:-0.285908 14:-0.165973 15:-0.0852769 16:-0.483121 17:-0.66766 18:-0.750169 19:-0.48249 20:-0.574712 21:-0.0928329 22:0.0428398 23:-0.452379 24:-0.268634 25:-0.311499 26:-0.204929 27:-0.505573 28:-0.421342 29:0.233589 30:-0.103675 31:0.254518 32:-0.606306 33:-0.656531 34:0.0173585 35:-0.617793 36:-0.356654 37:0.0808179 38:-0.221348 39:-0.474703 40:-0.223627 41:-0.0245545 42:-0.271449 43:-0.0765144 44:-0.573799 45:0.0900476 46:-0.00650655 47:-0.0864668 48:-0.122285 49:-0.379611 50:-0.00374157 51:-0.311063 52:-0.0943094 53:0.21931 54:-0.0821951 55:-0.381112 56:-0.235806 57:-0.319371 58:-0.467702 59:-0.410758 60:-0.732791 61:-0.407082 62:-0.291179 63:-0.441371 64:-0.351351 65:-0.101737 66:-0.424427 67:-0.634749 68:-0.538802 69:-0.576878 70:-0.161198 71:-0.372868 72:-0.345386 73:-0.0487351 74:-0.630567 75:-0.241625 76:-0.437605 77:-0.206806 78:0.167173 79:-0.189791 80:-0.605961 81:-0.522021 82:-0.155597 83:-0.288637 84:-0.420174 85:-0.677361 86:-0.23861 87:-0.409153 88:-0.251873 89:-0.281011 90:-0.539577 91:-0.279096 92:-0.394573 93:-0.028554 94:-0.27351 95:-0.248208 96:-0.211391 97:-0.469266 98:-0.24277 99:-0.418104 100:-0.549114 101:-0.467851 102:-0.132874 103:-0.236577 104:-0.488966 105:-0.367654 106:-0.552966 107:-0.275931 108:-0.844827 109:-0.509206 110:-0.277604 111:-0.224055 112:-0.584352 113:-0.0562048 114:-0.359686 115:-0.561271 116:-0.594471 117:-0.28559 118:-0.187908 119:-0.279393 120:-0.633661 121:-0.295337 122:-0.0855834 123:-0.359643 124:-0.30023 125:-0.593605 126:-0.0770603 127:-0.486735 128:-0.911959 
26.04264316157288 1:-0.41385 2:-0.727809 3:-0.171614 4:-0.714037 5:-0.411878 6:-0.403503 7:-0.103426 8:-0.335134 9:-0.247382 10:-0.248897 11:-0.336699 12:-0.589679 13:-0.28214 14:-0.277184 15:-0.319409 16:-0.563353 17:-0.695393 18:-0.656571 19:-0.547185 20:-0.399209 21:-0.395962 22:-0.095686 23:-0.55017 24:0.117767 25:-0.340121 26:-0.294907 27:-0.571875 28:-0.0415697 29:0.158434 30:-0.0743489 31:-0.105236 32:-0.61488 33:-0.718026 34:-0.00529909 35:-0.674771 36:-0.130652 37:0.0561064 38:-0.238671 39:-0.666809 40:0.176633 41:-0.20958 42:-0.328458 43:-0.237534 44:-0.6164 45:0.178519 46:-0.0800064 47:0.0186469 48:-0.249015 49:-0.422205 50:0.129003 51:-0.501198 52:0.355941 53:-0.102168 54:-0.174171 55:-0.518186 56:-0.281759 57:-0.116539 58:-0.35776 59:-0.514307 60:-0.648439 61:-0.240917 62:-0.33028 63:-0.485619 64:-0.370939 65:-0.289594 66:-0.207321 67:-0.477737 68:-0.363073 69:-0.635222 70:-0.352806 71:-0.218805 72:-0.297063 73:-0.218262 74:-0.630443 75:-0.436102 76:-0.364954 77:-0.142579 78:-0.169423 79:-0.28552 80:-0.589346 81:-0.610638 82:0.0293652 83:-0.272867 84:-0.158923 85:-0.733724 86:-0.295456 87:-0.324226 88:-0.199485 89:-0.231239 90:-0.648521 91:-0.389618 92:-0.158213 93:-0.0393734 94:-0.486342 95:-0.251827 96:-0.392604 97:-0.468162 98:-0.218587 99:-0.197377 100:-0.484991 101:-0.179489 102:-0.191832 103:-0.223756 104:-0.420246 105:-0.270822 106:-0.58332 107:-0.329846 108:-0.90897 109:-0.285501 110:-0.371928 111:-0.318547 112:-0.698559 113:-0.0795871 114:-0.315857 115:-0.549813 116:-0.515812 117:-0.49563 118:-0.423308 119:-0.282717 120:-0.584425 121:-0.146248 122:-0.0790808 123:-0.442817 124:-0.363899 125:-0.435914 126:-0.194782 127:-0.50538 128:-0.942872 
32 1:-0.487791 2:-0.745337 3:-0.230413 4:-0.827327 5:-0.463763 6:-0.626986 7:-0.0963014 8:-0.521826 9:-0.343093 10:-0.468528 11:-0.318317 12:-0.640882 13:-0.307737 14:-0.35177 15:-0.503947 16:-0.45789 17:-0.706438 18:-0.69062 19:-0.380593 20:-0.511211 21:-0.390198 22:-0.191041 23:-0.528351 24:0.111474 25:-0.148119 26:-0.281024 27:-0.354818 28:-0.10072 29:0.149551 30:-0.0837278 31:-0.157622 32:-0.597985 33:-0.671318 34:-0.137902 35:-0.716349 36:-0.348831 37:0.146114 38:-0.454581 39:-0.482229 40:-0.216452 41:-0.253407 42:-0.254968 43:-0.215094 44:-0.63229 45:0.112393 46:0.190966 47:-0.0455257 48:-0.222505 49:-0.488598 50:-0.43471 51:-0.234422 52:-0.123354 53:0.064432 54:-0.151709 55:-0.365914 56:-0.269606 57:-0.0659142 58:-0.375994 59:-0.260339 60:-0.648772 61:-0.296859 62:-0.171938 63:-0.455256 64:-0.150148 65:-0.320996 66:-0.40618 67:-0.192774 68:-0.445777 69:-0.530306 70:-0.242271 71:-0.0816056 72:-0.0783361 73:-0.025375 74:-0.599549 75:-0.172065 76:-0.213008 77:0.0475891 78:-0.149346 79:-0.388741 80:-0.699697 81:-0.539488 82:-0.299975 83:0.224514 84:0.0362265 85:-0.736779 86:-0.408716 87:-0.337287 88:0.0297155 89:-0.238799 90:-0.53856 91:-0.285985 92:0.296363 93:-0.231125 94:-0.447801 95:-0.410067 96:-0.229338 97:-0.582304 98:-0.0985451 99:-0.370111 100:-0.473735 101:-0.176502 102:0.0302112 103:-0.0461427 104:-0.39143 105:-0.471541 106:-0.60431 107:-0.0720356 108:-0.796039 109:-0.289175 110:-0.193554 111:-0.16733 112:-0.721856 113:-0.108344 114:-0.37267 115:-0.572146 116:-0.633079 117:-0.525777 118:-0.272737 119:-0.38338 120:-0.60925 121:-0.273772 122:-0.0925885 123:-0.38717 124:-0.125651 125:-0.528869 126:-0.431524 127:-0.44241 128:-0.923907 
31.08261047418354 1:-0.529555 2:-0.760515 3:-0.442305 4:-0.701136 5:-0.462116 6:-0.4058 7:-0.407033 8:-0.580011 9:-0.239711 10:-0.480097 11:-0.20738 12:-0.648757 13:-0.447092 14:-0.392496 15:-0.383061 16:-0.602762 17:-0.700434 18:-0.661144 19:-0.436707 20:-0.292083 21:-0.301907 22:0.308373 23:-0.566233 24:0.593748 25:-0.409466 26:-0.420364 27:-0.211967 28:-0.356129 29:0.146196 30:-0.0655644 31:-0.0949519 32:-0.596886 33:-0.727233 34:-0.00366989 35:-0.691396 36:-0.135448 37:0.00947565 38:0.037242 39:-0.540029 40:0.259291 41:-0.293565 42:-0.304542 43:-0.178189 44:-0.643233 45:0.0981582 46:0.0510617 47:-0.120671 48:-0.0766201 49:-0.363831 50:-0.155557 51:-0.176541 52:0.298309 53:-0.135458 54:0.360976 55:-0.482266 56:0.412328 57:-0.337332 58:-0.324616 59:-0.394261 60:-0.723154 61:-0.297538 62:-0.18671 63:-0.418285 64:-0.209852 65:-0.231927 66:0.452139 67:-0.355813 68:-0.370981 69:-0.612258 70:0.266909 71:-0.516351 72:-0.217803 73:-0.0197241 74:-0.626842 75:-0.13819 76:-0.522197 77:-0.216071 78:0.151021 79:-0.314646 80:-0.698121 81:-0.597721 82:0.132111 83:-0.18949 84:-0.230769 85:-0.763405 86:-0.00844592 87:-0.492118 88:-0.104326 89:-0.324212 90:-0.6353 91:-0.429024 92:-0.379644 93:-0.229572 94:-0.404731 95:-0.462705 96:-0.416213 97:-0.56163 98:0.0918669 99:-0.56927 100:-0.513593 101:-0.419267 102:0.375491 103:-0.509102 104:-0.420306 105:-0.428425 106:-0.716167 107:-0.247907 108:-0.852257 109:-0.440739 110:-0.195668 111:-0.410379 112:-0.751197 113:-0.454783 114:-0.370368 115:-0.706048 116:-0.637525 117:-0.501533 118:0.0328347 119:-0.60133 120:-0.632194 121:-0.581056 122:-0.530658 123:-0.536304 124:-0.668836 125:-0.655509 126:-0.363314 127:-0.666006 128:-0.946886 
3.202526620200941 1:-0.451517 2:-0.635998 3:-0.128179 4:-0.61524 5:-0.660561 6:-0.417672 7:-0.105873 8:-0.364118 9:-0.275054 10:-0.512144 11:-0.376178 12:-0.563304 13:-0.600366 14:-0.422619 15:-0.535202 16:-0.675946 17:-0.696883 18:-0.628677 19:-0.320867 20:-0.0835794 21:-0.399456 22:0.19619 23:-0.575375 24:0.678592 25:-0.291715 26:-0.367156 27:-0.431627 28:0.0245981 29:-0.35725 30:-0.229762 31:-0.213481 32:-0.595863 33:-0.750458 34:0.16491 35:-0.722003 36:0.000127902 37:-0.290008 38:-0.142465 39:-0.538766 40:0.0560247 41:-0.555741 42:-0.436651 43:-0.361553 44:-0.649521 45:-0.490228 46:-0.0184218 47:-0.158252 48:-0.394098 49:-0.477187 50:0.0768461 51:-0.336989 52:0.30766 53:-0.312314 54:-0.0235575 55:-0.507318 56:0.153343 57:-0.391438 58:-0.469968 59:-0.568698 60:-0.703793 61:-0.585281 62:-0.445451 63:-0.59469 64:-0.485634 65:-0.320939 66:-0.0480435 67:0.00714318 68:0.174637 69:-0.827448 70:-0.103535 71:-0.194032 72:0.10309 73:-0.173456 74:-0.690829 75:-0.222326 76:-0.40632 77:-0.542953 78:-0.262246 79:-0.339506 80:-0.635215 81:-0.638718 82:0.0151212 83:0.366446 84:0.400797 85:-0.853846 86:-0.453303 87:-0.473678 88:-0.0208052 89:-0.273373 90:-0.701972 91:-0.410345 92:0.234856 93:-0.361511 94:-0.651744 95:-0.292451 96:-0.295018 97:-0.634032 98:-0.0169548 99:-0.366607 100:-0.339675 101:-0.599414 102:-0.0111011 103:-0.153765 104:-0.46588 105:-0.550137 106:-0.787153 107:-0.276018 108:-0.798598 109:-0.519081 110:-0.589488 111:-0.144705 112:-0.386906 113:-0.109502 114:-0.245992 115:-0.618722 116:-0.320409 117:-0.611883 118:-0.62411 119:-0.511263 120:-0.708268 121:0.0841804 122:-0.564531 123:-0.259182 124:-0.15889 125:-0.405459 126:-0.728018 127:-0.387444 128:-0.952705 
16.18435946632654 1:-0.491335 2:-0.808641 3:-0.103471 4:-0.82531 5:-0.469096 6:-0.666241 7:0.066675 8:-0.531282 9:-0.0660388 10:-0.528691 11:-0.40594 12:-0.630646 13:-0.439336 14:-0.32568 15:-0.514317 16:-0.578945 17:-0.658951 18:-0.75209 19:-0.555129 20:-0.553774 21:-0.278124 22:-0.297815 23:-0.430673 24:0.116062 25:-0.168736 26:-0.163376 27:-0.343819 28:-0.172855 29:0.0857158 30:-0.245701 31:-0.0455268 32:-0.55095 33:-0.727953 34:-0.182344 35:-0.683925 36:-0.504434 37:-0.0333517 38:-0.560277 39:-0.549837 40:-0.323949 41:-0.484114 42:-0.470587 43:-0.306847 44:-0.63303 45:0.137718 46:0.237556 47:-0.215688 48:-0.344616 49:-0.525332 50:-0.293432 51:-0.243666 52:-0.0398076 53:0.213064 54:-0.376723 55:-0.465272 56:-0.276265 57:0.0134711 58:-0.282797 59:-0.319985 60:-0.756404 61:0.0829581 62:-0.0932073 63:-0.400116 64:-0.249506 65:-0.298857 66:-0.287853 67:-0.206541 68:-0.520103 69:-0.546834 70:-0.247952 71:-0.267965 72:-0.13485 73:-0.273906 74:-0.678996 75:0.232528 76:-0.442294 77:0.178084 78:-0.228362 79:-0.171405 80:-0.714883 81:-0.607602 82:-0.168689 83:-0.0951428 84:-0.32802 85:-0.776211 86:-0.319449 87:-0.540307 88:-0.119979 89:-0.169116 90:-0.706869 91:-0.14729 92:-0.0757588 93:-0.302122 94:-0.453461 95:-0.32742 96:-0.357156 97:-0.645441 98:-0.208362 99:-0.464502 100:-0.564615 101:-0.371213 102:-0.199357 103:-0.34164 104:-0.502536 105:-0.386901 106:-0.645728 107:0.443033 108:-0.702254 109:-0.114366 110:-0.201993 111:0.274027 112:-0.647739 113:-0.221058 114:-0.299589 115:-0.662322 116:-0.625336 117:-0.37651 118:-0.557215 119:-0.496098 120:-0.593155 121:-0.0839258 122:-0.281992 123:0.0991111 124:-0.172061 125:-0.164699 126:-0.130743 127:-0.203987 128:-0.910969 
13.34329134218716 1:-0.512074 2:-0.680321 3:-0.035289 4:-0.506435 5:-0.288101 6:-0.254284 7:-0.0818962 8:-0.645081 9:-0.319437 10:-0.628822 11:-0.28096 12:-0.634085 13:-0.428565 14:-0.451703 15:-0.479799 16:-0.644845 17:-0.548411 18:-0.54431 19:-0.140725 20:-0.0780168 21:-0.115342 22:0.223134 23:-0.543568 24:0.0335995 25:-0.299906 26:-0.472517 27:-0.40454 28:-0.0874479 29:-0.146275 30:-0.314986 31:-0.250037 32:-0.78504 33:-0.750634 34:-0.637411 35:-0.75321 36:-0.68696 37:0.0738925 38:-0.0538419 39:-0.602828 40:-0.586817 41:-0.394242 42:-0.514074 43:-0.268897 44:-0.735644 45:0.0119217 46:0.0458404 47:-0.214294 48:-0.322899 49:-0.386464 50:-0.219476 51:-0.129081 52:0.0801114 53:0.52444 54:0.197831 55:-0.491914 56:-0.475574 57:-0.0669564 58:-0.354502 59:-0.264003 60:-0.559436 61:-0.115746 62:-0.119451 63:-0.457427 64:-0.480264 65:-0.520113 66:-0.204541 67:-0.477094 68:-0.270115 69:-0.571432 70:0.341865 71:-0.432116 72:-0.142037 73:-0.356323 74:-0.709368 75:-0.0455105 76:-0.214033 77:-0.142108 78:0.176984 79:-0.173924 80:-0.659252 81:-0.639569 82:-0.475485 83:-0.42385 84:-0.445337 85:-0.815941 86:-0.30655 87:-0.596939 88:-0.505207 89:-0.418419 90:-0.749019 91:-0.45788 92:-0.182283 93:-0.433954 94:-0.566724 95:-0.447849 96:-0.55425 97:-0.650898 98:-0.466365 99:-0.523053 100:-0.622769 101:-0.265062 102:0.390169 103:-0.370542 104:-0.577719 105:-0.488973 106:-0.625721 107:-0.0371625 108:-0.805826 109:-0.077333 110:-0.00674185 111:-0.155901 112:-0.654601 113:-0.282966 114:-0.5145 115:-0.64828 116:-0.68699 117:-0.45486 118:-0.262212 119:-0.52689 120:-0.722926 121:-0.178722 122:-0.214247 123:-0.237887 124:-0.0562884 125:-0.441478 126:-0.0120711 127:-0.47671 128:-0.934923 
11.13145540762619 1:-0.480103 2:-0.729966 3:-0.184463 4:-0.810737 5:-0.505069 6:-0.750859 7:-0.155021 8:-0.471053 9:-0.273117 10:-0.513575 11:-0.3111 12:-0.605818 13:-0.535254 14:-0.583283 15:-0.425841 16:-0.586516 17:-0.578057 18:-0.643744 19:-0.363463 20:-0.504961 21:-0.489943 22:-0.197151 23:-0.548797 24:-0.0897408 25:-0.0850677 26:0.00851233 27:-0.165977 28:0.437335 29:-0.266424 30:-0.497545 31:-0.244491 32:-0.528979 33:-0.730819 34:-0.405746 35:-0.68415 36:-0.62512 37:0.0864021 38:-0.678374 39:-0.585767 40:-0.185004 41:-0.253427 42:-0.391554 43:-0.173046 44:-0.714318 45:-0.247615 46:-0.122045 47:-0.0314439 48:-0.328459 49:-0.468037 50:-0.1493 51:-0.234527 52:-0.313519 53:0.0903436 54:-0.418022 55:-0.535742 56:-0.332472 57:0.336268 58:0.147327 59:-0.149978 60:-0.44007 61:-0.127447 62:-0.402859 63:-0.369988 64:-0.34201 65:0.0509158 66:-0.25692 67:-0.138933 68:-0.413741 69:-0.612914 70:-0.111333 71:0.137071 72:0.0501897 73:-0.140385 74:-0.65305 75:0.0288744 76:-0.449907 77:-0.0482016 78:0.106822 79:-0.0539528 80:-0.553786 81:-0.533345 82:-0.276095 83:0.0328022 84:-0.512733 85:-0.807413 86:-0.333326 87:-0.444268 88:-0.205754 89:-0.289871 90:-0.594337 91:-0.253716 92:0.321536 93:-0.345317 94:-0.557463 95:-0.187202 96:-0.267244 97:-0.621392 98:-0.180799 99:-0.306116 100:-0.40426 101:-0.32766 102:-0.0349114 103:0.455104 104:-0.300806 105:-0.339521 106:-0.560042 107:0.299276 108:-0.697733 109:-0.0801632 110:-0.240315 111:0.109159 112:-0.628781 113:-0.160699 114:-0.491307 115:-0.510121 116:-0.698695 117:-0.655882 118:-0.396725 119:-0.346863 120:-0.651455 121:-0.0128288 122:0.055228 123:-0.0572942 124:-0.136983 125:-0.425033 126:-0.38551 127:-0.309259 128:-0.916558 
32 1:-0.644137 2:-0.681422 3:-0.53862 4:-0.685422 5:-0.467593 6:-0.236736 7:-0.607513 8:-0.584693 9:-0.597845 10:-0.718432 11:-0.654698 12:-0.783532 13:-0.13749 14:-0.400873 15:-0.514184 16:-0.716841 17:-0.728886 18:-0.645911 19:-0.692577 20:-0.478336 21:-0.210646 22:0.199796 23:-0.913627 24:-0.582072 25:-0.281905 26:-0.896867 27:-0.586016 28:-0.862198 29:0.688425 30:-0.296713 31:-0.047323 32:-0.833678 33:-0.751371 34:-0.359104 35:-0.812073 36:-0.428364 37:0.192107 38:-0.110682 39:-0.786431 40:-0.374445 41:-0.137953 42:-0.606761 43:-0.499687 44:-0.834568 45:0.661427 46:0.359252 47:-0.236292 48:-0.444714 49:-0.663891 50:-0.60915 51:-0.852767 52:-0.535189 53:-0.100369 54:0.135253 55:-0.640897 56:-0.57295 57:-0.481401 58:-0.922059 59:-0.276481 60:-0.899462 61:0.244443 62:-0.127156 63:-0.105556 64:-0.594349 65:-0.601613 66:-0.638135 67:-0.760267 68:-0.533775 69:-0.710094 70:-0.0665445 71:-0.701706 72:-0.722049 73:-0.0484881 74:-0.818939 75:0.194632 76:-0.73903 77:0.388824 78:-0.213023 79:-0.141683 80:-0.788245 81:-0.712774 82:-0.759475 83:-0.160281 84:-0.4866 85:-0.790835 86:-0.576133 87:-0.705459 88:-0.698744 89:-0.11064 90:-0.666958 91:0.0106426 92:-0.493609 93:0.325548 94:-0.578612 95:0.172827 96:-0.664975 97:-0.693819 98:-0.553846 99:-0.637567 100:-0.731761 101:-0.253977 102:-0.109208 103:-0.52236 104:-0.626449 105:0.255651 106:-0.616792 107:0.259008 108:0.559925 109:0.153115 110:-0.162375 111:0.407032 112:-0.612252 113:-0.485031 114:-0.874846 115:-0.709856 116:-0.765785 117:-0.567674 118:-0.505982 119:-0.616673 120:-0.839334 121:0.174726 122:-0.784113 123:0.0229859 124:-0.755322 125:-0.125251 126:-0.0245824 127:0.164244 128:-0.946156 
32 1:-0.543872 2:-0.633979 3:-0.10462 4:-0.399143 5:-0.475127 6:-0.227334 7:-0.304251 8:-0.319078 9:-0.415983 10:-0.514441 11:-0.364663 12:-0.541308 13:-0.633414 14:-0.600267 15:-0.541183 16:-0.661709 17:-0.729879 18:-0.524106 19:-0.329203 20:0.347115 21:-0.418097 22:0.300159 23:-0.680595 24:0.226962 25:-0.430175 26:-0.317489 27:-0.645673 28:0.132897 29:-0.553549 30:-0.494001 31:-0.215751 32:-0.758978 33:-0.809615 34:-0.167245 35:-0.642378 36:0.0135576 37:-0.293613 38:-0.243943 39:-0.791348 40:0.156116 41:-0.354629 42:-0.487836 43:-0.433556 44:-0.663036 45:-0.452779 46:-0.219643 47:-0.485388 48:-0.475546 49:-0.517348 50:0.0652585 51:-0.182571 52:0.734552 53:-0.372569 54:0.10554 55:-0.63251 56:-0.239097 57:-0.391838 58:-0.407499 59:-0.469087 60:-0.560746 61:-0.53205 62:-0.379794 63:-0.470244 64:-0.53944 65:-0.197862 66:-0.29584 67:-0.358444 68:0.527703 69:-0.66909 70:0.164223 71:0.0615996 72:0.00421594 73:-0.271945 74:-0.646385 75:-0.316312 76:-0.0467286 77:-0.465708 78:-0.439111 79:-0.32607 80:-0.725144 81:-0.610218 82:-0.129021 83:-0.0540029 84:0.732519 85:-0.873132 86:-0.395386 87:-0.54378 88:-0.0754267 89:-0.40629 90:-0.634455 91:-0.465202 92:0.204125 93:-0.696103 94:-0.582394 95:-0.460839 96:-0.598458 97:-0.611429 98:-0.267927 99:-0.314463 100:-0.330725 101:-0.272747 102:0.0823258 103:-0.129786 104:-0.445876 105:-0.338699 106:-0.52855 107:-0.413353 108:-0.783348 109:-0.45188 110:-0.357796 111:-0.301855 112:-0.652549 113:-0.344854 114:-0.491866 115:-0.578938 116:-0.421577 117:-0.76136 118:-0.451087 119:-0.565861 120:-0.687327 121:-0.323012 122:-0.374182 123:-0.603303 124:-0.235439 125:-0.571049 126:-0.642942 127:-0.55164 128:-0.920587 
32 1:-0.566652 2:-0.653204 3:-0.569365 4:-0.0730217 5:-0.739971 6:-0.755668 7:-0.360365 8:-0.639577 9:-0.44208 10:-0.640673 11:-0.498902 12:-0.745247 13:-0.328907 14:-0.628798 15:-0.562308 16:-0.677182 17:-0.767209 18:-0.760664 19:-0.491954 20:-0.0710167 21:-0.621731 22:-0.197051 23:-0.622963 24:-0.0735954 25:-0.501024 26:-0.615843 27:-0.254079 28:-0.311277 29:0.133173 30:-0.204597 31:0.231167 32:-0.55648 33:-0.736031 34:-0.626158 35:-0.763903 36:-0.35562 37:-0.0774321 38:-0.616313 39:-0.545829 40:-0.104654 41:-0.0848319 42:-0.4704 43:-0.294001 44:-0.769376 45:0.27328 46:0.426594 47:0.106194 48:-0.0413253 49:-0.620886 50:-0.836497 51:-0.666099 52:-0.0799206 53:0.147385 54:-0.230365 55:-0.459818 56:-0.0756903 57:-0.382236 58:-0.754157 59:-0.31323 60:-0.734567 61:-0.0154124 62:0.196677 63:0.242032 64:0.0687809 65:1 66:-0.0595166 67:-0.0288022 68:-0.696435 69:-0.4846 70:-0.4303 71:-0.499979 72:-0.614262 73:0.605055 74:-0.561757 75:-0.150554 76:-0.66224 77:0.217814 78:-0.295413 79:-0.640506 80:-0.74074 81:-0.518203 82:-0.321551 83:0.555141 84:-0.41888 85:-0.786983 86:-0.408518 87:-0.503032 88:-0.318454 89:0.0903921 90:-0.71725 91:-0.25142 92:0.273855 93:-0.12186 94:-0.587886 95:-0.299801 96:-0.554802 97:-0.484926 98:-0.400081 99:-0.329082 100:-0.70004 101:-0.461149 102:-0.279734 103:-0.510918 104:-0.563371 105:0.244521 106:-0.71027 107:-0.131245 108:-0.865265 109:-0.219625 110:-0.426943 111:0.293466 112:-0.490985 113:-0.507197 114:-0.616208 115:-0.698722 116:-0.738353 117:-0.646979 118:-0.494173 119:-0.388643 120:-0.725445 121:-0.0284976 122:-0.575793 123:-0.551589 124:-0.374378 125:-0.325917 126:-0.418063 127:-0.203284 128:-0.932316 
6.574694327812107 1:-0.44125 2:-0.786741 3:-0.449135 4:-0.866082 5:-0.19627 6:-0.60008 7:-0.0332512 8:-0.407936 9:0.141102 10:0.244825 11:0.0732759 12:-0.114229 13:1 14:1 15:0.908766 16:0.342076 17:-0.968843 18:-0.897888 19:-0.951029 20:-0.82466 21:-0.75861 22:-0.496059 23:-0.760799 24:-0.267517 25:-0.645939 26:-0.179392 27:-0.438092 28:0.31629 29:0.820235 30:0.927346 31:1 32:0.0622885 33:-0.811721 34:-0.640518 35:-0.724931 36:-0.480292 37:-0.653908 38:-0.880682 39:-0.783687 40:-0.46453 41:-0.729558 42:-0.742167 43:-0.508236 44:-0.746854 45:-0.478733 46:-0.610973 47:-0.334562 48:-0.52977 49:-0.653885 50:-0.177405 51:-0.184335 52:0.966795 53:-0.622817 54:-0.493762 55:-0.555449 56:0.514463 57:-0.734192 58:-0.456525 59:-0.560249 60:-0.362546 61:-0.622523 62:-0.36542 63:-0.335458 64:0.0685832 65:0.490081 66:-0.105409 67:-0.201799 68:-0.710376 69:-0.345782 70:-0.513727 71:-0.308575 72:-0.37305 73:0.310004 74:-0.466395 75:-0.37391 76:-0.537346 77:0.466085 78:-0.159731 79:0.0646484 80:-0.76228 81:-0.537905 82:-0.167092 83:-0.525891 84:-0.832003 85:-0.832723 86:-0.651558 87:-0.699289 88:-0.614321 89:-0.562909 90:-0.677732 91:-0.790685 92:-0.571217 93:-0.509385 94:-0.560654 95:-0.521294 96:-0.703166 97:0.132284 98:0.403544 99:0.797412 100:-0.068603 101:-0.378131 102:-0.539813 103:-0.193651 104:-0.465655 105:-0.439264 106:-0.723693 107:-0.702173 108:-0.921896 109:-0.680883 110:-0.902853 111:-0.61718 112:-0.977042 113:0.897604 114:0.969528 115:1 116:1 117:-0.240235 118:-0.0586212 119:0.000782264 120:-0.129579 121:-0.228901 122:-0.0437301 123:-0.226313 124:0.201813 125:-0.752687 126:-0.610991 127:-0.775904 128:-0.965847 
32 1:-0.49366 2:-0.80498 3:-0.181968 4:-0.766329 5:-0.429454 6:-0.322785 7:-0.163651 8:-0.600635 9:-0.326115 10:-0.478162 11:-0.329225 12:-0.679992 13:-0.493591 14:-0.432088 15:-0.48936 16:-0.580693 17:-0.668294 18:-0.64393 19:-0.248359 20:-0.317708 21:-0.164454 22:0.110751 23:-0.539204 24:-0.0231594 25:-0.156958 26:0.0172592 27:-0.402854 28:0.0201344 29:0.24035 30:-0.138482 31:-0.189914 32:-0.656839 33:-0.706201 34:-0.517774 35:-0.704222 36:-0.708395 37:0.250214 38:0.0308651 39:-0.551358 40:-0.501726 41:-0.328723 42:-0.426875 43:-0.233318 44:-0.71935 45:0.328315 46:-0.0398426 47:0.00747787 48:-0.236466 49:-0.365664 50:-0.252812 51:-0.343943 52:-0.199153 53:0.773351 54:0.256311 55:-0.468726 56:-0.266138 57:0.134478 58:-0.0449803 59:-0.400958 60:-0.622716 61:0.16857 62:-0.0851416 63:-0.254544 64:-0.411993 65:-0.310839 66:-0.222876 67:-0.410878 68:-0.56561 69:-0.535785 70:0.518331 71:-0.0943231 72:-0.0483427 73:-0.169133 74:-0.632051 75:-0.0608901 76:-0.316128 77:-0.24418 78:0.189883 79:-0.27688 80:-0.641765 81:-0.653549 82:-0.381224 83:-0.402595 84:-0.679824 85:-0.802615 86:-0.252301 87:-0.564535 88:-0.394654 89:-0.391104 90:-0.699597 91:-0.575165 92:-0.129227 93:-0.401096 94:-0.520475 95:-0.54309 96:-0.485935 97:-0.625491 98:-0.354225 99:-0.513126 100:-0.778363 101:-0.147119 102:0.662946 103:-0.130202 104:-0.524171 105:-0.435137 106:-0.535992 107:-0.0409258 108:-0.830275 109:-0.0651091 110:0.0732964 111:-0.00820684 112:-0.695077 113:-0.347856 114:-0.625485 115:-0.740523 116:-0.830977 117:-0.24866 118:-0.193547 119:-0.457073 120:-0.712679 121:-0.205594 122:-0.0478091 123:-0.382199 124:-0.115017 125:-0.432287 126:-0.0617224 127:-0.498872 128:-0.933374 
30.93170389430757 1:-0.408914 2:-0.727672 3:-0.137721 4:-0.663178 5:-0.498268 6:-0.370445 7:0.159665 8:-0.383668 9:-0.180366 10:-0.322322 11:-0.180754 12:-0.595651 13:-0.526668 14:-0.314551 15:-0.463541 16:-0.523707 17:-0.670799 18:-0.657335 19:-0.321897 20:-0.265332 21:-0.369859 22:0.0543586 23:-0.463589 24:0.389533 25:-0.273899 26:-0.114741 27:-0.520205 28:-0.0186306 29:-0.0718273 30:-0.00583431 31:-0.167747 32:-0.494116 33:-0.645579 34:0.0662009 35:-0.630281 36:-0.279657 37:0.125008 38:-0.284765 39:-0.522831 40:-0.0748429 41:-0.38007 42:-0.319412 43:-0.0403722 44:-0.584794 45:-0.267644 46:-0.159129 47:-0.0642897 48:-0.180291 49:-0.337137 50:0.0219864 51:-0.210534 52:0.0076333 53:0.00530828 54:-0.244 55:-0.457762 56:0.0161913 57:-0.231271 58:-0.284285 59:-0.490896 60:-0.535068 61:-0.485431 62:-0.455142 63:-0.400245 64:-0.195124 65:0.0526276 66:-0.087052 67:-0.267586 68:-0.559645 69:-0.485711 70:0.202709 71:0.0424913 72:0.00532011 73:-0.149571 74:-0.598257 75:-0.0981831 76:-0.472421 77:-0.358328 78:-0.137309 79:-0.486062 80:-0.614302 81:-0.520288 82:0.0110627 83:-0.289186 84:-0.367342 85:-0.746005 86:-0.0193307 87:-0.438056 88:0.0186581 89:-0.326558 90:-0.535892 91:-0.352447 92:-0.0865306 93:-0.367485 94:-0.439105 95:-0.65501 96:-0.336057 97:-0.47683 98:0.102693 99:-0.447612 100:-0.535275 101:-0.233636 102:0.369884 103:-0.149652 104:-0.456992 105:-0.679127 106:-0.562527 107:-0.232477 108:-0.81113 109:-0.639821 110:-0.353338 111:-0.18655 112:-0.538087 113:-0.157541 114:-0.261313 115:-0.682597 116:-0.628028 117:-0.42263 118:-0.225695 119:-0.343894 120:-0.643585 121:-0.388977 122:-0.104471 123:-0.515158 124:-0.260484 125:-0.530558 126:-0.491601 127:-0.606519 128:-0.934724 
17.99525792394143 1:-0.588974 2:-0.560337 3:-0.584768 4:-0.422555 5:-0.183939 6:0.323356 7:-0.446232 8:-0.275259 9:-0.3507 10:-0.547959 11:-0.645264 12:-0.797344 13:-0.318326 14:-0.107292 15:-0.531078 16:-0.519214 17:-0.920331 18:-0.522777 19:-0.844556 20:-0.150518 21:-0.346426 22:1 23:-0.831147 24:-0.109003 25:-0.751171 26:-0.923741 27:-0.766576 28:-0.64923 29:0.243599 30:0.246494 31:-0.442684 32:-0.713369 33:-0.79739 34:0.60429 35:-0.718053 36:0.00588348 37:0.399209 38:0.658862 39:-0.829411 40:0.0754094 41:-0.863842 42:-0.545088 43:-0.542358 44:-0.714903 45:0.368537 46:0.698235 47:-0.546933 48:-0.364834 49:-0.747777 50:-0.0573999 51:-0.428968 52:0.0919049 53:-0.270054 54:0.450666 55:-0.655287 56:-0.244667 57:-0.794374 58:-0.725695 59:-0.664429 60:-0.883709 61:-0.28025 62:-0.0601017 63:-0.821494 64:-0.707858 65:-0.282557 66:-0.461758 67:-0.276519 68:-0.221457 69:-0.729078 70:-0.556885 71:-0.882059 72:-0.403345 73:-0.418745 74:-1 75:-0.332697 76:-0.700512 77:-0.300665 78:-0.266506 79:-0.915077 80:-0.707941 81:-0.698454 82:-0.402747 83:0.246592 84:0.066486 85:-0.835499 86:-0.311696 87:-0.575308 88:-0.435792 89:-0.525077 90:-0.878372 91:-0.0390642 92:-0.0563282 93:-0.145686 94:-0.541372 95:-0.511951 96:-0.568903 97:-0.877203 98:-0.255649 99:-0.586957 100:-0.409058 101:-0.690549 102:-0.390931 103:-0.998928 104:-0.801128 105:-0.784932 106:-0.935458 107:-0.235864 108:-0.85042 109:-0.420025 110:-0.631682 111:-0.405395 112:-0.457126 113:-0.606042 114:-0.376124 115:-0.608972 116:-0.479874 117:-0.407403 118:-0.314022 119:-0.708393 120:-0.634106 121:-0.594492 122:-0.710042 123:0.528484 124:-0.575087 125:-0.369389 126:-0.450824 127:-0.289735 128:-0.962897 
12.02585780645909 1:-0.482412 2:-0.621453 3:-0.33823 4:-0.57975 5:0.0145952 6:-0.613208 7:0.0206977 8:-0.329287 9:-0.608036 10:-0.675159 11:-0.426025 12:-0.816005 13:-0.404151 14:-0.430078 15:-0.529898 16:-0.68013 17:-0.58778 18:-0.481171 19:-0.407808 20:-0.28602 21:-0.226018 22:0.0266134 23:-0.728898 24:-0.556546 25:-0.222949 26:0.217217 27:-0.362625 28:0.188299 29:0.0567333 30:-0.254684 31:-0.236141 32:-0.773398 33:-0.819046 34:-0.625486 35:-0.818944 36:-0.596012 37:-0.0885347 38:-0.684801 39:-0.691424 40:-0.645055 41:-0.541791 42:-0.616331 43:-0.456711 44:-0.776138 45:-0.0760528 46:-0.0555065 47:-0.443911 48:-0.607296 49:-0.369382 50:-0.371016 51:-0.52206 52:-0.358803 53:0.289488 54:-0.258581 55:-0.729525 56:-0.794665 57:0.43918 58:0.318768 59:-0.308651 60:-0.647729 61:-0.131751 62:-0.160622 63:-0.434717 64:-0.70089 65:-0.754132 66:-0.813518 67:-0.364119 68:-0.536657 69:-0.480899 70:-0.0362596 71:0.592036 72:-0.210797 73:-0.255981 74:-0.888848 75:-0.174679 76:-0.665069 77:0.273718 78:-0.167341 79:0.122015 80:-0.664098 81:-0.77725 82:-0.90854 83:-0.323469 84:-0.44922 85:-0.843525 86:-0.621267 87:-0.535464 88:-0.554375 89:-0.328881 90:-0.739556 91:-0.25415 92:-0.0192813 93:-0.0284364 94:-0.583972 95:-0.204673 96:-0.577591 97:-0.725927 98:-0.667043 99:-0.597215 100:-0.611743 101:0.161801 102:0.0410753 103:0.399969 104:-0.68296 105:-0.185959 106:-0.827139 107:0.0738545 108:-0.752556 109:0.224833 110:-0.142844 111:0.835132 112:-0.477741 113:-0.403938 114:-0.610587 115:-0.639564 116:-0.78062 117:-0.28431 118:-0.454955 119:-0.482177 120:-0.864928 121:0.513093 122:-0.261066 123:0.140809 124:0.0234373 125:0.539595 126:-0.0544705 127:0.581287 128:-0.959212 
19.15070457110958 1:-0.669005 2:-0.797409 3:-0.0449304 4:-0.624557 5:-0.499664 6:-0.31074 7:-0.211888 8:-0.553277 9:-0.434331 10:-0.731573 11:-0.34716 12:-0.612787 13:-0.651416 14:-0.488193 15:-0.574759 16:-0.713846 17:-0.721762 18:-0.60404 19:-0.161664 20:0.110049 21:-0.415727 22:0.100634 23:-0.629076 24:0.264929 25:-0.305066 26:-0.0419754 27:-0.429942 28:0.53389 29:-0.290899 30:-0.188943 31:-0.157543 32:-0.678506 33:-0.772395 34:-0.517657 35:-0.716364 36:-0.48819 37:0.0949764 38:-0.136591 39:-0.657681 40:-0.430082 41:-0.455407 42:-0.464013 43:-0.294635 44:-0.721183 45:-0.28163 46:-0.0632715 47:-0.362136 48:-0.379928 49:-0.520175 50:-0.131731 51:-0.267154 52:0.0311248 53:0.247767 54:-0.0468076 55:-0.566207 56:-0.265251 57:0.201623 58:-0.144284 59:-0.393368 60:-0.533369 61:-0.255941 62:-0.179402 63:-0.469833 64:-0.416046 65:-0.381954 66:-0.0182576 67:0.0395705 68:0.240585 69:-0.542443 70:0.0166803 71:0.00115419 72:-0.028307 73:-0.315948 74:-0.72443 75:-0.204835 76:-0.0892713 77:-0.2808 78:-0.299576 79:-0.359505 80:-0.736922 81:-0.652196 82:-0.252006 83:0.190779 84:0.233075 85:-0.814877 86:-0.352604 87:-0.5639 88:-0.271433 89:-0.404812 90:-0.704249 91:-0.287474 92:0.571607 93:-0.476773 94:-0.602773 95:-0.439425 96:-0.605509 97:-0.582101 98:-0.397053 99:-0.168245 100:-0.493848 101:-0.158931 102:0.0865312 103:-0.129458 104:-0.444858 105:-0.437911 106:-0.717711 107:-0.107661 108:-0.798901 109:-0.154711 110:-0.302195 111:-0.249209 112:-0.735035 113:-0.501194 114:-0.631105 115:-0.645155 116:-0.62548 117:-0.553709 118:-0.432991 119:-0.586538 120:-0.742309 121:-0.187771 122:-0.319057 123:-0.204573 124:-0.0303911 125:-0.548195 126:-0.359399 127:-0.437222 128:-0.946414 
1.896034518566432 1:-0.572047 2:-0.669676 3:-0.588668 4:-0.819736 5:-0.472371 6:-0.244579 7:-0.709982 8:-0.496234 9:-0.450695 10:-0.812234 11:-0.38049 12:-0.815581 13:-0.462509 14:-0.746403 15:-0.530071 16:-0.875344 17:-0.669806 18:-0.620768 19:-0.535498 20:-0.610088 21:-0.112273 22:0.166742 23:-0.81467 24:-0.310894 25:-0.184886 26:-0.372667 27:-0.307174 28:-0.362861 29:0.51985 30:-0.225931 31:0.349183 32:-0.583413 33:-0.793739 34:-0.491993 35:-0.707826 36:-0.528597 37:-0.195999 38:-0.536376 39:-0.676766 40:-0.12385 41:-0.120313 42:-0.630752 43:0.34667 44:-0.680956 45:-0.228167 46:-0.200096 47:0.00729917 48:-0.345348 49:-0.583963 50:-0.59541 51:-0.395458 52:-0.444086 53:-0.29067 54:-0.224139 55:-0.526532 56:0.328776 57:0.00143027 58:-0.492043 59:0.00755013 60:-0.697054 61:-0.456909 62:-0.201866 63:0.103067 64:0.418781 65:0.533256 66:0.411122 67:-0.238417 68:-0.536992 69:-0.367346 70:0.0568809 71:0.062305 72:-0.277569 73:0.25964 74:-0.531316 75:-0.0126404 76:-0.483888 77:0.239642 78:-0.298524 79:0.119032 80:-0.753684 81:-0.637435 82:-0.138918 83:-0.361592 84:-0.23085 85:-0.745467 86:-0.0587023 87:-0.658329 88:-0.364251 89:-0.200556 90:-0.754038 91:-0.472525 92:-0.406103 93:0.180779 94:-0.542817 95:0.211698 96:-0.619788 97:-0.573039 98:-0.267429 99:-0.438784 100:-0.612251 101:-0.0610745 102:0.043446 103:-0.196232 104:-0.519533 105:0.403253 106:-0.570769 107:0.125161 108:-0.83141 109:-0.249311 110:-0.3206 111:0.514605 112:-0.300118 113:-0.523674 114:-0.72484 115:-0.804273 116:-0.828845 117:-0.58699 118:-0.390909 119:-0.778939 120:-0.78066 121:0.100358 122:-0.50985 123:-0.28745 124:-0.668604 125:0.0117722 126:-0.319455 127:0.0582689 128:-0.944 
32 1:-0.731319 2:-0.736389 3:-0.2845 4:-0.581714 5:-0.425749 6:-0.146312 7:-0.472374 8:-0.470642 9:-0.540564 10:-0.852323 11:-0.448515 12:-0.763794 13:-0.581467 14:-0.463048 15:-0.70746 16:-0.80002 17:-0.799951 18:-0.634499 19:-0.146953 20:0.18955 21:-0.568202 22:0.42967 23:-0.704389 24:0.300837 25:-0.494198 26:-0.238228 27:-0.28187 28:-0.0850609 29:-0.214591 30:-0.130843 31:-0.337242 32:-0.748043 33:-0.857604 34:-0.570345 35:-0.821707 36:-0.615847 37:0.380873 38:0.445463 39:-0.748355 40:-0.53481 41:-0.657286 42:-0.705928 43:-0.378098 44:-0.787141 45:0.613756 46:0.524326 47:-0.331113 48:-0.513543 49:-0.561141 50:-0.332824 51:-0.472709 52:0.0393878 53:0.582947 54:0.519786 55:-0.584188 56:-0.333865 57:-0.0968922 58:-0.157275 59:-0.174706 60:-0.672175 61:0.430237 62:0.213772 63:-0.275083 64:-0.46832 65:-0.573996 66:0.10424 67:-0.175031 68:-0.00410839 69:-0.604833 70:0.524718 71:-0.378447 72:-0.183835 73:-0.267545 74:-0.79739 75:0.427135 76:-0.168054 77:-0.278052 78:-0.133097 79:-0.473598 80:-0.802726 81:-0.841455 82:-0.560635 83:-0.115027 84:-0.117175 85:-0.860295 86:-0.378553 87:-0.756599 88:-0.522662 89:-0.494538 90:-0.793765 91:-0.277731 92:-0.0768612 93:-0.58204 94:-0.695392 95:-0.754166 96:-0.770146 97:-0.70717 98:-0.481775 99:-0.664142 100:-0.728946 101:-0.049007 102:0.43412 103:-0.399947 104:-0.668956 105:-0.417603 106:-0.735598 107:0.263273 108:-0.881549 109:0.0362955 110:-0.0489517 111:-0.290762 112:-0.924866 113:-0.599804 114:-0.73823 115:-0.814948 116:-0.774057 117:-0.526905 118:-0.392592 119:-0.746422 120:-0.805202 121:-0.370351 122:-0.578926 123:-0.278399 124:-0.48217 125:-0.385387 126:-0.313014 127:-0.576705 128:-0.968218 
11.41549169888874 1:-0.286296 2:-0.733315 3:-0.305584 4:-0.868524 5:-0.343046 6:-0.685565 7:0.136253 8:-0.523391 9:-0.00732364 10:-0.116074 11:-0.32936 12:-0.526659 13:-0.380777 14:-0.235635 15:-0.357004 16:-0.466388 17:-0.61862 18:-0.700197 19:-0.446138 20:-0.553399 21:-0.197195 22:-0.325861 23:-0.529705 24:0.213904 25:-0.0669042 26:-0.0382234 27:-0.651107 28:-0.163665 29:0.268311 30:0.18388 31:-0.119526 32:-0.484987 33:-0.62839 34:0.23898 35:-0.667863 36:-0.321865 37:0.391843 38:-0.529346 39:-0.506354 40:0.626572 41:-0.0911217 42:-0.0132035 43:-0.173199 44:-0.534872 45:-0.0909497 46:-0.0676895 47:-0.237597 48:0.174957 49:-0.16844 50:0.0255903 51:-0.339825 52:0.240296 53:-0.0604218 54:-0.423223 55:-0.421322 56:0.0218374 57:-0.0609027 58:-0.271403 59:-0.470976 60:-0.572048 61:-0.524138 62:-0.369212 63:-0.58009 64:-0.187315 65:-0.384084 66:0.0626276 67:-0.53294 68:-0.609442 69:-0.569064 70:-0.0688806 71:0.155602 72:0.0877718 73:-0.160363 74:-0.539493 75:-0.278617 76:-0.383425 77:-0.355313 78:0.0735122 79:-0.288371 80:-0.635774 81:-0.441241 82:0.454695 83:-0.107759 84:-0.365157 85:-0.686179 86:-0.153266 87:-0.3616 88:0.0828556 89:-0.286858 90:-0.449375 91:-0.490025 92:0.209476 93:-0.31033 94:-0.198704 95:-0.167456 96:-0.122031 97:-0.490345 98:-0.079983 99:-0.497184 100:-0.513316 101:-0.26573 102:0.259738 103:-0.0528377 104:-0.0881398 105:-0.66714 106:-0.433092 107:-0.222316 108:-0.83782 109:-0.649167 110:-0.328114 111:-0.176772 112:-0.656898 113:-0.0857269 114:-0.0591492 115:-0.695547 116:-0.574147 117:-0.423394 118:-0.209946 119:-0.422974 120:-0.520824 121:-0.38506 122:0.125959 123:-0.435175 124:-0.34972 125:-0.685358 126:-0.104099 127:-0.460615 128:-0.922932 
14.07305839611028 1:-0.667502 2:-0.760634 3:-0.33724 4:-0.471158 5:-0.528658 6:-0.696007 7:-0.191112 8:-0.368891 9:-0.679618 10:-0.632551 11:-0.683068 12:-0.730323 13:-0.536484 14:-0.478534 15:-0.656579 16:-0.82985 17:-0.756809 18:-0.612706 19:-0.348426 20:-0.12983 21:-0.604811 22:-0.428168 23:-0.810644 24:-0.435235 25:0.0983028 26:0.544086 27:-0.47734 28:0.564968 29:0.0696785 30:-0.230048 31:-0.379857 32:-0.811632 33:-0.76844 34:-0.284749 35:-0.863494 36:-0.539564 37:0.360888 38:-0.462364 39:-0.595167 40:-0.0194162 41:-0.0358237 42:-0.348179 43:-0.47308 44:-0.838757 45:0.161636 46:0.0138431 47:-0.319425 48:-0.664656 49:-0.551289 50:-0.108105 51:-0.735136 52:-0.181195 53:0.0553064 54:-0.413293 55:-0.710928 56:-0.73309 57:0.829477 58:0.554858 59:-0.385812 60:-0.573647 61:-0.248316 62:-0.341235 63:-0.507462 64:-0.753114 65:-0.540731 66:-0.869097 67:-0.596234 68:-0.405832 69:-0.686318 70:-0.460686 71:0.791818 72:0.459979 73:-0.244942 74:-0.898139 75:-0.34878 76:-0.67756 77:0.0540275 78:-0.448683 79:0.342821 80:-0.735444 81:-0.769915 82:-0.789377 83:-0.24352 84:-0.236999 85:-0.869267 86:-0.664783 87:-0.32441 88:-0.25956 89:-0.132341 90:-0.642914 91:-0.0563157 92:0.114436 93:0.114098 94:-0.611589 95:0.477151 96:-0.562404 97:-0.743504 98:-0.713397 99:-0.461374 100:-0.610664 101:0.135032 102:-0.284744 103:0.903951 104:-0.140222 105:-0.271507 106:-0.801123 107:0.116505 108:-0.801661 109:0.252653 110:-0.369737 111:0.665734 112:-0.395377 113:-0.444877 114:-0.702274 115:-0.760348 116:-0.791221 117:-0.676611 118:-0.690399 119:-0.643217 120:-0.854427 121:0.980218 122:-0.340575 123:0.221535 124:-0.348945 125:0.0956854 126:-0.387642 127:0.302584 128:-0.941371 
32 1:-0.251003 2:-0.716843 3:-0.230195 4:-0.818435 5:-0.266463 6:-0.495357 7:0.367741 8:-0.366207 9:-0.0792213 10:0.0313413 11:-0.369393 12:-0.589622 13:-0.338399 14:-0.29553 15:-0.258887 16:-0.356956 17:-0.456852 18:-0.576943 19:-0.316748 20:-0.419522 21:-0.292224 22:-0.155684 23:-0.35724 24:0.191818 25:0.386189 26:0.234828 27:-0.521858 28:-0.0870899 29:0.181337 30:-0.207569 31:-0.187052 32:-0.627203 33:-0.475842 34:0.470259 35:-0.666339 36:-0.188207 37:0.175398 38:-0.376602 39:-0.388335 40:0.422026 41:-0.120152 42:0.198071 43:-0.429646 44:-0.588674 45:-0.3317 46:-0.0501513 47:-0.159396 48:-0.0298219 49:0.128981 50:0.876616 51:-0.185365 52:0.475402 53:0.0212717 54:-0.32108 55:-0.472783 56:-0.295026 57:-0.0538512 58:-0.100135 59:-0.735293 60:-0.621184 61:-0.460759 62:-0.470467 63:-0.787128 64:-0.683262 65:-0.587253 66:-0.67187 67:-0.632745 68:-0.661919 69:-0.674203 70:-0.150442 71:0.178814 72:0.320331 73:-0.443371 74:-0.497963 75:-0.457362 76:-0.450533 77:-0.347728 78:0.0241451 79:-0.277211 80:-0.395812 81:-0.481085 82:0.161594 83:-0.132443 84:-0.347762 85:-0.774134 86:-0.35201 87:-0.202025 88:0.464112 89:-0.377597 90:-0.349342 91:-0.620342 92:0.095511 93:-0.376129 94:-0.382281 95:-0.539811 96:0.0707545 97:-0.608193 98:-0.00724856 99:-0.513051 100:-0.472535 101:-0.445524 102:0.223971 103:0.186146 104:0.273905 105:-0.799418 106:-0.505342 107:-0.56401 108:-0.864534 109:-0.534798 110:-0.439516 111:-0.516008 112:-0.497659 113:-0.154501 114:0.00631444 115:-0.65023 116:-0.409933 117:-0.556001 118:-0.199052 119:-0.255623 120:-0.376536 121:-0.563684 122:0.30215 123:-0.767655 124:-0.324481 125:-0.586401 126:-0.477908 127:-0.777091 128:-0.942242 
32 1:-0.709203 2:-0.895516 3:-1 4:-0.970963 5:-0.12844 6:-0.556406 7:-0.532945 8:-0.768245 9:-0.393618 10:-0.647425 11:-0.34124 12:-0.804176 13:-0.471534 14:-0.501939 15:-0.387994 16:-0.36039 17:-0.0020398 18:-0.357486 19:-0.294453 20:-1 21:0.532791 22:0.936597 23:-0.530382 24:-0.825606 25:-0.0874278 26:-0.47247 27:1 28:-0.896404 29:0.14486 30:-0.41941 31:0.414241 32:-0.792199 33:-0.58113 34:-0.726496 35:-0.867429 36:-1 37:0.0978125 38:-0.62048 39:-0.687702 40:-0.226417 41:0.123458 42:-0.502107 43:-0.0585959 44:-0.853365 45:0.1042 46:-0.229684 47:-0.405757 48:-0.361069 49:-0.0023473 50:-0.402675 51:0.109017 52:-0.543109 53:0.0305001 54:0.866962 55:-0.47085 56:0.0135328 57:-0.147251 58:-0.689766 59:1 60:-0.988121 61:-0.483416 62:0.350769 63:-0.191024 64:0.00441516 65:-0.528691 66:-0.0622525 67:-0.78136 68:-0.849491 69:-0.324386 70:0.0959724 71:-0.439854 72:-0.0651864 73:-0.162896 74:-0.264844 75:-0.146734 76:-0.176616 77:-0.356334 78:0.583096 79:0.452715 80:-0.353231 81:-0.458107 82:0.386094 83:-0.738433 84:-0.943915 85:-0.733013 86:-0.0909493 87:-0.629018 88:-0.744498 89:-0.586466 90:-0.560915 91:-0.678985 92:-1 93:-0.766594 94:-0.464217 95:-0.463624 96:-0.671207 97:-0.353131 98:-0.421775 99:-0.688387 100:-0.883286 101:-0.0424229 102:0.77035 103:-0.580821 104:-0.0859853 105:0.0799144 106:-0.261804 107:-0.00153668 108:0.645815 109:-0.324702 110:0.226924 111:0.636502 112:-0.263878 113:-0.568046 114:-0.728175 115:-0.861391 116:-0.953589 117:-0.890185 118:0.254744 119:-0.559088 120:-0.561087 121:-0.800027 122:-0.0945393 123:-0.429759 124:-0.861468 125:-0.70852 126:1 127:-0.465277 128:-0.898428 
32 1:-0.554376 2:-0.748181 3:-0.130653 4:-0.687652 5:-0.118721 6:-0.225081 7:-0.24958 8:-0.463356 9:-0.234546 10:-0.68177 11:-0.379125 12:-0.685861 13:-0.38403 14:-0.259067 15:-0.520629 16:-0.707369 17:-0.635235 18:-0.577508 19:-0.257317 20:-0.166768 21:-0.0912358 22:0.5707 23:-0.701267 24:0.241578 25:-0.280563 26:-0.308812 27:-0.270692 28:-0.127383 29:-0.106287 30:-0.109355 31:-0.321609 32:-0.660261 33:-0.768264 34:-0.208126 35:-0.78848 36:-0.498007 37:0.523711 38:-0.0888395 39:-0.649204 40:-0.267284 41:-0.554673 42:-0.52902 43:-0.326386 44:-0.785988 45:-0.0804391 46:0.442793 47:-0.255271 48:-0.481438 49:-0.457534 50:0.217099 51:-0.362494 52:0.0265066 53:0.738776 54:0.528377 55:-0.56052 56:-0.0733609 57:-0.116317 58:-0.295571 59:-0.2458 60:-0.681445 61:-0.108121 62:0.248081 63:-0.515607 64:-0.410395 65:-0.375164 66:0.0972454 67:-0.292764 68:-0.217637 69:-0.521369 70:0.585557 71:-0.284059 72:-0.0157395 73:-0.319623 74:-0.784376 75:0.0058553 76:-0.2296 77:-0.216856 78:0.281725 79:-0.669654 80:-0.763621 81:-0.733989 82:-0.236244 83:-0.286854 84:-0.263294 85:-0.816262 86:-0.11372 87:-0.774643 88:-0.477488 89:-0.474805 90:-0.825779 91:-0.445096 92:-0.152356 93:-0.604255 94:-0.51844 95:-0.6693 96:-0.647758 97:-0.71349 98:-0.364284 99:-0.578595 100:-0.638814 101:-0.190063 102:0.574301 103:-0.16057 104:-0.389006 105:-0.468425 106:-0.623405 107:-0.121586 108:-0.855541 109:-0.208545 110:0.125472 111:-0.38863 112:-0.78866 113:-0.447937 114:-0.652909 115:-0.760323 116:-0.749559 117:-0.453026 118:-0.0841273 119:-0.564528 120:-0.715542 121:-0.460211 122:-0.4925 123:-0.375373 124:-0.254595 125:-0.527379 126:-0.114919 127:-0.482338 128:-0.949193 
4.452422339515621 1:-0.623888 2:-0.775592 3:-0.179296 4:-0.639103 5:-0.492362 6:-0.319102 7:-0.0233025 8:-0.467673 9:-0.444143 10:-0.449763 11:-0.603176 12:-0.579627 13:-0.252327 14:-0.434854 15:-0.385541 16:-0.632485 17:-0.738113 18:-0.653235 19:-0.480823 20:-0.258582 21:-0.568552 22:0.0362291 23:-0.792211 24:-0.25393 25:-0.544292 26:-0.638824 27:-0.496047 28:-0.232984 29:-0.013312 30:-0.571608 31:-0.343518 32:-0.819865 33:-0.761667 34:-0.366544 35:-0.716146 36:-0.146426 37:-0.304012 38:-0.330056 39:-0.689563 40:-0.430795 41:-0.503488 42:-0.603671 43:-0.480125 44:-0.669944 45:0.243982 46:-0.0474737 47:-0.391014 48:-0.644473 49:-0.600565 50:-0.504236 51:-0.523719 52:0.0383955 53:-0.416372 54:-0.137207 55:-0.6533 56:-0.762789 57:-0.278569 58:-0.463926 59:-0.496494 60:-0.730937 61:-0.134922 62:-0.514118 63:-0.635898 64:-0.671582 65:-0.134622 66:-0.310909 67:-0.109106 68:0.0217617 69:-0.771016 70:-0.512315 71:-0.464861 72:-0.282909 73:-0.134749 74:-0.754155 75:0.159651 76:-0.215267 77:0.364327 78:-0.513197 79:-0.388741 80:-0.73515 81:-0.692211 82:-0.223492 83:0.477935 84:0.321669 85:-0.823732 86:-0.701151 87:-0.467395 88:-0.408653 89:-0.313306 90:-0.745346 91:0.258308 92:0.422593 93:0.129739 94:-0.648348 95:-0.237325 96:-0.470427 97:-0.623118 98:-0.575436 99:-0.351913 100:-0.122116 101:-0.654406 102:-0.321727 103:-0.421192 104:-0.768242 105:-0.588579 106:-0.826648 107:0.224888 108:-0.758404 109:0.0437021 110:-0.542326 111:-0.095654 112:-0.639851 113:-0.201049 114:-0.583061 115:-0.381595 116:-0.354358 117:-0.514926 118:-0.690473 119:-0.588529 120:-0.68317 121:-0.0758172 122:-0.386832 123:0.234371 124:0.0342456 125:-0.0479458 126:-0.331665 127:-0.36062 128:-0.9433 
32 1:-0.48526 2:-0.835134 3:-0.488216 4:-0.69166 5:-0.447762 6:-0.433399 7:-0.0328118 8:-0.423113 9:-0.148646 10:-0.287675 11:-0.358675 12:-0.596373 13:-0.194541 14:-0.235338 15:-0.251859 16:-0.507853 17:-0.746156 18:-0.764765 19:-0.713107 20:-0.471523 21:-0.434318 22:-0.206967 23:-0.55553 24:-0.281398 25:-0.234564 26:-0.569388 27:-0.695281 28:-0.465597 29:0.395325 30:-0.110588 31:0.0155046 32:-0.540494 33:-0.629014 34:0.0115807 35:-0.613385 36:-0.220929 37:-0.0855227 38:-0.195589 39:-0.519585 40:-0.103374 41:-0.138497 42:-0.22268 43:-0.199113 44:-0.519249 45:0.202271 46:-0.00730982 47:-0.11799 48:-0.125004 49:-0.388298 50:-0.189869 51:-0.492227 52:-0.0510286 53:-0.173528 54:-0.265674 55:-0.502015 56:-0.0843746 57:-0.395385 58:-0.524303 59:-0.692213 60:-0.730137 61:-0.222345 62:-0.55045 63:-0.451782 64:-0.359028 65:-0.270879 66:-0.454963 67:-0.543861 68:-0.533038 69:-0.744918 70:-0.400435 71:-0.409375 72:-0.394571 73:-0.141512 74:-0.680096 75:-0.0807931 76:-0.711105 77:-0.300398 78:-0.279643 79:-0.347461 80:-0.700745 81:-0.479031 82:-0.268895 83:-0.208414 84:-0.207063 85:-0.698107 86:-0.316923 87:-0.329733 88:-0.191111 89:-0.125926 90:-0.589072 91:0.109746 92:-0.220156 93:0.23664 94:-0.285458 95:-0.0709995 96:-0.248068 97:-0.529091 98:-0.13542 99:-0.294265 100:-0.598291 101:-0.411386 102:-0.195316 103:-0.337089 104:-0.519024 105:-0.566849 106:-0.622506 107:-0.0848308 108:-0.819618 109:-0.249371 110:-0.540382 111:-0.321587 112:-0.749935 113:0.0242013 114:-0.196408 115:-0.576305 116:-0.563985 117:-0.306663 118:-0.385005 119:-0.299447 120:-0.594187 121:-0.334528 122:-0.0409813 123:0.0718812 124:-0.392992 125:-0.21448 126:-0.35926 127:-0.52939 128:-0.934253 
17.29901306771044 1:-0.396971 2:-0.692296 3:-0.252012 4:-0.708144 5:-0.316361 6:-0.644144 7:-0.0588291 8:-0.299321 9:-0.289339 10:-0.237126 11:-0.247413 12:-0.648951 13:-0.423756 14:-0.205512 15:-0.4284 16:-0.588917 17:-0.71948 18:-0.637782 19:-0.339599 20:-0.474023 21:-0.470852 22:-0.288701 23:-0.597457 24:0.0595968 25:-0.358006 26:-0.0814183 27:-0.4422 28:-0.00292408 29:0.26155 30:-0.100196 31:-0.0734764 32:-0.607581 33:-0.691798 34:-0.0781427 35:-0.694287 36:-0.402315 37:0.228911 38:-0.447401 39:-0.594202 40:0.052689 41:-0.549976 42:-0.0765427 43:-0.235408 44:-0.58223 45:-0.0875565 46:0.175034 47:-0.0358221 48:-0.0547112 49:-0.605431 50:-0.0854805 51:-0.402034 52:0.00372123 53:0.18196 54:-0.24999 55:-0.483417 56:-0.139898 57:-0.0834765 58:-0.107515 59:-0.487164 60:-0.571182 61:-0.245522 62:-0.17567 63:-0.457298 64:-0.48888 65:-0.282519 66:-0.196465 67:-0.273429 68:-0.593625 69:-0.49507 70:-0.138896 71:-0.0527722 72:-0.178214 73:-0.0636806 74:-0.536731 75:-0.0991883 76:-0.372832 77:-0.0956258 78:-0.0750915 79:-0.397227 80:-0.696555 81:-0.570103 82:0.00409777 83:-0.0542772 84:-0.428508 85:-0.747006 86:-0.359344 87:-0.342708 88:-0.155083 89:-0.326624 90:-0.659882 91:-0.308449 92:0.00793532 93:-0.266394 94:-0.361757 95:-0.291292 96:-0.268205 97:-0.571923 98:-0.26241 99:-0.35829 100:-0.522266 101:-0.0736137 102:0.0855623 103:-0.25885 104:-0.439622 105:-0.599075 106:-0.626451 107:0.0328347 108:-0.764333 109:-0.291824 110:-0.352736 111:-0.171803 112:-0.584794 113:-0.22761 114:-0.286113 115:-0.626205 116:-0.637147 117:-0.434857 118:-0.336723 119:-0.380998 120:-0.555523 121:-0.0521378 122:-0.0611986 123:-0.46886 124:-0.0777113 125:-0.374556 126:-0.186974 127:-0.382079 128:-0.925415 
12.57800956309545 1:-0.441028 2:-0.743272 3:-0.0707661 4:-0.64834 5:-0.145889 6:-0.300254 7:-0.238439 8:-0.486756 9:-0.524436 10:-0.799093 11:-0.437527 12:-0.672048 13:-0.449038 14:-0.546065 15:-0.5247 16:-0.720953 17:-0.536077 18:-0.586254 19:-0.295859 20:-0.190519 21:-0.360925 22:-0.0828651 23:-0.467427 24:-0.24196 25:-0.312054 26:-0.321991 27:-0.0689209 28:0.00280473 29:-0.0954115 30:-0.410229 31:-0.24828 32:-0.780027 33:-0.812089 34:-0.758341 35:-0.773477 36:-0.66963 37:-0.0226888 38:-0.30952 39:-0.609213 40:-0.566299 41:-0.440247 42:-0.640416 43:-0.387292 44:-0.754321 45:0.00232143 46:-0.149892 47:-0.243333 48:-0.36968 49:-0.435878 50:-0.412486 51:-0.328858 52:0.109671 53:0.0823233 54:0.132652 55:-0.521078 56:-0.523958 57:-0.0312552 58:-0.216551 59:-0.185582 60:-0.585059 61:0.21047 62:-0.185434 63:-0.558341 64:-0.552521 65:-0.160165 66:-0.3617 67:-0.156217 68:0.269136 69:-0.543555 70:-0.150442 71:-0.115825 72:-0.23802 73:-0.0873804 74:-0.870062 75:0.0331968 76:-0.217583 77:0.194573 78:0.00758573 79:-0.29942 80:-0.702331 81:-0.773913 82:-0.52369 83:-0.000658238 84:0.0478772 85:-0.851286 86:-0.603828 87:-0.598549 88:-0.447794 89:-0.376719 90:-0.821837 91:-0.248875 92:0.182375 93:-0.425922 94:-0.592186 95:-0.523047 96:-0.576666 97:-0.763581 98:-0.417979 99:-0.389407 100:-0.335246 101:-0.277267 102:0.151571 103:-0.279154 104:-0.51841 105:-0.59214 106:-0.769603 107:0.00987863 108:-0.820185 109:0.133063 110:-0.14434 111:0.0425104 112:-0.453832 113:-0.392031 114:-0.632087 115:-0.642939 116:-0.599772 117:-0.487033 118:-0.479413 119:-0.513414 120:-0.771515 121:-0.0421294 122:-0.273805 123:-0.167104 124:-0.173766 125:-0.288407 126:-0.241028 127:-0.381639 128:-0.951065 
30.92634588224238 1:-0.345019 2:-0.597181 3:-0.172782 4:-0.574468 5:-0.574779 6:-0.467931 7:-0.0397791 8:-0.398 9:-0.425795 10:-0.243717 11:-0.411076 12:-0.529662 13:-0.385414 14:-0.39978 15:-0.337192 16:-0.505333 17:-0.629802 18:-0.631309 19:-0.59931 20:-0.277332 21:-0.537308 22:-0.292306 23:-0.522087 24:-0.187613 25:-0.116952 26:-0.311064 27:-0.50919 28:0.182069 29:0.165719 30:-0.377248 31:0.169504 32:-0.471589 33:-0.684808 34:-0.0893288 35:-0.644946 36:-0.0558291 37:-0.00907992 38:-0.401005 39:-0.533373 40:-0.0982346 41:-0.285118 42:-0.243337 43:-0.247597 44:-0.629993 45:0.105938 46:-0.29823 47:-0.12378 48:-0.303622 49:-0.517433 50:-0.162014 51:-0.330518 52:0.196786 53:-0.265812 54:-0.431105 55:-0.473235 56:-0.135063 57:0.116295 58:-0.288774 59:-0.440604 60:-0.651548 61:-0.347441 62:-0.452108 63:-0.409553 64:-0.341895 65:-0.157693 66:-0.290721 67:-0.36028 68:-0.582902 69:-0.562862 70:-0.550667 71:-0.0659385 72:-0.127422 73:-0.00240086 74:-0.638661 75:-0.250873 76:-0.50625 77:-0.303303 78:-0.186987 79:-0.226761 80:-0.62002 81:-0.531972 82:-0.029051 83:-0.212117 84:-0.390805 85:-0.713294 86:-0.373524 87:-0.33764 88:-0.12423 89:-0.137777 90:-0.591962 91:-0.0746222 92:-0.180308 93:-0.194468 94:-0.481115 95:-0.226695 96:-0.132981 97:-0.511971 98:-0.256624 99:-0.263282 100:-0.492464 101:-0.351657 102:-0.430533 103:0.0154247 104:-0.416177 105:-0.406233 106:-0.548024 107:-0.162229 108:-0.872344 109:-0.423337 110:-0.424397 111:-0.200056 112:-0.603385 113:-0.103754 114:-0.416753 115:-0.537021 116:-0.561822 117:-0.345026 118:-0.485966 119:-0.237275 120:-0.571972 121:-0.123274 122:-0.0823025 123:-0.242042 124:-0.174579 125:-0.49747 126:-0.340516 127:-0.507931 128:-0.938117 
17.79886960775103 1:-0.609444 2:-0.773995 3:-0.0502757 4:-0.483342 5:-0.215134 6:-0.450774 7:-0.0453026 8:-0.393558 9:-0.475989 10:-0.682495 11:-0.612543 12:-0.718299 13:-0.597571 14:-0.411732 15:-0.596733 16:-0.742107 17:-0.588668 18:-0.623134 19:-0.189009 20:-0.0605166 21:-0.305525 22:-0.192744 23:-0.640963 24:-0.0410105 25:-0.440031 26:-0.0582731 27:-0.255994 28:0.237543 29:-0.265847 30:-0.321349 31:-0.494814 32:-0.725314 33:-0.881558 34:-0.701202 35:-0.782443 36:-0.653248 37:0.0148401 38:-0.185547 39:-0.746928 40:-0.558306 41:-0.760886 42:-0.629066 43:-0.535888 44:-0.825182 45:0.0561158 46:-0.124321 47:-0.444661 48:-0.528079 49:-0.439698 50:-0.317908 51:-0.367452 52:0.112954 53:0.306736 54:-0.0383745 55:-0.614132 56:-0.472004 57:-0.0718792 58:0.0285159 59:-0.315978 60:-0.567141 61:0.251766 62:-0.289108 63:-0.588458 64:-0.638633 65:-0.322346 66:-0.382969 67:-0.273047 68:0.00527455 69:-0.558071 70:-0.155601 71:-0.208267 72:-0.0192327 73:-0.266511 74:-0.824532 75:0.404016 76:-0.328961 77:-0.211674 78:-0.333748 79:-0.288746 80:-0.703996 81:-0.820491 82:-0.52767 83:-0.0648364 84:-0.146221 85:-0.911167 86:-0.45704 87:-0.660899 88:-0.495588 89:-0.489991 90:-0.737071 91:0.441869 92:-0.115309 93:-0.438941 94:-0.754625 95:-0.560222 96:-0.715468 97:-0.714797 98:-0.566953 99:-0.419728 100:-0.623064 101:-0.222629 102:-0.0639372 103:-0.234367 104:-0.521104 105:-0.433818 106:-0.740962 107:0.220246 108:-0.774384 109:0.223629 110:-0.23362 111:-0.168748 112:-0.651655 113:-0.473771 114:-0.636675 115:-0.736873 116:-0.653607 117:-0.68303 118:-0.54154 119:-0.557736 120:-0.750746 121:-0.0443818 122:-0.374063 123:0.62249 124:-0.176226 125:0.000593702 126:-0.385093 127:-0.287273 128:-0.94636 
32 1:-0.542448 2:-0.743777 3:-0.249319 4:-0.612107 5:-0.443521 6:-0.569967 7:-0.100475 8:-0.428686 9:-0.446758 10:-0.553704 11:-0.288893 12:-0.635735 13:-0.371246 14:-0.364544 15:-0.486747 16:-0.582511 17:-0.734477 18:-0.644781 19:-0.476328 20:-0.419147 21:-0.426183 22:-0.235714 23:-0.686483 24:-0.00516123 25:-0.296204 26:-0.217217 27:-0.379826 28:-0.240216 29:0.285475 30:-0.160388 31:-0.0372761 32:-0.63363 33:-0.79209 34:-0.361539 35:-0.702494 36:-0.294153 37:-0.010377 38:-0.424755 39:-0.664378 40:-0.502795 41:-0.479598 42:-0.483978 43:-0.3192 44:-0.777411 45:0.337667 46:-0.0631376 47:-0.187435 48:-0.404016 49:-0.55965 50:-0.38423 51:-0.394891 52:-0.221537 53:0.0469262 54:-0.365216 55:-0.596138 56:-0.60675 57:-0.231249 58:-0.248681 59:-0.412452 60:-0.684498 61:0.0287524 62:-0.319469 63:-0.462498 64:-0.585881 65:-0.337163 66:-0.502024 67:-0.470487 68:-0.585716 69:-0.65584 70:-0.469375 71:-0.243855 72:-0.244203 73:-0.0875348 74:-0.791467 75:0.174126 76:-0.486109 77:-0.022605 78:-0.228194 79:-0.0158113 80:-0.69862 81:-0.653679 82:-0.302096 83:-0.23447 84:-0.387488 85:-0.795572 86:-0.498763 87:-0.552379 88:-0.266044 89:-0.252762 90:-0.715977 91:0.444289 92:-0.177712 93:0.200419 94:-0.605133 95:-0.192602 96:-0.444504 97:-0.595502 98:-0.483351 99:-0.439355 100:-0.67166 101:-0.241438 102:-0.410371 103:-0.111451 104:-0.573485 105:-0.289623 106:-0.681727 107:0.474018 108:-0.830881 109:0.0647177 110:-0.423009 111:0.00260894 112:-0.660126 113:-0.39668 114:-0.472635 115:-0.558013 116:-0.630531 117:-0.438334 118:-0.403514 119:-0.38843 120:-0.679963 121:0.0305541 122:-0.337058 123:0.561872 124:-0.147132 125:0.0719373 126:-0.231158 127:-0.356751 128:-0.958405 
32 1:-0.798584 2:-0.541066 3:-0.407917 4:-0.367025 5:-0.891113 6:-0.0657666 7:-0.772279 8:-0.183558 9:-0.547635 10:-0.850247 11:-0.510012 12:-0.708189 13:-0.738138 14:-0.8501 15:-0.743702 16:-0.831241 17:-0.717905 18:-0.430527 19:-0.142458 20:0.0496727 21:-0.805974 22:0.309474 23:-0.785966 24:-0.0379814 25:-0.575876 26:-0.840446 27:-0.0715396 28:-0.262224 29:-0.874636 30:-0.742542 31:-0.545956 32:-0.856836 33:-0.901413 34:-0.155471 35:-0.717415 36:-0.23244 37:-0.599384 38:0.187224 39:-0.971107 40:-0.0259407 41:-0.724377 42:-0.911359 43:-0.402404 44:-0.806953 45:-0.264747 46:-0.183897 47:-0.543091 48:-0.663332 49:-0.783997 50:-0.445947 51:-0.263246 52:-0.00478989 53:-0.71798 54:0.197516 55:-0.756208 56:-0.515906 57:-0.369197 58:-0.96405 59:-0.325823 60:-0.817053 61:-0.326227 62:-0.418774 63:-0.507943 64:-0.736112 65:-0.204976 66:-0.40671 67:-0.0701011 68:0.342122 69:-0.893583 70:-0.453426 71:-0.4247 72:-0.357311 73:-0.0177787 74:-0.881194 75:0.496595 76:-0.247577 77:-0.355234 78:-0.802436 79:-0.382686 80:-0.881679 81:-0.784365 82:-0.357292 83:0.732728 84:0.592306 85:-0.854068 86:-0.683956 87:-0.616579 88:-0.583124 89:-0.178232 90:-0.880894 91:0.695554 92:0.402749 93:-0.285057 94:-0.794371 95:0.120104 96:-0.666702 97:-0.867735 98:-0.596321 99:-0.426752 100:-0.312273 101:-0.631902 102:-0.603183 103:-0.74802 104:-0.847884 105:-0.155342 106:-0.852046 107:0.575626 108:-0.798386 109:0.142939 110:-0.787871 111:0.20694 112:-0.678802 113:-0.626874 114:-0.63637 115:-0.58428 116:-0.558956 117:-0.923103 118:-0.805723 119:-0.695717 120:-0.819415 121:0.185734 122:-0.80903 123:0.49658 124:-0.422066 125:0.00819507 126:-0.848474 127:0.0765618 128:-0.970098 
14.21750605332284 1:-0.452814 2:-0.71276 3:-0.356008 4:-0.656542 5:-0.166328 6:-0.530973 7:-0.025876 8:-0.412001 9:-0.394169 10:-0.269656 11:-0.448474 12:-0.706504 13:-0.210378 14:-0.049771 15:-0.460783 16:-0.553228 17:-0.714385 18:-0.665085 19:-0.648134 20:-0.321646 21:-0.188261 22:-0.112914 23:-0.587676 24:0.114474 25:-0.289078 26:-0.314417 27:-0.567112 28:-0.506391 29:0.498074 30:0.262037 31:0.0245053 32:-0.588186 33:-0.708026 34:-0.107132 35:-0.712466 36:-0.487999 37:0.327537 38:-0.357572 39:-0.520264 40:-0.0744653 41:-0.431175 42:-0.214383 43:-0.395288 44:-0.619979 45:0.119345 46:0.398613 47:-0.130553 48:-0.103026 49:-0.366967 50:-0.0576252 51:-0.570717 52:-0.206805 53:0.344601 54:-0.143985 55:-0.517994 56:-0.203322 57:-0.278968 58:-0.484318 59:-0.444725 60:-0.700873 61:-0.0661452 62:-0.133536 63:-0.50461 64:-0.419802 65:-0.394241 66:-0.285426 67:-0.323034 68:-0.607632 69:-0.489257 70:-0.159534 71:-0.388214 72:-0.293469 73:-0.0897427 74:-0.710591 75:-0.123012 76:-0.628677 77:0.199284 78:0.30843 79:-0.348588 80:-0.763122 81:-0.655653 82:-0.1844 83:-0.342119 84:-0.577135 85:-0.728171 86:-0.292301 87:-0.592364 88:-0.178765 89:-0.340721 90:-0.581078 91:-0.513978 92:-0.399281 93:0.0651755 94:-0.389832 95:-0.359464 96:-0.461756 97:-0.549054 98:-0.17885 99:-0.570037 100:-0.655772 101:-0.258301 102:0.135801 103:-0.27259 104:-0.531726 105:-0.486729 106:-0.625511 107:-0.265218 108:-0.851694 109:0.0462312 110:-0.108888 111:-0.0196073 112:-0.671008 113:-0.19387 114:-0.43964 115:-0.716656 116:-0.640126 117:-0.317438 118:-0.150697 119:-0.503156 120:-0.678385 121:-0.0591692 122:-0.377019 123:-0.310822 124:-0.505801 125:-0.0784009 126:-0.044948 127:-0.275664 128:-0.932234 
13.0330252415553 1:-0.556939 2:-0.818157 3:-0.205725 4:-0.900085 5:-0.447959 6:-0.679672 7:-0.0252797 8:-0.581952 9:-0.34136 10:-0.353966 11:-0.21657 12:-0.633156 13:-0.357547 14:-0.371573 15:-0.392994 16:-0.538824 17:-0.679719 18:-0.777107 19:-0.381329 20:-0.582275 21:-0.322994 22:-0.298116 23:-0.435751 24:-0.0264826 25:-0.00255678 26:-0.393889 27:-0.280381 28:-0.0493275 29:0.172978 30:-0.0130116 31:0.125606 32:-0.614008 33:-0.703743 34:-0.226131 35:-0.653521 36:-0.549519 37:0.0548752 38:-0.591759 39:-0.521052 40:-0.122444 41:-0.0983187 42:-0.343234 43:-0.237768 44:-0.646622 45:0.270052 46:0.0487857 47:-0.0881288 48:-0.194618 49:-0.449824 50:-0.348241 51:-0.395815 52:-0.0551124 53:0.0434302 54:-0.30051 55:-0.449868 56:-0.300925 57:0.0297917 58:-0.436478 59:-0.310826 60:-0.532126 61:-0.15221 62:-0.173503 63:-0.484927 64:-0.178699 65:-0.228199 66:-0.310005 67:-0.219083 68:-0.525666 69:-0.522825 70:-0.0669815 71:0.0101526 72:-0.204634 73:0.0686831 74:-0.566484 75:-0.0754655 76:-0.321329 77:0.0155542 78:-0.048721 79:-0.26435 80:-0.619413 81:-0.547004 82:-0.0973908 83:0.0576232 84:-0.217096 85:-0.763399 86:-0.438786 87:-0.374378 88:-0.206785 89:-0.140634 90:-0.47965 91:-0.190605 92:0.31437 93:-0.0360805 94:-0.417088 95:-0.334869 96:-0.363156 97:-0.49532 98:-0.389504 99:-0.299243 100:-0.524111 101:-0.0832244 102:0.00405084 103:-0.00702315 104:-0.514954 105:-0.399726 106:-0.525742 107:-0.0957443 108:-0.817959 109:-0.136285 110:-0.273762 111:-0.138625 112:-0.690483 113:-0.116799 114:-0.351171 115:-0.537471 116:-0.589851 117:-0.26958 118:-0.413817 119:-0.383185 120:-0.609139 121:-0.179956 122:-0.181645 123:-0.266972 124:-0.249656 125:-0.386579 126:-0.11237 127:-0.456218 128:-0.934483 
32 1:-0.276077 2:-0.786282 3:-0.279946 4:-0.897059 5:-0.308951 6:-0.736691 7:0.0242754 8:-0.505427 9:-0.0810483 10:-0.182525 11:-0.344335 12:-0.634864 13:-0.286386 14:-0.209896 15:-0.334858 16:-0.396983 17:-0.569422 18:-0.66549 19:-0.524089 20:-0.614838 21:-0.22774 22:-0.433116 23:-0.458699 24:-0.218463 25:-0.159619 26:-0.122221 27:-0.367404 28:-0.258095 29:0.463169 30:0.175888 31:0.145581 32:-0.498081 33:-0.584572 34:-0.0194916 35:-0.589289 36:-0.205687 37:0.127778 38:-0.652063 39:-0.525127 40:0.235081 41:-0.193311 42:-0.0533196 43:-0.166259 44:-0.53414 45:-0.182979 46:-0.056042 47:-0.0939188 48:0.131837 49:-0.297507 50:0.10818 51:-0.449935 52:-0.0542727 53:0.107798 54:-0.520401 55:-0.44673 56:-0.276797 57:-0.098511 58:-0.0975239 59:-0.414112 60:-0.59555 61:-0.449511 62:-0.297896 63:-0.456359 64:0.103081 65:-0.169675 66:-0.0280759 67:-0.37244 68:-0.668688 69:-0.507908 70:-0.105502 71:0.0107725 72:-0.0602678 73:-0.0674788 74:-0.470876 75:-0.208353 76:-0.483318 77:-0.302581 78:-0.0284046 79:-0.273896 80:-0.618366 81:-0.414144 82:0.0796381 83:-0.209512 84:-0.592508 85:-0.673799 86:-0.227504 87:-0.195092 88:0.0377456 89:-0.16587 90:-0.44689 91:-0.362251 92:-0.17034 93:-0.080064 94:-0.273606 95:-0.0410335 96:-0.193373 97:-0.449811 98:0.0496614 99:-0.329699 100:-0.434615 101:-0.212704 102:0.0932517 103:-0.0477618 104:-0.277511 105:-0.394897 106:-0.391688 107:-0.0870888 108:-0.895759 109:-0.545998 110:-0.229747 111:-0.256634 112:-0.654714 113:-0.0809014 114:-0.234853 115:-0.656547 116:-0.585012 117:-0.358132 118:-0.201768 119:-0.268548 120:-0.488078 121:-0.354114 122:-0.156107 123:-0.368918 124:-0.4075 125:-0.637971 126:-0.0932091 127:-0.385773 128:-0.914689 
32 1:-0.412553 2:-0.663252 3:-0.362066 4:-0.741324 5:-0.23364 6:-0.229631 7:-0.0130086 8:-0.499386 9:-0.335376 10:-0.54153 11:-0.258469 12:-0.706779 13:-0.237892 14:-0.0840624 15:-0.410776 16:-0.580086 17:-0.669784 18:-0.620748 19:-0.497446 20:-0.463898 21:-0.0317179 22:0.0823042 23:-0.542796 24:-0.134795 25:-0.331953 26:-0.489729 27:-0.418796 28:-0.506439 29:0.180236 30:0.0930186 31:-0.199901 32:-0.610422 33:-0.748041 34:-0.0653107 35:-0.744845 36:-0.280936 37:0.211125 38:-0.244496 39:-0.677581 40:-0.0652345 41:-0.267196 42:-0.538365 43:-0.189696 44:-0.700957 45:-0.0234999 46:0.225105 47:-0.219905 48:-0.243682 49:-0.487758 50:0.151377 51:-0.297008 52:0.0738521 53:0.0474146 54:0.0303513 55:-0.612378 56:-0.258517 57:-0.429734 58:-0.433112 59:-0.488812 60:-0.755572 61:-0.457136 62:-0.194354 63:-0.453824 64:-0.428863 65:-0.526124 66:-0.0240162 67:-0.506401 68:-0.376276 69:-0.645526 70:-0.178155 71:-0.402343 72:-0.218365 73:-0.111899 74:-0.696669 75:-0.0319403 76:-0.342534 77:-0.30244 78:-0.0795425 79:0.0135352 80:-0.682006 81:-0.66818 82:-0.122606 83:-0.393818 84:-0.290317 85:-0.789753 86:-0.157597 87:-0.50635 88:-0.372882 89:-0.280177 90:-0.727828 91:-0.0367061 92:-0.0698102 93:-0.15286 94:-0.405694 95:-0.180997 96:-0.523128 97:-0.648195 98:-0.205002 99:-0.606675 100:-0.574764 101:-0.434086 102:0.138769 103:-0.392968 104:-0.480991 105:-0.358801 106:-0.619937 107:0.00109763 108:-0.852127 109:-0.323739 110:-0.225813 111:-0.104102 112:-0.666207 113:-0.26386 114:-0.388262 115:-0.609122 116:-0.522784 117:-0.358227 118:-0.130844 119:-0.455242 120:-0.620317 121:0.0457528 122:-0.420912 123:-0.0752497 124:-0.171732 125:-0.575272 126:0.0456431 127:-0.374076 128:-0.942287 
16.5488349348321 1:-0.472952 2:1 3:-0.0779525 4:1 5:0.286258 6:1 7:-0.377344 8:1 9:-1 10:-0.795646 11:-1 12:-0.537731 13:-1 14:-0.856967 15:-1 16:-0.962291 17:-0.158988 18:1 19:-0.0484558 20:1 21:-0.504143 22:0.49708 23:-1 24:-0.135001 25:-0.952752 26:-0.0359019 27:-0.868901 28:0.10029 29:-0.991195 30:-0.118778 31:-1 32:-1 33:-0.918346 34:0.554742 35:-1 36:0.238345 37:-0.174739 38:-0.0542938 39:-1 40:0.182885 41:-0.963975 42:-1 43:-1 44:-1 45:-0.609693 46:-0.53023 47:-1 48:-0.956304 49:-0.487535 50:0.598363 51:-0.863986 52:0.87157 53:-0.799853 54:-0.3437 55:-1 56:-0.817604 57:-0.289235 58:-0.488073 59:-0.799747 60:-0.867078 61:0.0177301 62:-0.133777 63:-1 64:-0.938764 65:-0.915876 66:-0.441018 67:-0.320847 68:0.700349 69:-0.279825 70:-0.586229 71:0.581862 72:0.490635 73:-1 74:-0.96578 75:-0.974619 76:-0.16289 77:-1 78:-1 79:-0.868759 80:-0.832167 81:-1 82:-0.734915 83:-0.883081 84:-0.499869 85:-0.981394 86:-1 87:-0.962245 88:-1 89:-1 90:-0.952573 91:-0.984275 92:-0.378059 93:-1 94:-1 95:-1 96:-0.974237 97:-1 98:-1 99:-0.812136 100:-0.659914 101:0.475811 102:-0.629178 103:-0.0465584 104:-0.4325 105:-0.78762 106:-0.706873 107:-0.932988 108:-0.706389 109:-0.105695 110:-0.211666 111:-0.1508 112:-0.300683 113:-1 114:-0.97977 115:-1 116:-0.91437 117:-0.975297 118:-0.864779 119:-1 120:-0.996176 121:-0.579352 122:-0.418872 123:-0.338052 124:-0.470258 125:-0.203699 126:0.26371 127:0.205843 128:-0.875911 
2.562857117809438 1:-0.663152 2:-0.571395 3:-0.372044 4:-0.452205 5:-0.0752848 6:0.0865291 7:-0.392659 8:-0.256074 9:-0.320492 10:-0.34937 11:-0.211651 12:-0.49555 13:0.404304 14:0.835018 15:-0.202582 16:-0.406799 17:-0.945602 18:-0.721006 19:-0.695748 20:-0.357771 21:-0.523682 22:0.191382 23:-0.905106 24:-0.263282 25:-0.871282 26:-0.885001 27:-0.644233 28:-0.395539 29:0.336312 30:0.376918 31:-0.21585 32:-0.655159 33:-0.899051 34:-0.27625 35:-0.811495 36:-0.311526 37:0.0654282 38:-0.337236 39:-0.884861 40:-0.597789 41:-0.931074 42:-0.794363 43:-0.612588 44:-0.779183 45:-0.129682 46:0.224703 47:-0.548149 48:-0.630564 49:-0.697267 50:0.236319 51:-0.44754 52:0.970039 53:0.0420421 54:0.242597 55:-0.756633 56:0.122505 57:-0.68818 58:-0.896747 59:-0.731412 60:-0.807162 61:-0.235028 62:-0.058296 63:-0.565442 64:-0.720165 65:-0.541663 66:-0.462641 67:-0.362559 68:-0.28935 69:-0.717052 70:-0.326017 71:-0.800688 72:-0.582944 73:-0.230984 74:-0.87068 75:0.297364 76:-0.546477 77:0.218913 78:-0.0469262 79:-0.0515441 80:-0.810823 81:-0.878183 82:-0.560138 83:-0.0828008 84:-0.359736 85:-0.898015 86:-0.603141 87:-0.829934 88:-0.674203 89:-0.545288 90:-1 91:0.0393124 92:-0.435248 93:-0.380104 94:-0.742183 95:-0.581791 96:-0.812413 97:-0.633651 98:-0.199071 99:-0.358666 100:-0.38064 101:-0.68823 102:-0.113846 103:-0.839868 104:-0.808564 105:-0.554058 106:-0.879902 107:0.108853 108:-0.880072 109:-0.177112 110:-0.52392 111:-0.440985 112:-0.889784 113:-0.0379815 114:0.0640924 115:-0.0534254 116:0.243882 117:-0.252386 118:0.043226 119:-0.626167 120:-0.586064 121:-0.173845 122:-0.607271 123:0.822449 124:-0.283108 125:-0.377736 126:-0.435648 127:-0.309435 128:-0.972016 
24.28626421866937 1:-0.654246 2:-0.696013 3:-0.237283 4:-0.708357 5:-0.518618 6:-0.537818 7:-0.286927 8:-0.418191 9:-0.331029 10:-0.441197 11:-0.309059 12:-0.518188 13:-0.458931 14:-0.335703 15:-0.418136 16:-0.635016 17:-0.771362 18:-0.628856 19:-0.338896 20:-0.200519 21:-0.543896 22:-0.099993 23:-0.750962 24:-0.164174 25:-0.505744 26:-0.447753 27:-0.15812 28:0.00972705 29:-0.395509 30:-0.147135 31:-0.0856551 32:-0.603932 33:-0.814691 34:-0.103219 35:-0.641657 36:-0.0629703 37:-0.299044 38:-0.39262 39:-0.696368 40:0.0733324 41:-0.350133 42:-0.485364 43:-0.234328 44:-0.586781 45:-0.292803 46:0.0598977 47:-0.243994 48:-0.377453 49:-0.571044 50:-0.0802498 51:-0.249695 52:0.56891 53:-0.269823 54:-0.149029 55:-0.644132 56:-0.0532072 57:-0.284956 58:-0.458661 59:-0.33544 60:-0.583638 61:-0.440376 62:-0.367346 63:-0.601791 64:-0.366046 65:-0.391616 66:-0.174071 67:0.0328403 68:-0.0679124 69:-0.667745 70:-0.125299 71:-0.204826 72:-0.138724 73:-0.0658731 74:-0.689606 75:0.0552107 76:-0.124012 77:-0.27645 78:-0.421498 79:-0.232484 80:-0.696104 81:-0.557206 82:-0.136143 83:0.0163462 84:0.346184 85:-0.76727 86:-0.327749 87:-0.551207 88:-0.193108 89:-0.348281 90:-0.591913 91:-0.0254119 92:-0.0314312 93:-0.210615 94:-0.544298 95:-0.214087 96:-0.428231 97:-0.629527 98:-0.127125 99:-0.239173 100:-0.239753 101:-0.464844 102:-0.0272839 103:-0.401523 104:-0.40699 105:-0.435325 106:-0.674637 107:0.269295 108:-0.827562 109:-0.459346 110:-0.542063 111:-0.232795 112:-0.7816 113:-0.364863 114:-0.417227 115:-0.461704 116:-0.398969 117:-0.584678 118:-0.335646 119:-0.550803 120:-0.709927 121:-0.330924 122:-0.301589 123:-0.0130734 124:-0.248262 125:-0.562405 126:-0.232108 127:-0.327992 128:-0.929049 
18.13543776381084 1:-0.778224 2:-0.711108 3:-0.609416 4:-0.553498 5:-0.393408 6:0.155506 7:-0.35481 8:-0.412481 9:-0.49711 10:-0.577346 11:-0.599784 12:-0.770029 13:-0.46207 14:-0.377616 15:-0.558807 16:-0.760136 17:-0.831817 18:-0.565711 19:-0.724973 20:-0.153706 21:-0.548937 22:0.814598 23:-0.785214 24:-0.00357316 25:-0.519743 26:-0.10855 27:-0.469189 28:-0.136143 29:0.00898823 30:0.0245041 31:-0.32453 32:-0.616584 33:-0.854762 34:-0.0817202 35:-0.72183 36:-0.342009 37:0.173838 38:0.570891 39:-0.691003 40:-0.00229721 41:-0.592311 42:-0.568649 43:-0.406643 44:-0.781265 45:-0.106757 46:0.343321 47:-0.509656 48:-0.50244 49:-0.66922 50:-0.118116 51:-0.668894 52:0.0204763 53:-0.350025 54:0.669769 55:-0.665182 56:0.128581 57:-0.276795 58:-0.261175 59:-0.370357 60:-0.683144 61:-0.287649 62:-0.0449333 63:-0.53421 64:-0.19346 65:-0.208342 66:0.329178 67:0.0161678 68:0.0264532 69:-0.43038 70:0.00673092 71:0.0190869 72:-0.19839 73:-0.297205 74:-0.76673 75:-0.323248 76:-0.569353 77:-0.0183651 78:-0.459906 79:-0.563781 80:-0.912245 81:-0.820151 82:-0.385806 83:-0.340336 84:0.0539453 85:-0.837206 86:-0.44938 87:-0.597899 88:-0.484273 89:-0.365568 90:-0.870378 91:-0.47389 92:-0.115608 93:-0.230548 94:-0.681963 95:-0.546327 96:-0.640494 97:-0.655302 98:-0.348563 99:-0.295332 100:-0.422344 101:-0.019251 102:0.276333 103:-0.208988 104:-0.642099 105:-0.409349 106:-0.785146 107:-0.271114 108:-0.890806 109:0.0606832 110:-0.331647 111:-0.311458 112:-0.584352 113:-0.47381 114:-0.643988 115:-0.694181 116:-0.689024 117:-0.533324 118:-0.548817 119:-0.656604 120:-0.734155 121:-0.256067 122:-0.53521 123:-0.455579 124:-0.638096 125:-0.145522 126:-0.649591 127:-0.564128 128:-0.979612 
5.861628471847173 1:-0.637999 2:-0.323811 3:-0.71751 4:-0.565443 5:-0.670887 6:-0.197438 7:-1 8:-0.21679 9:-0.624604 10:-1 11:-0.14195 12:-0.857808 13:-0.748651 14:-1 15:-0.706519 16:-0.842626 17:-0.530719 18:-0.354894 19:-0.548787 20:-0.522086 21:-0.549336 22:0.542855 23:-0.80297 24:-0.317041 25:-0.520923 26:-0.804123 27:-0.220151 28:-0.810758 29:-0.527974 30:-0.622091 31:0.364737 32:-0.776845 33:-0.811761 34:-0.310749 35:-0.776781 36:-0.366801 37:-0.593888 38:-0.543857 39:-0.853822 40:0.143591 41:-0.106907 42:-0.732353 43:0.943638 44:-0.627128 45:-0.510728 46:-0.455498 47:-0.241367 48:-0.336494 49:-0.616688 50:-0.438164 51:-0.422182 52:-0.184096 53:-0.626107 54:0.290359 55:-0.721631 56:-0.244363 57:-0.543401 58:-0.858337 59:0.61156 60:-0.860861 61:-0.652631 62:-0.451229 63:0.533224 64:0.325437 65:-0.233771 66:0.924984 67:-0.267663 68:-0.700657 69:-0.680616 70:0.870255 71:-0.591032 72:-0.66144 73:0.172561 74:-0.674502 75:0.283492 76:-0.434833 77:-0.395042 78:-0.175525 79:-0.276217 80:-0.834438 81:-0.588742 82:-0.187646 83:-0.417816 84:-0.761427 85:-0.712459 86:0.181253 87:-0.62169 88:-0.590403 89:-0.174641 90:-0.817429 91:-0.121723 92:-0.751237 93:0.396933 94:-0.629595 95:0.476586 96:-0.696026 97:-0.40703 98:-0.166468 99:-0.55593 100:-0.926078 101:-0.727047 102:0.581929 103:-0.543277 104:-0.733127 105:0.228425 106:-0.728564 107:0.852855 108:-0.831516 109:-0.391422 110:-0.247026 111:0.855741 112:-0.1609 113:-0.62911 114:-0.894669 115:-0.81084 116:-1 117:-0.796704 118:0.0513148 119:-0.929276 120:-0.881104 121:-0.0148266 122:-0.695204 123:0.143851 124:-0.860248 125:-0.285526 126:-0.545608 127:1 128:-0.94012 
12.24590025484031 1:0.0660075 2:-0.644578 3:-0.376459 4:-0.767391 5:-0.144386 6:-0.687601 7:0.542109 8:-0.35666 9:0.048903 10:-0.0280963 11:-0.568414 12:-0.571122 13:-0.475398 14:-0.128997 15:-0.155546 16:-0.168955 17:-0.397106 18:-0.667677 19:-0.633063 20:-0.483461 21:0.0363596 22:-0.0149544 23:-0.391643 24:-0.154469 25:-0.290119 26:-0.37072 27:-0.883599 28:-0.569289 29:-0.742931 30:-0.377975 31:0.0789045 32:-0.402407 33:-0.511613 34:0.130647 35:-0.401933 36:-0.11541 37:-0.25659 38:-0.417073 39:-0.340669 40:0.034647 41:-0.246855 42:0.149059 43:-0.210632 44:-0.555415 45:-0.833055 46:0.0311136 47:-0.338725 48:0.395388 49:-0.0737771 50:-0.129128 51:-0.138325 52:0.319301 53:-0.515186 54:-0.27395 55:-0.383511 56:0.226311 57:-0.770426 58:-0.546162 59:-0.688184 60:-0.662639 61:-1 62:-0.608692 63:-0.775567 64:-0.468336 65:0.0602355 66:-0.251051 67:-0.819738 68:-0.255437 69:-0.662165 70:-0.120526 71:-0.595948 72:-0.567023 73:-0.360059 74:-0.569961 75:-0.770764 76:-0.433523 77:-0.456097 78:0.0806672 79:-0.306757 80:-0.454625 81:-0.29393 82:-0.225116 83:-0.17468 84:-0.417262 85:-0.702169 86:-0.300811 87:-0.346351 88:-0.118776 89:-0.243713 90:-0.39579 91:-0.556176 92:-0.310006 93:-0.233818 94:-0.32424 95:-0.00597905 96:0.308906 97:-0.430114 98:0.0836539 99:-0.450199 100:0.185123 101:-0.816138 102:-0.265799 103:-0.438279 104:-0.353083 105:-0.582483 106:-0.408607 107:-0.695726 108:-0.409287 109:-0.752854 110:-0.554791 111:-0.265886 112:-0.360832 113:0.394591 114:0.0657175 115:-0.356928 116:-0.489855 117:-0.545207 118:-0.390806 119:-0.397835 120:-0.428504 121:-0.366649 122:0.0683514 123:-0.282999 124:0.141244 125:-0.775601 126:-0.395102 127:-0.0934388 128:-0.831442 
8.988397189966257 1:-0.67073 2:-0.559374 3:-0.596547 4:-0.488332 5:-0.519351 6:0.222187 7:-0.487596 8:-0.261099 9:-0.355157 10:-0.663529 11:-0.744173 12:-0.776826 13:-0.201219 14:0.219609 15:-0.5759 16:-0.711398 17:-0.793885 18:-0.568037 19:-0.751976 20:-0.197394 21:-0.288131 22:0.628795 23:-0.95181 24:0.167203 25:-0.645268 26:-0.730021 27:-1 28:-0.697375 29:0.225282 30:-0.00361066 31:-0.383884 32:-0.83835 33:-0.736664 34:0.340595 35:-0.758414 36:0.0332758 37:0.0926459 38:0.790266 39:-0.729405 40:0.153787 41:-0.694783 42:-0.489297 43:-0.548628 44:-0.800131 45:0.178684 46:0.680296 47:-0.500685 48:-0.431345 49:-0.710169 50:-0.0182323 51:-0.801525 52:0.438571 53:-0.0259245 54:0.739914 55:-0.738735 56:-0.486613 57:-0.712705 58:-0.857021 59:-0.776232 60:-0.892457 61:-0.243257 62:-0.0437295 63:-0.695897 64:-0.700148 65:-0.646043 66:-0.629375 67:-0.790844 68:-0.168779 69:-0.848011 70:-0.319496 71:-0.772069 72:-0.63486 73:-0.401561 74:-0.970233 75:-0.289674 76:-0.867911 77:-0.16315 78:-0.374524 79:-0.580576 80:-0.84837 81:-0.803024 82:-0.228729 83:-0.106113 84:0.224175 85:-0.820356 86:-0.300822 87:-0.67259 88:-0.449361 89:-0.429047 90:-0.82917 91:-0.0728847 92:-0.598388 93:0.0687035 94:-0.466072 95:-0.267955 96:-0.682637 97:-0.797567 98:-0.3294 99:-0.843163 100:-0.546531 101:-0.706155 102:0.140522 103:-0.746379 104:-0.657884 105:-0.571233 106:-0.867855 107:-0.0990059 108:-0.912038 109:0.0397278 110:-0.395239 111:-0.266412 112:-0.610087 113:-0.318706 114:-0.417785 115:-0.76929 116:-0.54738 117:-0.553728 118:-0.164764 119:-0.637047 120:-0.742754 121:-0.200345 122:-0.552147 123:0.187553 124:-0.696399 125:-0.0859029 126:-0.76027 127:-0.103201 128:-0.958267 
0.3059950878826414 1:-0.133589 2:-0.632281 3:-0.33134 4:-0.628113 5:0.122516 6:0.000567589 7:-0.183517 8:-0.427635 9:-0.62862 10:-0.621627 11:-0.741105 12:-0.736937 13:-0.476199 14:-0.263424 15:-0.595897 16:-0.38082 17:-0.644419 18:-0.544111 19:-0.581134 20:-0.188956 21:-0.308744 22:0.79136 23:-0.626066 24:-0.633567 25:-0.77505 26:-0.759192 27:-0.182834 28:-0.735997 29:-0.433925 30:-0.173136 31:-0.481688 32:-0.747298 33:-0.804491 34:0.190944 35:-0.658357 36:-0.10198 37:-0.134902 38:0.168545 39:-0.66105 40:0.255368 41:-0.902326 42:-0.511134 43:-0.64563 44:-0.746346 45:-0.109323 46:0.357244 47:-0.609373 48:0.0481926 49:-0.536212 50:-0.151677 51:-0.558406 52:0.0152093 53:-0.133915 54:0.565498 55:-0.373109 56:-0.475599 57:-0.753728 58:-0.737735 59:-0.445377 60:-0.821805 61:-0.339816 62:0.0650977 63:-0.795802 64:-0.367875 65:-0.448257 66:-0.333856 67:-0.447742 68:0.697266 69:-0.752876 70:-0.412502 71:-0.753858 72:-0.613138 73:-0.254669 74:-0.787069 75:-0.0843113 76:-0.189506 77:0.289264 78:0.013281 79:-0.786067 80:-0.728443 81:-0.406418 82:-0.530026 83:0.213543 84:0.258642 85:-0.85972 86:-0.467191 87:-0.59115 88:-0.297177 89:-0.502532 90:-0.655904 91:-0.0561296 92:-0.0106685 93:-0.712344 94:-0.523221 95:-0.733218 96:-0.194709 97:-0.769228 98:-0.281304 99:-0.598794 100:0.28523 101:-0.745679 102:-0.343167 103:-0.768761 104:-0.550803 105:-1 106:-0.712587 107:-0.546499 108:-0.020573 109:-0.305734 110:-0.235425 111:-0.706848 112:-0.525511 113:-0.222176 114:-0.531377 115:-0.450687 116:-0.512599 117:-0.770836 118:-0.619209 119:-0.626931 120:-0.688076 121:-0.828388 122:-0.706288 123:-0.307409 124:0.0168904 125:-0.786074 126:-0.191446 127:-0.99329 128:-0.954826 
